-9.813429450366960294e-02
1.778869380059276140e-01
-5.342706317582691655e-01
-2.191275782421208407e-01
-4.082745641471040576e-01
-4.533746732738383467e-01
-3.179144029844622188e-01
-1.963098111628290565e-01
-1.369695586884291938e-01
4.295949660975206114e-02
-1.160895903649039468e-01
1.569422437878235099e-01
-2.897342215219645412e-01
3.458629521149580444e-01
-4.992558196723425601e-01
1.738590850619281536e-01
-1.190868650907992016e-01
2.556469556064655535e-02
-3.386289579159219576e-01
-3.225040887411715351e-01
2.870770316129910849e-01
4.906521857218738014e-01
-2.041745039277109153e-01
1.780288440665273031e-01
3.884929280935373597e-01
3.720790472421211525e-01
-4.337601618744561516e-01
-4.555792087900749632e-01
-3.526681350562625994e-01
3.642951688569743274e-01
-3.979535386531599106e-01
-1.034837118004985484e-01
4.442732568750866196e-01
3.879337266553233715e-02
1.694870623072411431e-01
-1.992391822713217020e-01
1.946042203376551483e-01
3.104070261680838549e-01
-5.007869709581379558e-01
2.579346217160385923e-01
4.644940632694125049e-01
2.275788582731698428e-01
-2.122897685008988122e-01
2.708457913533097727e-01
-4.104464449155493244e-01
-4.642214920678140039e-02
3.898921465591628222e-01
-2.196944311052631826e-01
-2.080133509917198031e-01
-3.987770662244499720e-01
-4.987614337777245277e-01
1.681791970081175924e-01
-3.267484914149669240e-01
-2.677464069369608346e-01
-1.711896888882378717e-02
-4.741264316869287510e-01
4.682690459403388017e-02
-3.597948462894998145e-01
6.995985871544029011e-02
1.769083990659224281e-01
-4.016179374387464640e-01
-1.029751875852190912e-01
1.767301290416525283e-01
-8.496332668768813434e-02
-4.618398805177823530e-01
2.779543919001431149e-02
1.711058894104920958e-01
9.755661916230064581e-03
4.418943309682053511e-01
8.631900658037212903e-02
3.856902129734450235e-01
-3.723187997193650456e-01
-3.511790860546030735e-01
2.840880740492138234e-01
-1.052878221856424212e-01
-3.392310051409495597e-01
3.913745109407943956e-01
-1.645093788284409664e-01
2.438780382996643681e-01
1.906823333934924702e-01
3.701262801340609587e-01
1.205738577671758988e-01
2.228454881627441875e-01
-1.630359470837943470e-01
-2.332738806106612051e-01
3.668819392635216947e-01
-8.324040797196446961e-02
4.616641691930537528e-01
1.367865368768620971e-01
1.077001426161054015e-01
-4.023808327151567887e-01
4.065708527326006849e-01
-8.150642644857408747e-02
4.564287374266495084e-02
-1.426565348391156951e-01
-3.044584093972723116e-01
3.697215498776613152e-01
3.123779191785803697e-02
-5.294292886950888732e-01
8.876048405245934303e-02
-2.081084673350145076e-01
6.299922190375594963e-03
3.601053213786814533e-01
-1.795532477372375202e-01
3.857211071160098204e-01
9.369759972214075638e-02
-5.246511762291928838e-01
4.037566901711690526e-01
1.496987839987887758e-01
4.499238701294246412e-01
-3.580302426907631119e-01
-4.056614948294270384e-01
3.873843848473642604e-01
1.705964440102651636e-01
-4.655389121884394021e-01
2.216897092405406555e-01
2.389371417259616437e-01
4.029732198269465049e-01
1.854542165973857848e-01
-3.833960256503753938e-01
-4.946993995450030823e-01
-4.928607845056182657e-01
-4.683457104769489510e-01
-2.506833830727552836e-01
3.566764555355065314e-01
5.735520222438037635e-02
5.606939053123513594e-02
3.385567902813828578e-01
-3.557746655054895291e-01
-2.169413988249654923e-01
8.183392580163095786e-02
4.928218983709110046e-01
6.262478118731598653e-02
-4.850637048148224162e-01
3.189078184102099867e-01
-2.650327242577837361e-01
3.053556239787829640e-01
-1.031604543051483219e-01
3.746518461255560206e-01
2.563435008572457208e-01
7.126873225280919155e-02
-3.525115307203169901e-01
-4.335676445201980256e-01
-3.631747266941814933e-01
-4.495824739797060765e-01
-3.951606284637351751e-01
-2.619471941431715800e-01
2.129873583681267668e-01
5.185505353486376950e-02
-4.834452112798939827e-01
-4.239950835692473663e-01
4.653373751661890600e-01
7.022755850663162103e-02
-3.047227727524194907e-01
-2.590442707706938075e-01
2.322266191534431701e-01
-3.073417120677649494e-01
7.382136646844847383e-02
4.585022510131062656e-01
3.437552645165335985e-01
-2.728995130275419512e-01
-1.963973322769310692e-02
1.311061184093096077e-01
3.307499728803122152e-01
-3.416581106154411018e-01
-4.677005379240617433e-01
-4.230772484546430623e-01
-5.027874266560714359e-03
1.152340912174390081e-01
7.017515538297171285e-02
-1.760479792961777146e-01
5.030347003731179267e-01
8.483339354904302632e-02
-1.031872135133451301e-01
6.476427068009579791e-02
2.484004219027232119e-01
1.828459675509053195e-01
-2.213773757897791461e-01
-4.319348161113452655e-01
-1.154879292817169723e-01
1.564795902393795179e-01
-2.727589006350316647e-01
2.830427111613617597e-01
-4.016654101281791900e-01
-2.198974818651993068e-01
3.429919330667898225e-01
-2.752393814772971514e-01
1.591542205889242834e-01
5.698171407447841230e-02
4.442401981903532637e-01
-2.248357164966992283e-01
-4.137394442539564787e-01
2.158085964271561907e-01
2.296977482617058586e-01
3.726837058982485629e-01
4.184080511244768763e-01
-5.273508727701704535e-01
-3.006015554042040239e-01
1.189838710143073658e-01
4.189825932418895227e-01
4.269950049054720420e-01
7.047157058705415256e-02
3.920873664956608384e-01
1.263341899780943411e-01
-1.002550978048190461e-01
-4.053236403073922495e-02
8.262597615195069189e-02
4.750177835122412762e-02
3.846106520296141418e-01
3.823556475712994174e-01
-8.974012012530477311e-02
4.363040817193529763e-01
-3.441000547251659158e-01
-3.414502572591476826e-01
-3.727838773986745791e-01
4.186256019098653393e-03
-4.592481717649475326e-01
4.316918812824137586e-01
3.155261823294318035e-01
-4.855722624385037656e-01
-3.560680928063849060e-01
-1.901846501167820391e-01
-3.723969607627012901e-01
2.755169977885600918e-01
-1.731379279000266613e-01
4.372857975533561148e-01
4.809002962447932877e-02
3.604354110850409576e-01
3.480716458678550507e-01
3.769223011482915608e-01
-5.906666567495317405e-02
6.191957756163668503e-02
2.819521033238168717e-01
-2.206278101249390111e-01
3.750449015346180373e-03
8.555595833112329684e-02
-4.892923355855712253e-01
1.009468988696514691e-01
-8.884060269118819464e-02
2.917582003635822430e-01
-1.817719687807073936e-01
3.644523119890925034e-01
5.910843915172339647e-02
-3.204020590067238605e-01
2.577637489931033921e-01
8.312689000430162345e-02
-4.576774028374185899e-01
-1.103786848898293538e-01
1.486707543287608402e-01
4.093512015232499412e-01
-5.204543588501994167e-01
4.541121778799011022e-01
-1.325627899061163906e-01
4.499676190820163235e-01
8.124547569869353114e-02
3.277174182623878163e-01
5.487065058540079032e-02
1.160999998461814675e-01
-2.077817303758649203e-01
7.551125961525732844e-02
2.445389569420970133e-01
3.649661489748602383e-01
2.415876873220512699e-01
1.938893177424833580e-01
3.759544918622480525e-01
-1.904899076710189487e-01
1.762934602082725788e-01
-4.384540266422387589e-02
-1.410122456725152185e-01
-8.604432592202489183e-02
-1.005019424283677965e-01
-2.128288345201898579e-01
1.168166877880755516e-01
-6.759998154905373646e-02
4.495428768221312876e-01
1.692247233781372096e-01
-3.022923331883241027e-01
-1.012268631266856206e-01
-1.712881362939026597e-01
2.995213666861480384e-01
3.587072044681602345e-01
3.881692751026911137e-01
1.544777414144338501e-01
-2.579419626052441572e-01
-2.747698876820443004e-01
3.326063328931914698e-01
-7.297711134677067370e-03
2.655491098770558778e-01
5.288768485777580602e-02
2.031353135571674351e-01
-1.169891701871023613e-02
2.496186585611278874e-01
3.702578634112888706e-02
-6.086932796610113744e-02
-1.803971333093283835e-01
-4.705099565638792281e-01
-1.495086765059317480e-01
-4.425423978104744971e-01
4.482199802263436839e-01
-3.397324658567098532e-01
2.846292226210453968e-01
3.424668222465229728e-01
1.739048030730794003e-01
3.678657725935959716e-02
-3.738337996374784811e-01
-5.361695785554331656e-02
-1.825138240618986440e-01
-3.018777818868844665e-01
7.760025748095314424e-02
-2.066524033697640650e-01
3.974220203847882438e-01
4.048233588589257859e-01
-2.554085308539496002e-01
-4.014637650957081361e-01
-3.012630543764501789e-01
-2.588348889739916590e-03
2.229881458200288491e-01
-2.770680303207839756e-01
-2.499599841195055683e-01
3.482817115699278765e-01
-6.514633217796185483e-02
1.192401633808398559e-01
-2.706282857378307649e-01
-3.764869377082025181e-01
2.012614480935541461e-02
-2.489793831320948406e-02
-3.266809363275511302e-01
1.189631991612458278e-01
3.981555628322361318e-02
1.615970303259681162e-01
-3.559743623695663661e-01
2.568255658963418120e-01
-2.712094042093661228e-01
1.527325065552015936e-02
2.788300534581149015e-01
-4.786261080703126392e-01
-1.880735002466079331e-01
3.560810688369901444e-01
3.374707578789418738e-01
2.905506453084076915e-02
3.531313254833249315e-01
4.423513026277443028e-01
3.222076098949386291e-01
3.461634161891550820e-01
-4.054645465157962758e-01
1.349827374869437269e-01
1.867269606700398543e-01
9.386683441622804824e-02
2.925247656311262823e-01
-4.730068673899745502e-01
2.546372035515192533e-01
2.284770037419596167e-01
-2.452453738920127857e-01
-2.527199288708746883e-01
1.296238611106300398e-01
-1.636748051029121021e-01
2.848441003743472644e-01
-4.690835438149488362e-02
2.820436635431133321e-01
4.864928380924773976e-01
-1.861052566959173760e-01
-3.511668419144363118e-01
4.064565202749574890e-01
5.826928164142276129e-02
4.834574491483550340e-01
1.510441488662618570e-01
5.152899887797037781e-01
5.509965039229934580e-02
4.507106443150884351e-02
-3.435322836869466601e-01
-1.376091124495485429e-01
-4.534758634980831093e-01
-3.173835648717939217e-01
2.558908883151642111e-01
-4.446929312854041028e-01
-1.025465979928938814e-01
3.819999507530528193e-01
2.288520381616598875e-01
2.238903826050733514e-01
-2.886110889530005275e-01
-1.968000612732407131e-02
1.045638577355097881e-01
5.058167720400249534e-01
-2.653040685459897574e-01
-2.791311386682059359e-01
-2.877806462388669551e-01
2.052164005495985821e-01
-5.546088069357481276e-02
-4.769006480439171858e-01
-2.722319222610899633e-02
-2.828493685500464982e-01
2.742823237062468333e-01
-2.258490050147236028e-01
-4.484722641329102477e-01
8.326707506985367435e-02
3.405044915739351974e-01
-9.457896444539391767e-02
2.403294983237144189e-01
5.571737898910239864e-03
6.187104130487152548e-02
4.433171937574766908e-01
2.934553994639270136e-01
-4.456466466919347669e-01
1.946004882867626851e-01
-4.193145516792858019e-02
4.832220874445507519e-01
-2.804206651389044014e-01
-2.259160866660152034e-01
-3.947978354666888956e-01
-8.161519816080634038e-02
-3.936434773065565773e-01
1.430143891683172130e-01
2.790490715088723150e-01
1.811682029363598512e-01
2.647752827678832022e-01
-1.910801152568597505e-01
3.247905347781223639e-01
-7.412505250774041599e-02
2.890674182650452284e-01
1.073191308523658294e-01
-3.543885249790309500e-01
-4.496515512616507393e-01
-4.981556859359514422e-01
-4.145744424677383355e-01
-5.341608379124686279e-02
-3.878001022999192915e-01
-4.526500858606684607e-01
2.458768690105382071e-01
-1.029970272083290950e-01
2.608093227965411209e-01
-6.664661443371379390e-02
-6.273162515629525371e-02
-1.214585633974896682e-02
-4.885442614996462346e-02
2.869399505642804549e-01
-9.240352239297433545e-02
3.865151068269679357e-01
-4.822458687263792010e-01
2.768273699877514260e-01
-3.902205512734807091e-01
9.703262129729330054e-02
-4.869867064062115003e-01
2.709896801574981223e-02
-5.092491415230123719e-01
4.477958300373746647e-01
3.821614406110601103e-01
2.744825465272282550e-01
4.164802451969023545e-01
-3.812446559839413607e-01
-3.628006828895201652e-01
-3.088856207294584100e-01
1.016020988343422637e-01
3.914209860762182247e-01
4.973552644289714886e-01
2.013326160059785985e-01
2.297365446144977175e-01
4.293408217525453985e-01
-9.519712387874770809e-02
-2.326095921892735452e-01
-3.155714028768664692e-01
-3.905645692290962145e-01
3.271756555562791990e-01
-3.487707897280181157e-01
-2.576047440067389949e-01
3.224383892334323765e-01
-1.870713537232049362e-01
4.583128635881199009e-01
-2.409095917440110535e-01
3.679406383582674300e-02
-2.107961427845079228e-01
3.976980428541431745e-01
-1.267224664145952528e-01
-8.083845997614384771e-02
-7.931466004721273149e-04
4.369161210635815751e-01
-4.909567013930784540e-01
1.942181728790830786e-01
3.806417708778204179e-01
-4.981972011127125399e-01
-8.568727608512943100e-03
-1.865091786715004085e-01
3.362071742466961610e-01
2.514444055099535752e-02
1.687833294360580050e-01
-8.046578317119128243e-02
8.887408954495143454e-02
-2.394302232945743902e-01
-5.337537113592774052e-01
3.373522626163316662e-02
-2.087128208945822072e-01
-1.716132962739966294e-02
3.922024327252734421e-01
-9.460748948740010933e-02
-2.830195583855152353e-01
-1.422661631655064984e-01
4.113966985332256909e-01
4.124196694046755596e-01
3.334394581851778394e-01
4.041069611376733040e-01
-2.871914130523541830e-01
-4.137943736424454233e-01
-2.890610945529343279e-01
-2.005571048237118625e-01
-3.244901185721731918e-01
1.023480447179456604e-01
-9.331137064257724600e-02
3.269804122080998687e-01
-3.101017285985956939e-01
2.034993805009719936e-01
-2.433395855769351079e-01
7.490381285943989442e-02
-1.526146005168307340e-01
-4.271005171751895979e-01
-2.693533095554456747e-01
1.628771402386029465e-01
1.752610437257477380e-02
2.043040914107323650e-02
-3.286196895316167432e-01
8.754710596658311916e-02
4.943134570257839422e-01
3.121259293153981207e-01
1.008192636575774986e-01
4.797264264834194547e-01
4.069544405515882479e-01
1.011084559798940130e-01
-4.744712789716027390e-01
-4.168681343239907799e-01
-4.427200464900601373e-01
-6.839189505746211262e-02
-1.477421684574915517e-01
4.591101009131016153e-01
-3.403142361450259834e-01
4.605679898050572540e-01
2.555446187854730766e-01
3.216287866603004253e-01
1.281168325664346630e-01
1.653577445216484754e-01
-2.731172759101992836e-02
-4.932084984650472181e-01
-1.553400608049557985e-01
-1.628810289313291360e-02
2.216780868158353957e-01
-4.562254855351907668e-02
-5.244789375617806698e-02
-3.706497123973630514e-01
-5.051671077236533636e-01
2.490622519598917894e-01
-1.926444771631463937e-01
4.645942359376343256e-01
-2.877465611354144692e-01
-1.778364972759861051e-01
2.067155002527533945e-03
2.607754737707922987e-01
-3.995996241509196939e-02
-3.817178359831814860e-01
-1.739822560566708920e-01
8.886855966845946114e-03
1.780294566077929297e-01
2.814400509261944516e-01
-3.671263262440103703e-01
-4.698400040513663889e-01
4.111843636724801104e-02
3.226809712355627191e-01
-4.627793417406280696e-01
1.985063534759584636e-01
2.026654274104262021e-01
-1.930573657183059372e-02
4.485222853118954744e-01
1.674460927974345537e-01
-4.583994343709033581e-01
2.233031522548356920e-02
3.867757107228608771e-01
3.689889234571837595e-01
1.854216352166464521e-01
2.014317587859113801e-01
1.191922887152571109e-01
-2.318629779540899438e-01
2.719602130191433112e-02
1.434915924595256409e-01
-1.626233415454845233e-01
3.186098247900103764e-01
-3.446377115031866167e-01
2.427479376475458195e-01
-2.442291427044277763e-01
2.368065102414534939e-01
-5.175050430755415848e-02
2.950519965232601405e-01
-1.560563804155133683e-01
-2.580531245444107058e-01
2.599062709746262079e-01
-1.944846419500277090e-01
2.614753798785763861e-01
2.353080841731756689e-01
-2.835436541364133589e-01
-2.519699266675734517e-01
-3.015405215484593393e-01
-3.532625437018988568e-01
-8.051463450690996004e-02
-4.668459666431086785e-01
-3.775973613419671970e-01
2.056687696722330205e-01
2.970966598947022974e-01
-4.169496873601414300e-01
-2.542916318200495462e-01
-3.106944924897355742e-01
4.065224288844150324e-01
2.116906890607355429e-01
2.093302577410932619e-02
-2.194011852170722199e-01
3.255295091469588287e-01
-1.076320297229829831e-01
3.929707548637296766e-01
2.041320240721631041e-01
-5.668674889550797541e-02
-3.931513273958650023e-01
4.870007451395504394e-01
-3.615311688829870862e-01
-3.044021731604069636e-01
-4.802866237059251475e-02
-1.080917004483228083e-01
-3.508006651525833464e-01
2.456641459918694759e-01
-3.295023495570718608e-01
1.334357581083058242e-01
2.655503371895069908e-01
-3.109871943768315328e-01
8.194668117782355488e-02
2.609011137597649910e-01
1.270688806165092832e-01
8.356680958578931173e-02
-1.855803150364737086e-01
2.273434035607348191e-01
4.385354471474398608e-01
-5.789372593237224890e-02
2.782103461584615745e-01
-4.467945943939197750e-01
3.437740677514283805e-01
-3.235313963719202990e-01
-1.130546993295402231e-01
-1.910313756410651487e-01
-4.399627368967306551e-01
3.932671612105404502e-01
-1.191996612827907476e-01
1.677285981748951119e-02
-1.121875429483755807e-02
-3.506912773676080231e-01
-2.931903550697642080e-01
-4.133108721863165136e-01
4.069810725791802447e-02
-2.223619923699295953e-01
-1.091211130716878003e-01
-3.726796861609344425e-01
2.899436138362179727e-01
-3.718990623902433401e-01
4.976831171225405970e-01
-3.265425093662322475e-01
8.074030722977884600e-02
-4.502886595770045908e-01
2.744918738277356551e-01
-3.138531734056633771e-01
3.353717041418084743e-02
2.217515498645253880e-01
-3.602305205171805191e-01
5.690891272497720227e-02
-3.002009307464025833e-01
2.436193408638079039e-01
2.208147863232541308e-01
-3.499576998942440231e-01
3.340487389341146862e-01
-4.881630812113151863e-01
3.290942767274941394e-01
2.352148313626505755e-02
-1.113095967113619938e-01
2.291064272039930183e-01
1.761149309902304005e-01
4.649154894531030702e-01
-2.572941927264594808e-01
-5.371354663117441364e-01
4.063148378653834158e-01
3.160246052651274340e-01
1.908670859718063773e-01
-6.135271735767699238e-04
1.743873005658535535e-01
2.619719898573159012e-01
-1.471588567284144444e-01
2.429299733999842892e-01
2.377603561753066364e-01
9.608699146407082003e-02
-1.180327335338223205e-01
1.951824514024902146e-01
-5.057606661421159000e-01
2.653813647604288950e-01
4.049349124427750191e-01
-2.704098181530223410e-01
-3.927055697743562779e-01
-2.734638433212508990e-01
-1.955291568885391129e-01
3.789100521249529896e-01
5.780791563857660270e-02
-2.066593710135749551e-01
-3.594240604400764649e-01
-1.902693181170383718e-01
1.187715200842351659e-01
-1.777901637757411113e-01
-2.615144240407061421e-02
-5.463328652326061158e-02
3.234780270905332489e-01
-5.512504274527298825e-02
-1.559600062167854351e-01
1.684946141530916375e-01
-2.626737251925384542e-01
-4.824267920801813408e-02
-2.009392923754876603e-01
1.298596430506275268e-01
3.622806202279463261e-01
-6.711079455611855538e-02
2.816996585847284518e-01
-5.512339584150786204e-02
1.404854254830339710e-01
-3.738921110398558678e-01
-8.047309210680674008e-02
3.916229752828703781e-01
9.481147329895094067e-02
2.581737797049430405e-01
-8.888560013477981095e-03
-1.377906718548211999e-02
3.417171406670823086e-01
-4.398237242756841692e-01
6.665578180327695612e-02
4.344168877739457701e-01
2.064183994823572295e-03
-3.220271063869169503e-01
3.353474431747593409e-01
-2.644204407995396355e-01
1.856933128335754857e-01
3.229721033290054721e-02
4.398631557907408118e-01
1.150464633538336306e-01
3.404731252741496905e-01
-4.929902470178307849e-01
4.822787569418167664e-01
-4.252564211111578008e-01
-1.886050870899910470e-01
4.283982319941729844e-01
-4.892926115575574886e-01
3.143982504772878661e-01
3.465048619449140888e-01
-6.055912315970114757e-02
-2.481695270330572245e-01
2.934758592882298900e-01
-1.979547782867088768e-02
-3.682166807408042142e-01
4.285659439557678030e-01
4.119613225988101313e-01
3.534706092751709397e-03
3.779396228043746531e-01
-5.402541685269194455e-02
2.063953900641329886e-01
-6.630325229932859665e-02
3.489933646550842650e-02
-2.874153514653396968e-01
5.029397024787088943e-01
-1.693935529356041525e-01
-3.694136636420325970e-01
-3.167666688544705789e-01
-4.535725223138756812e-01
2.405969806984433468e-01
1.037433402426659323e-01
2.937055806259858959e-01
-2.162547619939913027e-02
2.692891171968954112e-01
1.855781358867590325e-01
2.397646821620053603e-01
-1.274095733847666889e-01
1.405145383134535075e-01
-3.586140856973451529e-01
-2.149499555522000338e-01
-3.156541364512088776e-01
-1.140816675515567147e-01
-2.759475817188629110e-01
-7.033990714879591322e-02
4.610590441607236301e-01
-1.863595655530667361e-01
5.030922076392911890e-01
1.206997770705943163e-01
-1.328204319503000774e-01
3.838156201707718096e-01
1.111534974022570788e-01
-2.497293143509405622e-01
3.271831595076575283e-01
-6.536444619628391239e-02
-1.326661191421402153e-01
-1.390912705349375555e-01
1.952474882271347245e-01
-2.240875427318519131e-01
3.220716898173420217e-01
-2.214498844750655004e-01
3.657689580494073722e-02
-1.533621105958730621e-02
3.216182979310934220e-01
3.650903772146555371e-01
-3.248851417109403505e-01
4.286963115271975877e-02
3.725569871756418405e-01
-5.719291787954307316e-02
3.841328695658255410e-01
-2.399354020257592202e-01
1.147326827327989907e-01
1.576536271264974420e-01
-2.820004155129516854e-01
-4.775413505039055595e-01
-1.039436805998459473e-01
4.310077575827433449e-01
-1.572697632684018076e-01
2.469521917835065250e-01
-3.540218025006994229e-01
-1.559113317391473963e-01
-3.829653751780937032e-01
1.889095151417636287e-01
2.140354488549785217e-01
1.803054607214500671e-01
-2.546174595844216682e-01
2.184602094872867273e-01
-2.705285225610631339e-01
-7.155361889181843793e-02
-1.061028519816053228e-01
-1.448528513912697713e-01
-4.394449023349525363e-01
1.492728060571124060e-01
2.007430334791515392e-01
1.118694889881955840e-01
1.675655871315409606e-01
-3.377223916586165053e-01
-3.501232014506226453e-01
3.525658013527190743e-02
3.736925887947226133e-01
-3.057323997091015433e-01
-1.072966231673034079e-02
-6.136750790309892373e-02
1.970604036475584117e-02
-3.034504948183838202e-01
-1.387446895302643646e-01
-2.034962906773809810e-01
3.740774983973667589e-01
3.137949843304914110e-01
-5.056997637977796861e-02
1.257821073831219549e-01
-3.469683558469576767e-01
2.006927584455941299e-02
-2.013361745781136469e-01
3.493578481050912954e-01
1.622016726284704891e-01
1.362375960514972950e-01
-3.949580006547825373e-01
-5.052804996487304107e-02
4.905879610166444804e-01
4.262237603708329270e-01
1.215366348208485325e-01
-3.530236420195760894e-01
1.074572002779956292e-01
3.105472663757883819e-02
-4.271587838936302672e-02
-1.065611057105067261e-01
5.712399729676448379e-02
3.296267976964550317e-01
2.172722132535834239e-01
3.249292592450759437e-02
4.056017611979815252e-01
-4.645498850431185600e-01
4.546816211895787774e-01
-4.628370723054804903e-01
-3.308939072166451334e-01
-1.029472111099695580e-01
-4.072031229562724786e-01
9.668488098215548276e-02
-4.700279061462271368e-01
-2.302718727894030037e-01
-4.585076275407942714e-01
2.031933379041120924e-01
1.600322375204884517e-01
-1.322102014726433405e-01
-2.983435424296987382e-01
2.442587289394889949e-01
-1.632245632864998131e-01
3.104441426152960148e-01
-1.558257852842105141e-02
1.777300614608133891e-02
-4.623905428437129483e-01
1.450595719223665980e-01
-1.510894748359143669e-01
-2.541305534001077615e-01
-6.277821944477218752e-02
-1.176684254481317332e-01
-1.228731189868190882e-02
4.810417506813052801e-01
-1.415405016016997308e-01
2.861759310235981735e-01
5.163060752515172269e-02
3.801353417787438627e-01
-1.268821669059114476e-01
-2.583881070459481122e-01
4.002671416367725721e-01
-4.401087977985624344e-01
4.324448032277620757e-01
3.733996780273650395e-02
-1.199367295654555909e-01
4.792817550186011522e-01
-4.580017978656695798e-01
1.408649569127220363e-02
-4.803625190875280282e-01
5.520534046153964536e-02
-3.194131269587889288e-01
1.143468473567245680e-01
4.584342090469142317e-01
3.692090827074921422e-01
-5.914438835818101869e-02
1.904126081174763729e-01
2.680080250039794110e-01
-8.024188757537445774e-03
1.628425183386066066e-02
-3.573303467533796574e-01
-1.330654215899348403e-01
-3.721758427020704918e-01
2.150487882520290550e-01
-3.511509950474364650e-02
-7.255861114797526601e-02
3.670269036396516804e-01
1.736844871054819828e-02
-1.064792168657466287e-01
-2.483635546765013136e-01
-4.274103910918559124e-01
-8.604628800069494265e-02
-4.859439382286377951e-01
-2.087331020986896157e-01
-3.156583150041640702e-03
4.507045269057541881e-01
-3.957009142898084697e-01
1.603826607499821699e-01
-2.082555581337553266e-02
2.790241275779962171e-01
-3.606233685448084203e-01
-4.240496987869554202e-01
-9.640711566915874386e-02
2.947003552929081116e-01
-3.073060033299070959e-01
2.819320527703416679e-01
-2.026633341493700724e-01
-2.680953283992331126e-01
-4.486601986403891407e-01
-7.080578097062731335e-02
-7.632055820549672742e-02
1.984405119572203169e-01
-3.940104198709299954e-01
-2.962835024011177820e-01
-4.421789736249560065e-01
-3.536790115929109302e-01
1.960714632691249737e-01
-6.733645385744471690e-02
-1.587532668553752191e-01
9.617233180142832627e-02
4.895418097563968285e-01
3.015024981132851667e-01
1.704808118825337504e-01
4.194666073567843156e-01
-4.918098021932096331e-01
-4.585324532750915671e-01
-1.349400458054902767e-02
-1.768824206301279622e-01
4.183525162991427182e-01
5.334824755914634870e-03
1.397092253847606602e-02
3.814376194283478627e-01
-3.631725373344896896e-02
3.579692005634043661e-01
-2.531326436489700904e-01
-2.138624673733484083e-01
-1.947591817631525168e-01
3.965009482773636934e-02
-2.677707919744363729e-01
1.527060450555333959e-01
-3.635945598699034109e-01
-3.771891991701220026e-01
3.717852434911914083e-01
-2.486965833203039766e-01
-8.934902347359688357e-02
7.160298569838753624e-02
4.016245240884847717e-02
-4.158837230655656469e-01
3.554545256419755495e-01
4.485392759479750469e-01
3.096494855618721065e-01
-2.482922549009049795e-01
1.387773723211738544e-02
-1.665544609952312738e-01
1.647299445224952724e-02
4.568847192149556591e-01
-1.908600886762628623e-01
1.306507199090123084e-01
-1.936321702780897380e-01
2.748829840833804106e-01
-2.050634510526574694e-01
3.706839515323215317e-01
2.455727590659219084e-01
2.293034324658472511e-01
-5.560385835963335688e-02
-3.020726460901012045e-01
-4.997665812123238682e-01
-2.132261726334989949e-01
-4.640938668167577386e-01
1.654754696031076888e-01
1.449169752141615253e-01
-5.763717632356394477e-02
2.563191964882541862e-01
2.915206978223517861e-02
-4.394593266921056895e-01
-3.688024390410807318e-01
-3.030294983069241055e-01
-1.446049617862360526e-01
-4.535183861047930587e-01
1.049785303177836193e-01
3.246467035477477309e-02
1.116168954102297606e-01
-6.997641205529094022e-02
3.748050110176164296e-01
-4.592623783796315196e-02
-4.777121367156820231e-01
3.987491034428666814e-01
1.623042122442718005e-01
3.416661628588932298e-01
4.749186699484904683e-01
-4.399184770458945404e-01
-2.468663261561024613e-01
-4.101923793906914750e-01
-6.805656376096866356e-02
3.812675918001375841e-01
-3.963674711320918642e-01
-1.985721700928602326e-02
-3.622782842214146704e-01
2.879592711256868665e-01
3.448708637412073452e-01
-4.516168161034500583e-01
-1.889355655286049235e-02
-2.790241445656241881e-01
4.334780960426838359e-01
4.410327987159647356e-01
8.985714042762438236e-02
4.453345415014275388e-01
-1.656133860253944101e-01
3.669532272688184049e-01
-1.008352327811563309e-01
-2.736160020900795242e-01
4.048718527803692457e-01
1.466499614467413337e-01
-4.418679938015114272e-01
3.411718453499171799e-01
1.697587530400409273e-01
9.772344833012264198e-02
2.131350449399584956e-01
-2.736099428565673675e-01
9.418064362060359074e-02
2.953774578798905592e-01
-4.663104191155875156e-01
-3.789875053648248393e-01
3.159699169968792076e-01
9.869195382746086265e-02
2.174049987236804579e-02
-2.680754636791304879e-01
-2.139469192373531781e-01
3.685544595503764675e-01
-8.185945319956577926e-02
-4.231758146018903544e-01
3.878716935566665636e-01
-3.023601547046289584e-01
3.443032281371555814e-01
3.795730181705512796e-01
-1.178042933900969036e-02
1.232855348877547746e-01
2.347073452215159978e-02
1.200573745252743463e-01
3.695021233379707781e-01
-2.226396362931975792e-01
3.815397910223733979e-01
8.486289932969412475e-02
-3.869590200125598289e-01
-2.771449496604629359e-01
1.104152351554844452e-01
-2.635595472436471076e-01
-3.764798610835123349e-01
-3.286594785613118352e-01
3.428573560165555367e-01
9.162266927356114976e-02
4.756841843829213712e-01
-1.573556317875254851e-01
8.341153951620038087e-02
1.112760260409545177e-01
1.049081575202873290e-01
-4.554816123882756140e-01
2.564515391576674963e-01
4.321196241601776289e-01
1.761444595813442190e-02
-3.117297776710832857e-01
2.311616317116661490e-01
-5.174774501276125926e-01
-1.846535217444320309e-01
3.956856947992060114e-01
6.066658981706933573e-02
3.428879662470958323e-01
9.276418321495784325e-02
3.055032489943625418e-01
3.718521808459044897e-01
-1.859012261908555286e-01
-3.899387185377193865e-01
2.157908308516327811e-01
-6.861602954431580970e-02
-3.875455698575313024e-01
8.199406245004381422e-02
-4.822610832982247020e-01
-3.241611021961069428e-01
2.695527212610050460e-01
-5.007023692205894161e-01
-2.143130255424193775e-01
-4.926062498817845858e-01
4.991031247363588719e-01
7.850922666482934575e-02
-2.112655813746264211e-01
4.406900362459025278e-01
1.108437335682461479e-02
-4.515992181822237050e-02
8.700975196671706380e-02
-2.457131957159145452e-01
-2.067483723681334540e-01
-1.248877666517255736e-01
-2.617441566835533862e-01
7.903841063889280316e-02
2.010454732190307681e-01
-4.283566754547353805e-01
4.757039898982891590e-01
2.712505898035058594e-01
3.162440962673981892e-01
2.728618883956906993e-01
-3.859151025056140605e-01
8.767743796452325683e-03
-9.017727455251442134e-03
2.119782421975351938e-01
-1.787957573574068884e-02
2.591330606102439926e-01
2.258846493390627985e-01
2.327545922238984655e-01
1.708039312216036165e-01
-3.121058750756633970e-01
2.889009920679537213e-01
3.302785393101947409e-01
3.981966865604431027e-01
-2.980929787467198055e-01
-3.505091486677245349e-01
-1.115816603811320140e-01
-2.105110999078690648e-01
2.868031765722443560e-01
1.249688914241973980e-01
2.341952414774011726e-01
-9.025723881214105238e-02
-3.901560243120138494e-01
-4.121095171896786424e-01
-1.390385564350948289e-01
-2.971137175083046755e-01
2.967734085439599490e-01
9.732344589596125806e-02
1.956485206261912579e-01
-3.205415360128585633e-02
-4.115272453256980101e-01
-2.570840859311294690e-01
-5.658059009667121969e-02
-3.006714517661616681e-01
-4.543673348449814853e-01
2.249281192093779969e-01
2.405733460545409763e-01
-1.532634315784095480e-01
3.400757093974324796e-01
-5.554871506998813185e-02
3.663523133687571209e-01
1.346468697320888641e-01
7.525390360899461561e-02
-2.978908043845620024e-01
2.141052722283434944e-03
3.888680728699867584e-01
-1.986054486425679610e-01
3.365097186522734152e-01
3.978649505310370982e-01
-1.663566350613548961e-01
1.515234718730079644e-01
3.874189437936455538e-01
-4.166415685284423631e-01
3.528017381117302675e-01
-3.200284976179466057e-01
3.564472963568225961e-01
1.430713985231892860e-01
-1.675759198738875355e-01
-3.474088470018490971e-01
1.051256620926714347e-01
3.259627936483653343e-01
3.241018178986525555e-01
1.020065619894864051e-01
4.347000800926280606e-01
9.479391270377431067e-02
-3.216558017249034895e-01
-8.543035097864272454e-02
-1.522020649958989447e-01
4.809952590969684416e-01
-1.261436099743320494e-01
5.155331593238670074e-01
1.061135669211099239e-02
-3.323268071713489369e-01
-4.054774877140489564e-01
-1.412832676362651141e-01
-3.859751811519528397e-01
1.517480232049469857e-01
-9.532291817951889235e-02
4.891759754480711209e-01
4.418714179285028743e-01
-3.560960394855021693e-01
-1.007815600493247726e-01
-3.036432428912655759e-02
5.688975495625604034e-02
2.763532058471805386e-01
5.815555684342834167e-03
-7.448788084382600150e-02
-2.321315553301941947e-01
4.344508666746219605e-01
-4.684878747111048125e-01
3.334895161083417103e-01
-2.969282338157412382e-01
1.873966529957767635e-01
-1.417953908763653625e-01
4.752526586744925674e-01
-3.917590321196141034e-01
-3.280906465383114368e-01
3.808268737231607082e-01
5.699732813059710940e-02
-2.236669303016055044e-01
-5.214700788682776755e-01
-3.115725413991211057e-01
-4.026079978203149223e-01
-3.106410509569380030e-01
3.568679248472401144e-01
3.294472422029053882e-01
2.082920710601764147e-01
-4.811095208155453246e-02
3.104697490764609102e-01
1.004913452764421081e-02
-1.432324846374631033e-01
-2.281519829183836501e-01
4.422138558724894031e-01
-1.190931746861872698e-01
-2.925751875801874905e-03
-2.354419300216986644e-01
3.711293683369589758e-01
-1.154229194626960886e-01
-2.062050434421543177e-01
2.098515797983687703e-01
-3.079222334978625741e-01
-3.873727188956748724e-01
3.386264930855101829e-01
2.582559223127061654e-01
8.408635254395459280e-02
-2.571200017522535797e-01
1.404030746278246145e-01
1.486726414109609817e-01
-1.580786693146232214e-01
-3.983743371710335435e-01
3.888925806708382615e-01
-2.909520698190807761e-02
2.955290816287261535e-01
-2.414999696595221401e-01
1.006711392624395768e-01
-4.100839766024231420e-02
-1.202392072812590029e-01
-3.749718954599300935e-01
-2.365252538439971686e-01
-4.243113367273518843e-01
-2.057898947479889773e-01
2.544297025479351770e-01
1.132892435701489953e-01
1.620781158836329672e-01
-4.805531615382032662e-01
1.767592324312284302e-01
-8.613401370355119532e-03
-2.568824698665398976e-01
-3.392728437053983415e-01
-3.368563037453672360e-01
3.424697723236446723e-01
4.621635652100256619e-01
3.879314722394858195e-01
-1.663796044030216581e-01
2.505274750983539911e-01
1.289910818503958723e-02
2.934868181299141732e-01
-4.215553558116098831e-02
5.749215542316784416e-02
2.659029184136519341e-01
-4.134355668168026021e-01
1.468739674059994609e-02
-1.502039757302136014e-01
9.100031705197127174e-02
4.368757472699995037e-01
-1.232401360760494169e-01
-1.125413697157116449e-01
2.813470055594177732e-01
1.400381153809867885e-01
-1.243881143897535013e-01
1.645568514619389078e-01
-1.156079355487762139e-01
-3.849913438238164454e-01
-7.404295329631165046e-02
-1.870511164667781057e-01
-2.889244188444887729e-01
4.184978094405256699e-01
1.804842021190090351e-01
1.116767353225618514e-01
2.539682154599278707e-01
4.518397090581986741e-02
2.127182238784312007e-01
4.338666314770999732e-01
3.610256306788660607e-01
-3.201481365870608164e-01
-2.351048583563069561e-01
-4.300805478756398181e-01
4.856592522834314862e-01
-2.663822194653220343e-01
1.629732431319831087e-01
-3.982720588766419101e-01
-2.853923938562011875e-01
1.477763056902608660e-02
-3.729089424483215121e-01
-9.481000516023982416e-02
6.600887754558378007e-02
-1.274051245409400512e-01
8.398453460501059675e-02
8.235826869199686096e-02
-6.689414082587662180e-02
2.269659744535819368e-01
2.261589153107212147e-01
2.262569269271133832e-01
9.203202123412194957e-02
-9.565242679174647267e-02
9.635337329946352947e-02
3.992312836498149720e-01
6.714880506376688651e-02
4.613599372315522196e-01
-9.813205823630175018e-02
2.015568479625398368e-01
-4.694246568368952155e-01
2.275276796767638221e-01
-1.376761037766959482e-02
-4.917238216504678516e-01
-2.513320599076788175e-01
2.103521413545107743e-02
2.800954102360746489e-01
-4.665083099376395315e-01
5.427181517521006970e-02
3.076493810868353718e-01
1.288638822692572405e-01
4.368482086642108131e-01
-4.236723785943271592e-01
-2.443469556941760268e-01
4.220795594398621398e-01
2.714420447670133907e-01
8.234359704038364536e-02
3.383300901594689658e-01
4.085106906429417650e-01
4.600055737333675343e-01
5.065358800205346235e-01
-3.560301750178853641e-01
-4.514713541362831983e-01
-4.305223043284376327e-01
-4.808731980855134869e-01
4.469984374354336043e-01
-4.094518276308713456e-01
3.445624210591063941e-01
1.561435273291915948e-01
-1.576265142447808021e-02
-1.456105501819282277e-01
-1.732914788247512106e-01
-2.478442882607163056e-01
4.385237294625311533e-01
2.158206387428541762e-01
-4.643381155101098945e-01
-1.728102926993112286e-03
-2.174814496315861101e-01
-4.548615093718463287e-01
4.131539651247777001e-01
2.626343777271558100e-01
-1.685482530815058111e-01
3.124363219137432091e-01
-1.936667203328804876e-01
-2.049280358054690887e-01
4.303109116319200345e-01
4.514754913924427515e-01
3.305402632245423803e-03
4.622146528681637667e-01
3.754156500682168662e-01
1.243220197374170742e-02
-1.010358975945540722e-01
2.077750697608844732e-01
-3.938815232114072779e-02
1.274929086852841231e-01
4.804541879112597114e-01
2.681351710280045486e-01
-1.578123214502731020e-01
-4.287294609471951068e-01
-3.240241355582544336e-01
2.089879692934813391e-02
-1.051941629778568310e-01
2.812580267929872813e-01
4.366202034820610978e-01
-3.288874968129014142e-01
3.473437055573275201e-01
4.759610796796676091e-01
4.710531313855960134e-01
-4.564009743004104891e-01
-4.235047058696376765e-01
-4.860382425688037356e-01
-1.792653009702414868e-01
-4.303862099387667506e-01
-2.032694291662344166e-01
-1.423112925197939083e-01
4.621805182219415054e-01
-2.783506519262072057e-02
-2.313388310704510287e-01
1.587239782452530990e-03
1.285299076383653039e-01
-4.155343251601826271e-01
2.411503759567826255e-01
3.198009183193664673e-01
3.006954755405949475e-01
3.780589591729919818e-01
-1.564451069260132388e-01
-1.014702664680883076e-01
-3.821410522695517509e-01
-2.880515292148501660e-01
4.531041276437764442e-01
-1.875159083764564028e-01
4.073306743292031684e-01
3.887576988505756503e-01
4.479612485462993732e-01
-3.447194573470079848e-01
3.831637593603376968e-01
1.405766046503224842e-01
-3.062056793851197778e-01
-1.623006344980844062e-01
-3.450408423049772244e-01
-6.859009381832180396e-02
-4.192578484974251452e-01
-3.429807811228078873e-01
-3.079129051697018782e-01
2.003000470747314798e-01
6.342111742584112533e-02
3.649871926520389942e-01
-2.449590918059391664e-01
1.399132276987551937e-01
-4.537717088485889172e-01
4.351869610900133828e-02
3.767173265488223954e-01
4.985201385547494701e-01
-4.569994268195550768e-01
-2.307683287224207014e-01
-2.607194076637788238e-01
-4.130401302966661969e-01
-4.791464917704322257e-01
4.860180229213512262e-06
-4.230818241427268256e-01
-2.252493260254401775e-01
1.329086965905151019e-01
-1.931127926291559549e-01
-2.346953758089330433e-01
7.948834539281991740e-02
-1.117676861384894194e-01
2.032393001751043593e-01
-1.339514216962407571e-02
1.430794169303137298e-01
-1.550988765015565429e-01
-2.281937051445116771e-01
-3.655593786881412566e-01
4.225218557718067869e-01
2.850427296782623854e-01
4.271982014215555679e-01
-3.421517234973629473e-01
4.081583190117066273e-01
4.145403073461246257e-01
-2.416570200381711331e-01
-2.477101544318234816e-01
3.527437264346478668e-02
-3.377074367920148146e-01
-8.544719319210680730e-02
-3.410575351593911897e-01
4.253366585819114976e-01
-3.469678296691428021e-02
4.370479226339685219e-01
1.340865154593152975e-01
-2.957050712489172131e-02
4.549035139501251823e-01
-3.685119769819030777e-01
1.143283222408477962e-01
1.450289658761788336e-01
-9.137405690924993440e-02
-4.704931726692709870e-01
-3.767816722436940352e-02
-4.906565078392656487e-02
2.882413970599809194e-01
-2.669546095527690066e-01
-1.076798392740419413e-01
-2.630123076064966314e-01
1.770909206098319755e-01
4.963647802148666299e-01
-3.230512067787888464e-01
3.131270054949114590e-01
-2.637270821608675986e-01
-4.427798171151245965e-01
-3.648756816720040153e-01
4.337942550288197974e-01
3.772151013058918645e-01
-2.154460691882359169e-01
4.514890400345715205e-01
3.464239586967747808e-01
-6.268058787444152902e-02
-2.610877975617252253e-02
1.319311305586001459e-01
-3.299116342721127859e-01
-4.601917895779290002e-01
-2.142423867937694459e-01
-4.471791692212465641e-01
2.117998581839388439e-01
8.015246642808952771e-02
-1.328393701760585965e-01
3.136159414815350432e-01
-3.271559936816235692e-01
-2.125263990850865536e-01
-2.358175958187499199e-01
-3.470628319152945229e-01
-4.396405056193603000e-01
3.390409958183561168e-01
-4.602504511989513603e-01
1.429012547236615249e-01
-3.937544942267334758e-01
-5.295108825921442941e-01
2.859492216395230837e-02
4.045207750566854887e-01
3.291659480437272856e-01
-1.712199205879487707e-01
-4.667082201938375641e-01
2.753158823059572713e-01
3.028596740162499135e-01
3.762833997407303843e-01
1.475011238241177580e-01
3.051435879567460652e-01
3.993171957441946085e-01
-6.634962318890877397e-02
5.902911724541282101e-02
1.143105694314331712e-02
1.744438428105344052e-01
1.878164994045117553e-01
4.296365709827131701e-02
3.230422633606918059e-01
1.657011969621076386e-02
3.403999990209988780e-01
-2.320683694121969676e-01
-3.191087812304262972e-01
4.834168740251135743e-01
2.249797716236320855e-01
-2.386491336171996658e-01
9.049886002066885593e-02
4.374273405134609938e-01
-4.124438064430704376e-01
-3.972664913173376555e-01
1.065251300311473859e-01
-2.603527445459381529e-01
3.029319007474293723e-01
6.856536247166808429e-02
1.886405865707534713e-01
-3.446177117431860615e-01
-4.071204272606412933e-01
1.577396414774304978e-01
-4.757979591395425367e-02
-4.090825798703539573e-01
-1.069508372541534413e-01
2.030242595159405805e-01
-3.184232020164213806e-01
4.012839340866268811e-01
4.662180283504764877e-01
4.470494625190660209e-01
2.264060009787489114e-01
-7.541120090539646381e-02
2.376537176660964423e-01
-2.016742687479056995e-01
-1.587088117316404201e-01
1.069419553524876554e-01
1.140540709325668228e-01
3.936054165247122594e-01
-2.526383704465046121e-01
2.642382893747552419e-01
4.489824633389626896e-01
-5.099858921449194060e-01
-3.053058207221811746e-02
1.516897551960709745e-01
3.265059144554980919e-01
-3.349964984966142811e-01
3.589645865762078891e-01
-1.373714916616703974e-01
3.805659313194438842e-01
-4.540006242509364021e-01
-4.000858768823398193e-01
4.851807091907173741e-01
1.246902426227781829e-01
-7.639796747308849612e-02
-3.235297292235226330e-01
1.637115790364988555e-01
-4.632281597402298501e-01
-1.898631627746933670e-01
-1.630935561095950281e-01
1.054976831083524885e-01
1.395681360479242850e-01
3.470490756390868792e-01
4.154997622652379374e-01
1.315102140766688521e-01
7.283024074947612447e-02
-1.204630676188477439e-01
4.333112772813341729e-01
-3.462721357989859694e-01
3.736003857344321610e-01
-2.167109435433905162e-01
6.703075861218980858e-02
1.751508016632770948e-01
-2.737073144444355233e-01
-2.964103359766785961e-01
1.694690384887159729e-02
2.983525792443800784e-01
2.189098919928582909e-01
-3.773469430421944049e-01
4.088546160721108214e-01
-2.146744597612817301e-02
4.241423541655622853e-01
3.754648699084072588e-02
-4.243664339178601641e-01
-3.145514663255388754e-01
3.432940533094605562e-01
1.989935697281662585e-01
3.878204918066178175e-01
-1.677509308288768208e-01
2.400852435498735879e-02
1.508319594930699892e-01
1.117679992660015609e-01
-2.640041765577941235e-01
-6.182789831055153507e-02
-2.252265917223894576e-01
3.568960316198676042e-01
5.063555692827843568e-01
-3.947402476530449400e-01
2.282706075630921982e-01
-1.508439879797548178e-01
1.683603651294443837e-01
-2.319445648226589052e-01
1.629798151480325585e-01
-9.256762078549217454e-02
-2.111697379601168156e-01
4.085715184498708297e-01
4.579858087505642716e-01
1.123050128640184081e-01
-2.845582148402170941e-01
4.577893304622477899e-01
2.554967450742350876e-01
2.538802450793126719e-01
-2.681834405040098290e-01
3.335493897798354479e-01
-2.584365141201250826e-01
1.490318808110847049e-01
2.047723161952632598e-01
2.357013237826514063e-01
-1.053398781721797961e-01
2.460577077591385720e-01
3.983820976768648325e-01
8.665281823209217138e-02
-4.308925158479392503e-01
-3.846549154429775297e-01
-4.032210616353630317e-01
-3.492919940557830394e-01
-3.929938925819789208e-01
2.558982538485809477e-01
-4.785427225476765467e-01
-2.793839721356343730e-01
3.539494251224702404e-01
4.608280998418150531e-01
9.011848035833529280e-02
4.571407029105789555e-01
-4.670453234926593145e-01
4.349488858600603081e-01
-2.032093364135768576e-01
2.753510010334526692e-01
2.861543943698721670e-01
3.364355417846995322e-01
-5.822940580195527099e-02
4.105282681180514870e-01
-2.630060762784008910e-01
4.302094042453546430e-01
1.089980576890078184e-01
4.742050967396891359e-01
-4.610380150263915233e-01
2.236527169027726081e-01
6.172113441298239522e-02
-4.014211833349146802e-03
-2.381726021182726249e-01
-1.709896093883313817e-01
-2.527445384622031832e-01
-2.869848067047878204e-01
3.032384141977197967e-01
-2.643862927029703731e-03
-4.268587979317783887e-01
2.801994447818049738e-01
3.998398860948172706e-02
2.401150429540828135e-01
3.577185061882987016e-02
-8.091668394450793333e-02
4.989521190839268372e-01
-4.356954040434025122e-01
4.617755289855055012e-01
4.504330256530990062e-01
-6.761385814741487088e-02
-2.580472616459699164e-01
1.396373224937697000e-01
-2.820331164840089166e-01
2.751020217210078944e-01
-2.886914189639871453e-01
-2.295440691759058904e-01
3.836437785586276905e-01
3.545528977998405606e-01
4.441091589395263807e-03
3.444133928312551607e-01
-1.910722716243540287e-01
4.761002769845134042e-01
-7.786168340119938025e-02
-2.452067645873601542e-01
-4.717201685222178198e-01
4.872970295545617225e-01
-6.895171628780588646e-02
2.229460136408809023e-01
1.467031327246215155e-01
1.971027346034812111e-01
-4.520599691361223416e-01
4.161217226701862115e-01
3.993597510388142702e-01
5.028687703566353528e-02
4.650354916027966135e-01
-2.427658368130554412e-01
9.988110450838752485e-02
-8.779437607246284858e-02
1.151507952580150540e-01
-1.942899107527821800e-01
3.381113358975026961e-01
-4.403270372274222799e-01
-4.505547160850323363e-01
-4.318025667599615369e-01
-3.615130885845699860e-01
-9.673729638069644698e-02
4.736819012076647906e-01
-4.004794467780178335e-01
1.625983262528627182e-01
4.793822271037650323e-02
-1.571572054231699100e-01
-2.858964948014011132e-01
-2.452972965872929345e-01
-4.566593601026613936e-01
2.337262918393230859e-01
1.965165566416762766e-01
-5.367886916877047387e-02
2.480636519807753182e-01
-3.455418922335996013e-01
4.445347344049516147e-01
3.787643070474073226e-01
1.810750315834884216e-01
-1.372175415618114569e-01
-7.785580568673729218e-02
-7.789173410767442560e-03
4.160343120907664116e-01
3.591414528742583046e-01
-1.181324846269154322e-02
4.484980213967923457e-02
3.803491564161403105e-01
4.695827253682340885e-01
1.387258979383463042e-01
2.654388814055056445e-01
-1.335844974294986554e-01
4.161382194873973206e-01
3.451385242348922744e-01
6.382904947264303464e-02
3.642991670278050709e-01
3.545818298595478368e-01
3.107301402142181312e-01
-3.751643931591418513e-01
3.054176407271151292e-02
4.025774615349836383e-01
2.714226938065258388e-01
-8.875006323093191651e-02
4.815153210175176501e-01
-2.469686126179469476e-01
-1.751811455641010262e-01
4.724769677136640422e-01
3.194673678266419792e-01
4.102108296134676091e-01
-4.669723918563736254e-01
-1.102124391116399288e-01
-2.576524070293062518e-01
-1.770538080265860459e-01
2.502401044364984117e-01
2.232086663662120052e-01
-1.812092261660180545e-02
-1.311428777167235882e-01
6.769596117663312373e-02
5.841638886156460403e-02
5.942853407891585810e-02
1.079379384942180942e-01
-7.585424748506465475e-02
2.847820472056745156e-01
-2.461733503757909947e-01
1.947704544514184677e-01
4.798950984326159630e-01
-4.839370873597363953e-01
2.648078426200594637e-01
-3.688663496424354760e-01
6.021112180157085769e-02
1.566268092825434943e-01
-2.414140859580176934e-01
4.315961911926721184e-01
1.320922448529675275e-01
-2.711368756752752796e-01
2.751092180324348213e-01
-3.975320657886619591e-01
4.553469983452990838e-02
-4.077769047873663344e-01
8.416705641670092775e-02
-2.450605519543909705e-01
1.614569454762329048e-01
2.224900423718208231e-01
3.770179461080237771e-02
1.861473759734021405e-01
3.248295047617605347e-01
3.352232710272964322e-01
1.594595519660781668e-01
-3.279542712083395595e-02
-6.169289896894528807e-02
4.226269179385859220e-01
2.198153581085875441e-01
-2.870187541393630082e-01
1.161051930858507525e-01
4.295137842153635699e-01
-3.248667927117199206e-01
3.942261540930077079e-01
3.239472951949708412e-01
7.258049520195622613e-03
-4.310712951761250800e-01
-3.494234191420233504e-01
4.305602852502431466e-01
-4.274424719166489139e-01
-1.177606583436524301e-01
1.279520548351664178e-01
-2.738891829972978087e-01
4.950873109647394021e-01
-3.286698656993079504e-01
7.185662152497335198e-02
1.243305336547247814e-01
-2.584558899554834088e-01
-1.485483066247109130e-02
-2.162948807457020645e-02
2.642009414816162693e-01
1.328848162268604083e-01
-5.665074238543102436e-02
1.525158143294753910e-01
-6.371969795264062486e-02
1.465339575759196621e-02
1.499774659054586845e-01
-3.376791202815452309e-01
2.773125250955248422e-01
8.948314954186288583e-02
4.559748415730907056e-01
-2.925540905804097647e-01
-5.218605894099805770e-02
3.670907873962444001e-01
9.218723589210918445e-02
2.140326797044044549e-01
-1.033679467670229335e-01
1.610503002925592897e-01
4.227362684869993559e-01
-3.238655312912720463e-01
2.818218243852878557e-01
4.449348338205302289e-01
-5.149323411916360005e-01
-2.989863319614999848e-01
-3.974284294651100335e-01
2.453988413336475882e-01
-4.232587949594326382e-01
4.911333202776389517e-01
-1.220982804687225781e-01
4.073107535788168532e-01
-3.146207308292985894e-01
-5.940422843443543544e-02
3.468107387209891090e-01
8.915567456598348650e-02
-3.437766829590739592e-02
1.108502362804249415e-02
5.981165409081080908e-02
-5.453630296535099536e-02
-2.977580079503414079e-01
-3.890872261430162182e-01
-3.296703075972122199e-01
-4.338633621179914246e-01
6.401462054181597527e-02
3.749575159733898877e-01
-1.135684054406352617e-01
-4.108983044264565843e-01
-4.098403086216969443e-02
1.307348163080339076e-01
-5.851433883871726832e-02
3.487248368712988489e-01
4.135136630857096929e-01
3.297620625053049870e-01
1.838836300348093977e-01
-5.950868822514638473e-02
1.347377245422294589e-01
-5.134315740402709549e-01
4.658658567985377030e-01
-3.712907762055440153e-01
3.907333065669415517e-01
3.001766245118757670e-01
2.646021657493491386e-01
-2.357025942740502700e-01
-2.852931307042251841e-01
-1.073779518074812478e-01
3.385122725176664127e-01
-5.920067469536382382e-02
3.923192054915836668e-01
-1.631253928958172617e-01
9.615784309413756559e-02
4.314199846808297045e-01
1.244262427813714461e-01
-4.717748980441117679e-01
-7.704727811700830264e-02
-1.826256885744607372e-01
3.492581159305137989e-02
-2.384789338957754579e-01
-3.805311556919399596e-01
1.794719214145857611e-01
1.638957737608537357e-01
3.693156795119078573e-01
-3.538922123366715633e-01
2.800073073808719282e-01
3.289407620967443879e-01
1.627945121414987040e-01
-3.116017408353348728e-01
-2.279770576572332785e-01
-6.384071888756891189e-02
2.317740604295794038e-02
-1.126665385629871917e-02
-1.803210497066043763e-02
3.198730368543779012e-01
3.736504170715763684e-01
3.388731919533901626e-01
3.682449190294843078e-01
8.321079699390789008e-02
4.889210056227052958e-01
1.013294783989228953e-01
1.184448782537857320e-01
-1.695323970715300610e-01
1.650016504236938297e-01
-4.477917155772871416e-01
-3.600799625852543762e-01
-3.872755932117449840e-01
1.509348894917268979e-01
-3.166280531105991614e-01
-1.666484958617459045e-01
-4.486830002108929683e-01
-2.502260151982279024e-01
4.626938339751132667e-01
2.189632753907296003e-02
-3.347625692114334361e-01
2.320130165328664062e-02
4.562797859823370938e-01
3.747020514726852602e-01
-1.096046725230392788e-01
-2.077994976958577877e-01
2.654679426979605350e-01
-2.599634521633114592e-01
-2.418779032912637406e-01
-4.155812481101170408e-01
3.650563864732642716e-01
-5.619997054011915960e-02
6.427564824118497944e-02
2.354107696195482380e-01
2.866592592725683009e-01
-3.407140370369089039e-02
-3.088978396132830984e-01
3.329616905163325091e-01
-4.395627592573889686e-01
4.672428503614267092e-01
9.280700998960987602e-02
4.198706525314114257e-01
1.390407323117119898e-01
-2.318135603931656685e-01
-1.601915964792832714e-01
6.068844570914954523e-02
4.747063162642789491e-01
-2.829110541015040226e-01
2.807429156510885329e-02
-1.501185331480333618e-01
3.038892694892262880e-01
3.212148715362508899e-01
-6.934634264291068828e-02
-2.569200801746509555e-01
-4.121617157865334891e-01
-2.870123806989918758e-01
-1.890965412527067513e-01
1.229563534843002987e-01
3.961310916135313276e-01
-3.396862459713091420e-01
4.774765336424945938e-01
2.013809340688598182e-01
2.532112992033768162e-01
4.861638459979361615e-01
-7.605651007905708805e-02
4.104162886426779983e-02
1.881362847218049084e-01
3.157157169146316417e-02
-1.942146379966782355e-01
-3.824759980392600789e-01
-1.886059813357158499e-01
2.711681197865015158e-01
1.540720690443798946e-01
3.310506996770133936e-01
3.223651147935101963e-02
-2.372140752005352238e-01
1.770252938792710728e-01
-1.829348640255659131e-01
-4.461275752620187385e-01
4.514947981655151321e-01
-6.698214982042488552e-02
-4.999591901503806085e-02
2.853796932337629433e-01
4.637407445452876864e-01
-4.040282399271181157e-01
-2.871452685393094395e-01
-1.782285458118708366e-01
-2.442762523449703571e-01
2.058569334322559244e-02
3.177034414930835493e-01
3.507092202831170180e-01
1.159504833423934400e-01
-2.517419941483977075e-01
-3.087091759423208903e-01
2.704269600347800617e-01
-2.511960942290705767e-01
5.183335775892866648e-02
2.782570892354923053e-01
-2.619638677059332177e-01
-3.126721441664964685e-01
-4.384826068204419891e-01
-3.577202089750000646e-01
3.519146769791641205e-01
-3.900326441373457853e-01
-2.875440205730421805e-01
-4.653612661852041810e-01
1.672606615183621637e-01
-2.767560999931212296e-01
-9.349622238067237245e-02
-3.834802635256186476e-01
-1.393338291887221136e-01
-9.699650245223651046e-02
-6.375054924973976023e-02
-9.393174967301810840e-02
-4.187671056281708770e-01
2.368340400984892680e-01
-3.714201391450874801e-01
-9.226232431356165553e-02
-2.526256654283572933e-01
-2.176736329753987953e-01
1.478956786148641067e-01
-1.308241362581413075e-02
-3.285421860889806145e-01
-5.520016707208483253e-02
-1.913777545575268413e-01
1.989201683934612164e-01
-2.829682309312315236e-01
3.264804303907822836e-01
2.133156631539523396e-02
-7.773009910698535675e-03
-2.593878634791231819e-01
-3.181385684755064780e-01
-3.955019264510943600e-02
4.732285211095774713e-01
-3.715546407462921863e-01
-2.313071735505741466e-01
2.982870468433893585e-01
1.595880866164521572e-01
-2.422232033820796993e-01
-1.811219897401998291e-01
-7.507023345559581118e-02
9.330305756524104321e-02
2.307582552656062547e-01
3.709729554440047150e-01
1.840454239735581643e-01
-2.408377203047854798e-01
4.507876851715453825e-01
2.908816206593980436e-01
-1.641735148006293332e-01
-1.663812555653966518e-01
3.953702890228088518e-01
-3.358324866263737163e-01
1.125723518650318111e-01
-2.502429534230413144e-01
3.126143555975147148e-01
-1.543682650730581474e-01
2.023225015736730692e-01
-3.207967606774771441e-01
-3.043974172732239261e-02
2.693582015631149629e-01
-1.102553630440374355e-01
-3.462437884934367327e-01
1.136483719597353170e-01
2.469296582664713691e-01
-2.286610428209865653e-01
-8.966511721981522409e-02
3.830901066672194877e-01
3.603376138941116191e-01
1.607193022784471070e-01
6.820790289072659052e-02
2.964521040205596591e-01
3.570409992903159635e-01
-5.237142922166765358e-01
-1.221976203393672494e-01
2.256105857022444594e-02
2.120822480385125552e-01
-4.089581453994393656e-01
-1.168218551479393713e-01
-2.200386941029693066e-01
-6.742194930317527146e-02
-1.757365980939984418e-02
1.605906663442073778e-01
1.545116489116369392e-03
9.929498217300258833e-02
7.927671474769290572e-02
-7.178282712506985075e-02
-5.215940822734599358e-01
-3.038593455140112809e-01
-1.738411873944425978e-01
-3.733764826187948582e-01
1.080988638493193960e-01
1.159588890345259610e-01
-2.137404070272012555e-02
-1.756106800299982174e-01
1.630854094692807121e-01
-3.236126646905165272e-01
-4.838642211603124133e-01
2.442202617910327334e-01
-7.237212428003937659e-02
2.071555685449409656e-01
-3.164410732601318776e-01
-4.603065605762825530e-01
-1.351058578132663945e-01
1.942583162110912975e-01
-4.184147088418029292e-01
-3.229230525559527165e-01
-3.724201557788492378e-02
1.142993664033035983e-01
2.506026321758044184e-01
-3.682908849947877372e-01
1.304794350077419229e-01
-9.608722527200926067e-02
1.927334957184264341e-01
-2.891093332166312369e-01
4.606751505857201168e-02
-3.161857453634996373e-01
-4.824671392215039156e-01
-4.745389535129368799e-03
-3.124321552595545337e-01
1.373027887748994869e-01
4.101406396452625391e-02
2.787014323071374533e-01
-1.037562962362373054e-01
4.941271927654708462e-01
2.619310591918700554e-02
-1.461983911395257733e-02
2.490245619538134225e-01
1.006699463381395682e-01
-1.188522529052088023e-01
8.299501131574717628e-04
-2.702025392805070259e-01
-7.329562218635216064e-02
-4.446016775613890748e-01
1.865158712434005286e-02
-1.825286224294990767e-01
5.272845141827391113e-02
-4.257104737269279404e-01
8.361371545701273833e-02
-1.922766479120174010e-01
1.036580892702832074e-01
2.454733035550257791e-01
-5.871614553201221637e-02
1.948785177739757735e-01
-2.437568172790043064e-01
5.048929016354188892e-01
-2.200390071144825432e-01
4.639812140020105335e-01
-2.653328563709043131e-01
2.972364096366119854e-02
3.411586629742434096e-01
2.391369948419430347e-01
2.312278769626924246e-01
-4.811090306943054812e-02
2.691961843051554060e-01
4.321059783562515300e-01
-4.880330094389561529e-02
4.393471215895032589e-02
-4.267838883853937726e-01
-9.080733671848049970e-02
-9.732741906879723709e-03
3.918769231435194067e-01
-3.743740315759707116e-01
2.571244200576524586e-01
3.757114997668102585e-02
1.156955698563206653e-01
-4.468464934660001386e-01
-3.582217327794530171e-01
-2.032351427384474774e-01
-4.676567394444784975e-01
1.724428538159887003e-01
3.829734056142123366e-01
8.058721891796276349e-02
4.357921913493766758e-02
1.262046108689744428e-01
-1.690130630762322339e-01
-1.377408844366372342e-01
8.007797528578676494e-02
3.300626724231802700e-01
-3.188660986769912831e-01
-1.819853892454846300e-01
2.466465970151433540e-01
-1.782615139259697834e-01
-4.648055042542730830e-01
-3.435950689520441137e-01
-3.096074092036770753e-01
-5.519278701509681799e-03
1.475922599429915771e-01
3.782702271777041991e-01
4.065775360894155477e-01
-1.761698011148037646e-01
2.492050324570480035e-01
-2.184524513598837259e-01
-1.245781892652509382e-01
-2.192046566935365592e-01
-9.801906353178173326e-02
-2.902189883308393670e-01
-1.967522258591302420e-01
-3.909043453993799599e-01
4.461620054985960260e-01
-8.720160209306795224e-03
4.028731424344858536e-01
2.143482306247944391e-01
-5.154557703624809001e-02
2.354207118007810851e-01
9.640667323383124432e-02
-2.026524808451258264e-01
8.676866189532799270e-03
1.862957834222865039e-01
-1.989944926799642744e-01
-4.993244342396023217e-01
-2.529726209148158711e-01
2.879708784912520803e-01
4.156963005157925384e-01
1.002407920215859644e-01
-3.799098592759229676e-01
2.364648869157946198e-01
-1.464880674258710498e-03
2.402215794375147373e-01
3.377212123443267267e-01
4.206113703766121703e-01
1.494439506036142340e-01
3.441534062128234206e-01
2.317347683531203739e-01
2.227894247333879751e-01
3.485690316056769267e-01
4.140796683583159443e-01
3.992659902678082351e-01
-1.148371921518040739e-01
-4.160216945567566937e-01
3.281404475788470276e-01
2.172401552921655876e-02
5.207220207940845003e-02
3.342748806781957738e-01
-4.760381553406458632e-01
3.930049351404414915e-01
-4.477085982133900965e-01
1.945940852063810234e-01
1.111853953662225586e-01
1.673973435131568266e-01
-1.194996992883932824e-01
-1.951193405968122963e-01
3.931174951044883598e-02
3.956526237641858623e-01
1.032208990609861932e-01
1.444873380682426267e-01
-8.646497531830296679e-02
4.541435987929769991e-01
2.240023602433160732e-01
-1.779848829825670664e-01
1.352044098278022133e-01
2.769483948072704732e-02
3.480487760964702804e-01
-2.350916145743055519e-01
-4.082151167232219713e-01
-3.484842173030790469e-01
-1.228422787132709970e-01
3.402024334403234707e-01
-2.709237747794783213e-01
1.157857588808287319e-01
1.148351385543268793e-01
-1.346715248130693765e-01
-4.657898836408035925e-01
2.337587660896656705e-01
-2.468807591598783657e-01
-1.243898705480646905e-01
-1.348399656005598302e-01
1.306555032250348025e-01
-4.313528672841782097e-01
5.245156776143392735e-02
-4.979399321769331088e-01
4.860943380554507698e-01
9.347780863895167880e-02
-1.340638886070311397e-01
-3.554624306032835857e-01
1.912740155068958225e-01
3.836228292449737065e-01
-1.814398707557448032e-01
2.674100069596104801e-01
-2.308196295632809203e-01
4.668634805952802114e-01
2.069729275965648263e-01
1.101236451402064359e-01
4.395123352594733079e-01
-2.228340989264871452e-01
4.113138773860012809e-01
1.853792616952082695e-01
2.778744356686406736e-01
5.616814895422077986e-02
3.397644959860534053e-01
2.068226983267126562e-01
-3.675917540255508875e-01
1.180857062268449997e-01
-2.284426653952487951e-01
3.917642165569362178e-01
-3.125622379942092355e-01
-2.220106575091332357e-01
-4.760335001259509147e-01
-7.388939021074331093e-02
6.371353585676961528e-02
6.647502306569039177e-02
4.035258976877365567e-01
-1.266980265109819426e-01
-4.013518474791873819e-02
3.756802955233878860e-01
1.027825110187565588e-01
1.657505120832930556e-01
-2.000732801991031706e-01
9.781868509881551030e-03
1.273349061851432873e-01
-3.488448201728619469e-01
-4.480259942627375369e-01
-3.791565831164874778e-01
-6.012208399291497224e-03
-4.538879816108960519e-01
1.408900963570994536e-01
-3.846016267329688265e-01
-2.244406265892705532e-01
-6.071044991884046171e-02
-3.727991753295929467e-01
-1.858801832477794680e-01
-4.479464615975057851e-01
5.103303272995892703e-01
1.699470214928400780e-01
-7.296381103389364131e-02
-4.331284923226643713e-01
-4.074003896033494276e-02
6.534380041551738835e-03
4.740064023209244470e-01
-1.800006411134668638e-01
1.419716545242520611e-01
1.827464728264576177e-01
-2.857069276780783151e-01
1.746248861708936048e-02
2.931093663039018860e-01
-3.604315307969336857e-01
1.335923655161106449e-01
-4.462285901810247313e-01
-4.559737706039634908e-01
-4.141100748278995214e-01
1.118278039210014556e-02
4.659118695533974730e-01
-6.232115126297931018e-02
-3.905084902943354863e-01
3.989810873186772633e-01
4.499751035788250586e-02
-1.512401421203717344e-01
4.910989100637780935e-01
4.669374873668454273e-01
-2.064478794568202213e-01
-2.782930638299618287e-01
1.219061155810219482e-01
3.768770158688762861e-01
-1.592925740293862913e-01
1.100636562736622553e-01
-3.072838973617132430e-01
-3.052038942758692475e-01
2.747038571632277604e-01
-3.223569177314183909e-01
-2.366421112132137128e-01
2.027336401290552870e-01
-4.583428584760695923e-01
-4.703958959913496773e-01
-2.028209812166545944e-01
-1.352170978113935995e-01
-1.438692570453654895e-01
3.109199047879977473e-01
-4.388122019705537058e-01
-1.521756416463203587e-01
1.367191881464008829e-01
-3.416642260385908125e-01
3.323722903233267689e-01
1.349625430371277912e-01
-3.855452121121029085e-01
-3.159349111481191685e-01
2.321816427749112954e-01
-1.047060270660833264e-01
-2.731637829026506425e-02
3.833226375013605858e-01
-3.603095775534370659e-01
4.531012324004317637e-01
-4.596065281288315152e-01
-3.990019155971503140e-01
-2.771429485091937983e-01
3.081077704773874104e-01
-3.556356254790685179e-02
1.388200781298694897e-01
-3.446445591568946254e-01
-3.454823176792068962e-01
5.075096339366647925e-03
2.168596273247712647e-01
-6.230661960530148313e-02
3.613735503079914535e-01
1.411885607216481764e-01
-2.824231351246257460e-01
-2.684574703303627130e-01
-1.373755302117093402e-01
2.271537910550075201e-01
4.361291184655006203e-01
3.530603998457608750e-01
-2.637915545481899215e-01
-9.177121046481799549e-02
9.904826925215157174e-02
2.489162360007821095e-02
-1.190902425653098673e-01
-4.158458111407326019e-01
1.850137399921133463e-01
-4.236818704107684352e-01
3.434078521072618795e-01
3.279851231384842136e-01
1.888505933327054020e-01
-4.712908109759252756e-02
1.609062744812235490e-01
-1.157961798771082601e-01
2.740911146962018430e-01
2.670097713429871455e-01
-3.423673407021203263e-01
-1.913845524803124698e-01
-1.616258509475930472e-01
-1.230197405309176595e-01
6.689717567587678826e-02
-4.464512639743201117e-01
1.679526085036242566e-01
-3.070668967961179829e-01
-6.695012607152454887e-02
-4.411788406732981838e-02
-1.611063754079221921e-01
-1.035305271542512340e-01
-3.078390277798623842e-01
-4.363540890324147936e-01
6.741618025048727592e-02
1.130105676351895599e-01
-3.539200176869906622e-01
-2.497574488644757340e-01
-2.000440978838389505e-01
3.313028240521083134e-01
-3.220872520508081260e-01
3.664636010141530259e-02
4.547241399211884860e-02
-1.692895264811183909e-01
-1.594241143832706986e-01
4.347984494599124727e-01
4.084048376123713964e-02
1.432330826020578041e-01
-4.034099249924685826e-02
1.350233534188552686e-01
9.178883783375686722e-02
-3.958565014945345517e-01
-1.783060748146048646e-01
-5.262777993377273922e-02
-4.155741688797252031e-01
-1.495889676911403565e-01
-2.897051688658967006e-01
2.989570167988117588e-01
-1.834262450563870772e-01
-2.882594311780597440e-01
-1.339644635270837436e-01
1.572923963362846123e-01
-4.348145343627907722e-01
-3.458988942637143404e-01
1.826750508702819076e-01
2.667057922822444471e-01
1.052684807720467991e-01
3.806124701153206780e-01
-3.326123367720216772e-01
1.780080544956918753e-01
4.107750173491387935e-01
-3.486808038197635740e-01
-2.778398044337235251e-01
4.718637648516529198e-02
-1.435288325038132640e-01
1.846434778547886846e-01
-4.255785020942901564e-01
-3.307428962716265630e-01
2.098009286228646464e-01
4.851887635824128631e-01
4.335881339752752361e-01
3.895088444834652330e-01
-3.646014174156779197e-01
-3.517951486663162264e-01
-4.430680500599327720e-01
4.568866779663926375e-02
3.889321534288804338e-01
2.098888481845442161e-02
2.859569914029608806e-01
-3.179317116736534721e-01
3.433338257449740638e-01
-3.153232390697715548e-01
-4.581850013707362002e-01
-1.013188004510892498e-01
3.945128840103830775e-02
4.614696334403962097e-01
-4.263228804420428619e-01
-2.441509064232247339e-01
-3.930400607278199954e-01
-1.189516019073643821e-01
-2.139487899107149482e-01
2.710919983108804956e-02
-1.514495792322498868e-01
4.332221676090649565e-01
3.149804065577186396e-01
3.767729674839813692e-01
-3.491677086324999069e-01
1.056976310560276827e-01
-2.571188808862787667e-01
3.929401878270733506e-01
-4.523710870235399528e-01
-3.653482920497081454e-01
-1.018530298750853630e-01
-7.029649733218486241e-02
-2.035298724838912610e-01
-3.850088584192332131e-01
-3.481371846061272479e-01
-1.579199456142522662e-01
4.691134896944004762e-01
-2.395997280566519172e-01
2.899846123007723819e-01
-2.091470388670035319e-01
-4.072140187972937975e-01
-4.390837669427875012e-01
-3.094850930512774712e-01
2.893623305459868344e-04
2.870713286281036947e-01
2.581822175684283516e-01
-1.116574873472807872e-01
2.782630148095309366e-03
3.407545669855553405e-01
3.736953707187274931e-01
-1.581407367857624868e-01
-4.661877789532219429e-01
-4.295469043656865993e-01
2.496773926625972251e-01
-2.088283672873126606e-01
2.112883314783905661e-02
-2.816222313046053971e-01
3.797428231940941923e-01
3.957448544383538463e-02
4.939960695333414642e-02
-1.811972747494588476e-01
3.517166181828865201e-02
-4.780138046071119029e-01
-1.972122095003520370e-01
-1.415924999240292803e-01
-1.998149908252938312e-01
-3.942991577595609809e-01
2.057388840623292428e-02
3.035061370681484405e-01
4.598889736908589598e-01
4.328938854050557762e-03
1.143615721182000972e-01
-1.757591228513004367e-01
-3.400396418945870747e-01
-3.404382443182799034e-01
2.762098952097661875e-01
2.433630894995747196e-01
-2.941114292198982461e-01
-4.495752196295585423e-02
9.840771660418978772e-02
-3.553432710173195508e-01
3.223499833531527914e-01
1.184381345997079366e-01
1.240493393494735419e-01
2.261005336084244144e-01
4.789799760845339094e-01
6.860904444526547130e-02
3.814422387557322436e-01
-9.896074472725943649e-02
1.483053679000780611e-01
4.261316311755409814e-01
1.477200631188497759e-01
-2.085674080015377796e-01
1.150739858537290078e-01
-1.530384018541028901e-01
-1.791855961841198053e-01
1.171380599738667538e-01
-3.359762824559835992e-01
-1.180740569724622081e-02
4.556513191774846927e-01
-1.271543353018080025e-01
-3.221705753096913982e-01
-3.967770750981472472e-02
3.240072229948223748e-01
3.231648413703753220e-01
3.042274854123721006e-01
-5.009235967370464504e-01
-2.504803219960639593e-01
4.709532464354682646e-01
-3.802268164886807855e-01
-1.287804304470275066e-02
2.696689749567002803e-01
-3.760440873330075928e-01
1.580433661258543454e-01
-3.345739199794169755e-02
-3.038752423299387884e-01
3.712810114495569969e-01
-3.349255127314600400e-01
1.415612448768044374e-01
2.327706563764595782e-01
4.909449634603665902e-02
1.234707107480713384e-01
-3.950114996487385510e-01
-2.126466210226788389e-01
7.612891629858396791e-02
-1.241625828833582135e-01
1.387047333945686800e-01
3.317361949697268386e-01
-3.391212372245986373e-01
3.776442690044756190e-01
-1.172889118626657956e-01
4.336896316521149930e-01
1.152602651017943514e-01
3.037090551442639952e-01
1.002793409043166092e-02
4.484496915988518684e-02
-1.649950506547762930e-01
-3.825912794705529918e-01
-1.035259972068825751e-01
-2.810206995290595589e-01
-4.763663967360868834e-01
-2.178300951286784304e-01
-3.095436275036776985e-01
3.677932877653135590e-01
-4.073923356026766807e-01
-2.977627185105277130e-01
2.063507814880626845e-01
4.361443709129565471e-01
-2.347320958726911988e-01
-4.778950511690915337e-01
4.766902157123218409e-01
1.653939966632896608e-01
-2.157023763895404012e-01
-4.211396937630210169e-02
8.388939568587398810e-02
-1.560535331202835829e-01
3.596963665923212372e-01
2.216872679600618012e-01
4.272171747981307610e-01
-1.616202971367022845e-01
4.348463599367640153e-01
-5.016565167346308945e-02
1.328329152725259144e-01
2.294268700374918202e-01
2.710260813241465172e-01
-1.146345036387176053e-01
-6.351870437438558725e-02
2.761611902302871790e-01
1.943528098207104315e-01
4.386132808005344663e-01
4.489727023863471778e-01
-3.392723097618218220e-01
-2.500376459765546455e-01
2.093542206084693935e-01
2.550551850027024670e-01
1.324840141363005652e-01
3.755032392740540459e-01
-2.347097767792496181e-01
-1.549654339464882624e-01
-2.864408670317942010e-02
-1.878594487693954762e-01
4.757900170914128313e-02
1.548420749118470108e-01
-2.842021508696824239e-01
-3.333748422277884628e-03
4.853823582737893383e-01
-1.640813043320043241e-01
-4.546683464307016420e-01
3.157535018828244167e-01
2.212466944679365027e-02
-4.416631252190483248e-01
3.837046824208967810e-01
-8.486551655907657865e-02
4.321186805850876778e-01
-1.118307802658412425e-01
-4.184712355785936699e-01
-2.421521635364619063e-01
-1.597529354042100114e-01
2.608720731209588362e-01
-3.028471713859499648e-01
-7.344249962470207616e-02
3.893345095296293912e-01
4.090008919676146187e-02
-4.006048254557534327e-01
-4.664815356652580181e-01
2.042102109856772929e-01
4.696236905027750264e-01
2.802013323874242290e-01
2.632610681369482730e-01
1.605101421134726980e-01
2.901925528164319146e-01
-4.520730463792501652e-01
-2.401994808640252610e-01
1.983399160509304870e-01
3.912394573113072149e-01
1.923022728158781669e-01
-3.005852949249507300e-01
4.615971245186182847e-01
4.287183290071591157e-01
-3.908327917956782582e-01
-2.896089467602037115e-01
-2.116579865948662320e-01
2.456068666047970528e-01
3.737849181095267981e-01
8.217349029113407699e-02
-2.994223939297506187e-01
-5.828241544122523404e-02
-3.439947533677443214e-01
4.262231615482310332e-01
3.109984634349675092e-01
5.017267511896009863e-02
-1.354003501695632064e-02
-3.597934890179587675e-01
-1.457903440189276811e-01
-3.453258088698740180e-01
3.116626260604665188e-01
7.106258883464110221e-02
-2.444990759694525839e-01
-2.619847380234076040e-01
-2.328657405782550704e-01
-1.809998984254981569e-01
-9.893103804996572492e-02
-1.991909029826895439e-01
1.885962156168031756e-01
-4.540551582190044400e-01
-1.738962339661701828e-01
2.523813835549649776e-01
4.687020117460583002e-01
3.093414688794519640e-01
-2.386136572248805376e-01
-2.541376490478288730e-01
-3.144392858846419836e-01
3.977654349038343140e-01
-2.552257102567335734e-01
2.597333295384088858e-01
-2.286411076770145656e-01
-4.594707043678434855e-01
2.391648231567830019e-01
2.345334207404872473e-01
-4.073716110746459229e-01
-1.633319554550503316e-01
4.561964704487684319e-01
-3.180778093921948213e-01
-3.837682646422174715e-01
1.287240361208555894e-01
4.500881337283574868e-01
-3.292125753198375526e-01
5.566780889388864978e-02
1.950869086870487268e-01
-2.956346048143019267e-01
-4.534869101069148867e-01
4.002775009780341064e-01
-4.317696130076951744e-01
-2.053802545177637606e-01
1.583835814165042433e-01
-1.946832788352730881e-01
-4.592225955613533084e-01
7.632599837186040959e-02
-1.832453211520377601e-01
-3.235727045282950076e-01
4.708463392000923897e-01
-3.262646241852221185e-01
2.475853251590281190e-01
3.930194433874375504e-01
3.630386288097023351e-01
-3.024082869652865990e-01
-2.536842624082575326e-01
-4.708830809122854233e-01
4.509018708569514922e-01
3.940244560785601258e-01
1.017186857712384651e-01
-3.781305236477190412e-01
-3.328086802624502516e-01
7.693336975677865508e-02
-2.467494022132826204e-01
-2.074049898620198285e-01
-3.367494946090384689e-01
-3.133835022280585525e-01
-3.712553796253648813e-02
2.973491406547941994e-03
3.124418460202543508e-03
4.979605750753665072e-01
-3.711759119418875930e-01
2.468044178689351997e-01
2.911404658171590221e-01
8.002076516096563730e-02
-5.454248424678234675e-02
3.951262372714479665e-01
3.235825065813568990e-01
-4.583001933005985684e-01
4.635232987687369355e-01
-4.999694328145344313e-01
6.981625574554309321e-02
6.974076922565072834e-02
3.234977494305592005e-01
-1.246191825366156358e-01
-4.165908980050755939e-01
6.706153901492867275e-02
-4.917785388096880261e-01
-1.553527396348289569e-01
4.646129555484851958e-01
3.532995098498193931e-01
-3.579916198420020068e-01
2.831531180253603064e-01
3.054556504862253052e-01
4.319064632115508506e-01
-2.881625562375494387e-01
1.013173988744156019e-02
3.274108837372615710e-01
1.482030128168337901e-01
1.034939516780263441e-01
1.582516411337298867e-01
-2.708846966913409648e-01
-4.648967237230352545e-01
2.523387423041017485e-01
-1.771267284931406505e-01
-1.069338319582972680e-01
1.376911299023913515e-01
1.662647898250718681e-01
-2.753335789390990440e-01
3.576572395473607280e-01
-1.029029742115711299e-01
1.615355792506761867e-01
4.523560054128631935e-01
3.617380419470647007e-02
-1.491457734487981746e-01
1.102684734044142023e-01
-2.456735599785715707e-02
-4.738792343779946875e-02
2.310681976788158676e-01
3.991238758905938933e-01
-2.485829947708010149e-02
-4.038293078525902469e-01
5.339207905639377361e-02
-2.429054306430263321e-01
-4.506538252666048017e-01
2.718172658835385502e-01
-2.143740094968640542e-01
2.824010914776507453e-01
-3.231173942399444277e-02
-1.878184986789047106e-01
-1.807113523393352184e-01
-4.768436672127259190e-01
2.485830661372320782e-02
3.286055041271934707e-01
-4.319259625636906463e-01
-3.942784014148920657e-01
3.921083056189612892e-02
1.492204799944424343e-01
1.992000166485903556e-01
-1.849793941224961991e-01
-4.746601896086696248e-01
-8.138419108548490544e-02
-2.713503044741787384e-01
-5.113714743114478045e-01
1.917235838928168790e-01
4.563703429689596747e-01
-1.141005095004403724e-01
-1.920476150316714758e-01
5.748747547698304650e-02
3.465902068520431700e-01
3.010444791101652418e-01
1.884739822871505377e-01
-7.289064125754754486e-02
1.969854364608500108e-01
-2.844902291995959898e-01
-2.278952219140897018e-01
2.830306308954228522e-01
4.399802707832566884e-01
-3.172944908746218040e-01
-1.962371486258044917e-01
-4.816032656433312242e-01
-6.931000736357301184e-02
-2.815929237614671066e-01
1.524989305378805782e-01
2.152382279350344985e-01
-3.692939463993632487e-01
-4.096344577231211814e-01
4.122367216841391624e-01
-9.881843456346289800e-02
3.053080478523791455e-02
4.517514879285446927e-01
2.538837646850171104e-01
-1.767471506527270309e-01
-4.252412070240844111e-01
3.333092909701101947e-02
-1.559036701247074885e-01
-4.768742058236650760e-01
2.843784957122933998e-01
-1.072626849916779729e-01
7.949299054336771142e-02
2.680443572061412261e-01
4.405568090860189079e-01
1.110188238788195197e-01
-1.882633723633737044e-01
-3.771425309604203302e-01
-4.258923774977961263e-01
-1.830509890943231299e-01
1.929235006915964445e-01
2.201242715124056559e-01
-2.729171403712956079e-01
-3.923962334424073162e-01
-1.752102255383524432e-01
6.545936595340391684e-02
2.686044901134566620e-01
3.488168255457204520e-02
-2.034650121350562169e-01
1.339390812029318811e-01
-2.285951597538528890e-01
1.647521468920457310e-01
3.424660885660995580e-01
1.332758497780571205e-01
6.718385489846866176e-02
-1.879524323323510659e-01
3.739717727907498901e-01
4.972822299190524098e-01
2.853989632356069839e-01
7.051888900038566499e-02
-3.467164455885609620e-01
-1.714176104672688328e-01
-1.370477995515281544e-01
-1.881641909383620082e-01
-4.859041010918542514e-02
9.986472466489217104e-02
-2.703341261200288836e-01
-2.490104634891130986e-01
-3.926816446552729434e-01
-1.770719526327419469e-01
1.575951083862570231e-03
-8.347819093105128888e-03
5.098664471767989648e-01
4.837908642843681828e-01
-5.745672446089841734e-02
4.806078183084944166e-01
-2.652923568649738217e-01
7.362898957175205428e-02
-1.464745809230070736e-02
4.946574836143732279e-01
3.860224732836407546e-01
-2.373957671187349461e-01
-3.431648960427919476e-02
-2.859527086942564300e-01
7.572418497927262127e-02
3.188957645802719676e-01
-4.190432560194545242e-01
-2.604329566794978956e-01
4.983031575481249309e-01
4.956678424967840835e-01
9.734464322550175075e-02
1.640501951277689718e-01
-2.030780658350376799e-01
4.869167029031102323e-01
1.844327992328679833e-01
1.874583813969736557e-01
-4.587765922464546731e-01
3.663349395433587175e-01
2.987070164536191341e-01
2.095695283737886716e-01
2.466356716863120913e-01
-3.319349431310492093e-01
2.347609229376586559e-01
-3.956471504037145093e-01
2.220855534135287856e-01
-4.784016087922193239e-01
2.789310859949719057e-01
6.616459802408100783e-03
-2.762179430034981675e-01
2.382969528893877642e-01
-1.713244315771455528e-01
4.100513212480774161e-01
-3.094518710036159304e-01
4.448566073961457978e-01
4.825455312509756567e-01
-1.967321171515029055e-01
3.624144265458974501e-01
3.402670311131504866e-01
-8.067394584169250427e-02
-1.409960722249902210e-01
-2.282841562336070940e-01
4.910376456090876363e-01
-2.517427306316223357e-01
4.174302544948239047e-01
-8.119316451862682027e-02
4.159835192087459887e-01
3.334048831738117835e-01
-3.459630205774651412e-01
6.174971947424161278e-02
1.712602817026153967e-01
-1.008482200001117879e-01
-5.102317594304806025e-01
-1.805688300825853687e-01
3.192140253585302179e-01
-4.602139272167575235e-01
-4.065615182727201904e-01
1.853219443752582851e-01
-7.626155459166086142e-03
-6.394872898140729553e-03
-1.392378667362869360e-01
7.750601700811629580e-02
3.570291196506016340e-01
-2.325419780160824235e-01
3.213364721840233362e-01
-7.286279346746692143e-02
1.153591182650934993e-02
2.268756738359865022e-01
-2.213844927533924201e-01
4.370861237738435934e-01
2.022858151274240235e-01
1.410672582537617625e-01
-1.981998877209492360e-01
2.075986446351907322e-01
-2.139305805871925259e-01
3.589079722386315230e-01
-4.662196688608660766e-01
-2.990333442578438361e-01
5.390311365526982007e-02
1.908198923214176612e-01
-8.335002225504758305e-03
3.815518214607652170e-01
4.598823519527227011e-01
-2.438392231290842718e-02
2.742795215681461118e-01
-2.629672821514918157e-02
1.664047349817543431e-01
-2.621094553487108292e-01
-4.022252805299271206e-01
4.951302210956161076e-01
3.329465588989953817e-01
-2.204446407635324567e-01
1.047203123051399648e-01
-1.074399760200491355e-01
-3.351341306155063426e-01
-8.310295094549535744e-02
-1.992231158735077168e-01
-5.012311694791564687e-01
-1.251057436926737154e-01
4.129731272992525626e-01
3.036931395243951948e-01
5.515964114636490168e-02
-1.924973037825895295e-01
-2.906897496870098352e-01
4.447570708818913143e-01
5.109142926267581236e-02
-3.019726307482939465e-01
-2.559049028379883906e-01
4.553414568078275604e-01
-2.725642424861516866e-01
-3.910128668088886372e-01
-3.271532528701462383e-01
2.515498416584076580e-01
2.052356447103727832e-01
-7.843351443629270614e-02
2.678517376988443499e-01
2.755956620876170732e-03
-1.007162356667557074e-01
-4.038344855718895010e-01
3.709439337262432912e-01
-2.361196178748635743e-01
9.557063483730175724e-02
4.760025365029432187e-01
-3.115235360732472869e-01
4.508384170769911270e-01
1.517681436350242774e-01
-3.703028936721845521e-01
2.623190735115152328e-01
4.515253178921483923e-01
6.857452861437969560e-02
1.879327594713563476e-01
-4.694116075325693305e-01
4.929183216622017305e-01
-1.794562689646626852e-01
-4.707688533741511416e-01
3.024889930980481645e-01
4.638175818443839860e-01
2.226739325125042801e-01
-5.068106991581110554e-01
-4.491982982579683092e-01
6.642051112873142982e-02
-1.644057318578226179e-01
3.838275753486667385e-01
3.804586724813202592e-01
4.947009084365618370e-01
2.257986173060969326e-01
3.941258512622295429e-01
-1.776973416485265744e-01
-3.855219447125865506e-01
3.709314232404514744e-01
-1.804169880599009179e-01
-7.067126729927654394e-02
1.544881291470675266e-01
1.366674130923258568e-01
-4.927921840892717648e-02
-8.796908248352557080e-02
-3.588540423583154726e-01
4.513621612240273362e-02
-2.602903123817801312e-01
2.542517431772365333e-01
1.696377497502087051e-01
-4.386344393079860682e-01
4.890161285360095089e-01
2.808092528391800125e-01
-2.729384647645098916e-01
-4.753156768047152037e-01
-3.132003010136263921e-02
-1.481645052377794647e-01
5.178385029318302579e-02
1.594835462280435046e-01
3.136445138898416585e-01
-4.771016997153501027e-01
2.060286103537087854e-01
-1.921981920665624677e-01
4.973341084544800061e-01
3.404935782502302999e-01
8.034635684433763525e-02
1.049596426809545485e-01
-3.125637366551543006e-01
-2.516963859810171789e-01
-3.445812906219832827e-01
-1.249918643065288382e-01
-3.658466461705808248e-01
1.261296454900780357e-02
1.423813053596821032e-01
-3.547443489463265598e-01
-1.518050679760726274e-01
-4.152091311760691128e-01
4.461098753915433701e-02
1.732410076861065074e-01
1.538126097853745600e-01
3.512490116617667524e-01
-2.262292820909659052e-01
1.747108932729840303e-01
-1.424157322136037906e-01
-3.690498879278749644e-01
-1.372262438176042321e-01
-3.732225975486555547e-01
5.016539753197635232e-01
2.854930261046289552e-01
-3.447527092675163884e-01
3.170031975812805936e-01
-1.045787914958066084e-01
4.527179563267130780e-01
1.525367861775889060e-02
3.993533298508047946e-01
-2.491184518956830740e-01
-1.106653179793909564e-01
-1.047094799282056593e-01
-3.709376866187545363e-01
-1.551487969708682801e-01
1.859738159133549340e-01
-4.972466471044135160e-03
3.831816313168920907e-01
-2.174580547130000041e-01
-1.310395210819235434e-01
-1.657544176264018065e-01
7.898363371545584488e-02
-2.846845110731719974e-01
-3.149587103419141387e-01
4.654479011228180863e-01
-9.292935167905824745e-02
1.052490009711514601e-01
-4.255276048335202010e-01
-3.286504746407150068e-01
-3.896656987600873312e-01
3.184466011734773949e-01
-3.851771491045446472e-01
1.467187929263913566e-02
-3.506059069398390071e-01
-2.286876415220587822e-01
3.751326038011277286e-01
1.236255692962010266e-01
4.468287422656885832e-01
9.145115278678654647e-02
-5.005982646204070186e-01
-9.219108275102816386e-02
-4.803552095461895433e-01
-2.010731445569064746e-01
-1.967424795163566151e-02
8.038960511070586401e-02
-2.706238189213927559e-01
6.369249791486969459e-02
-1.142840138250113824e-01
-1.195158146236940250e-02
-3.080999303960744728e-01
-3.693092692952167355e-01
2.238212809230180345e-01
-1.874796571005964418e-01
1.178298095798841344e-01
3.623603180043363098e-02
3.824363760825808534e-01
3.467904081408735850e-01
-1.032325839616929780e-01
-3.157078551278457712e-01
1.116773461581934412e-01
9.843802599333591197e-02
1.873375570882188645e-01
4.118697668782725363e-01
2.706320377940687472e-01
1.411883499395459318e-01
1.124761611452636534e-01
-2.894647725500298363e-01
1.710440620288506686e-01
3.365793070661997066e-01
4.281684056442301434e-01
4.385869845757708330e-01
9.329830449380337176e-02
-2.291679700917403639e-01
-1.439219425369891170e-01
5.074672927374751508e-01
1.812884492354292082e-02
3.242161290776033322e-01
1.102273450552250927e-01
1.076893473117355180e-03
-1.365281016770188427e-01
5.185805587228009550e-02
-5.035005077812957364e-01
3.816423062741969852e-01
7.508068711947103735e-02
-4.845815983353183309e-01
3.261015847222594743e-01
-3.529593443021059596e-01
-4.737868276937831635e-01
-2.796134167811399965e-02
4.576411932567254759e-01
-4.296753009706100745e-01
-4.465952563208536175e-01
3.612503455979155231e-01
2.795013489996120981e-01
2.853433660767354385e-01
-5.750490373896330332e-02
-1.168151121557184924e-01
-1.400802144133079519e-01
5.759308689187418034e-02
1.938813614333528557e-01
2.601425817700370180e-01
1.370682832124288097e-01
3.538872296416618879e-02
-9.728546553218246629e-02
-1.958562967229227347e-01
-2.447123592172963658e-01
-2.181932745949528851e-01
1.582569401343521531e-01
2.305688255829686506e-01
8.145871546238582506e-02
-2.999345628829895860e-01
-3.382511171310187414e-01
2.483544978927299807e-01
4.559595118096281263e-01
-5.145212745665194154e-01
-2.750999677097887841e-01
2.731882135786536936e-01
1.921196815829083193e-01
-2.750952859674228312e-01
3.672238717980758765e-02
5.862427954814846548e-02
2.041487741538108303e-01
-4.364668575421782465e-02
-1.082887303760588643e-01
-1.964394204846294234e-01
-2.731584965954734212e-01
-4.225126727528480397e-01
1.386444675195123155e-01
1.591328992518240559e-01
1.748225572302112008e-01
-5.045498930089972189e-01
-6.880632631346213224e-02
-3.858362008702624912e-01
1.310227532897804102e-02
4.674653746276928312e-01
-1.495505619357171204e-02
-1.524880133032413265e-01
3.134473067016490533e-01
4.673442714214673943e-01
-2.163280995541959073e-01
3.249042625606204937e-01
5.128905142841360121e-01
-3.662225648178622506e-01
4.386056116470173766e-02
3.211743491917004589e-01
-1.078993112142815070e-01
-3.968398282503021735e-02
2.637489671031633676e-01
-3.863973283925874469e-01
-1.173109740749901514e-01
8.851667180618741360e-02
-2.378893432643039152e-01
3.459871791752626158e-01
2.708654163436576279e-01
4.676131774588221934e-01
1.369550680465502109e-02
-4.012883688594218734e-01
4.207367588154200533e-01
3.220032513569542343e-01
3.875736136222805023e-02
3.225689607494519606e-01
3.674704038200228839e-01
2.626707138297662003e-01
6.388763433039004735e-02
1.181829633861627843e-01
3.350890565531363663e-01
1.272720706218765652e-01
-2.854558393979779729e-01
1.743607425601223504e-01
3.229922492263037626e-02
-2.303911192062991220e-01
-5.102293628524665614e-01
-2.542088184579951449e-01
1.777882957749813142e-01
3.766689782029662426e-01
3.473036485660055406e-01
-3.849531293684483879e-01
-4.192287495214146453e-01
2.922759310085917828e-01
-2.060856457099481953e-01
-2.122001242273137689e-01
-4.614957067323512963e-01
-3.896144447453962489e-01
-3.429644431590049836e-01
-3.083810450055405328e-01
-3.247145264619006461e-02
3.490393571298210929e-01
3.518815002591349494e-01
4.429086787527310443e-01
-1.305177291170444773e-02
2.556106827794799585e-01
2.218071321420747935e-02
-4.079558797032065143e-01
-3.736426647938986823e-01
-2.226448687517071090e-01
5.235887858397041406e-01
2.321522737194302022e-01
-2.049195938098682945e-01
2.430658617692212364e-01
1.962677557450436538e-01
-4.319056256380340297e-01
-1.042433595541555347e-01
3.104844928966536410e-01
-3.918642890763842646e-01
4.215401468177601418e-01
4.689265042071819045e-01
3.814040475531615404e-01
-3.420365013051662184e-01
1.041568830953110425e-01
2.189943591156976455e-01
4.085555528161871619e-01
-3.843527946348945235e-01
3.282764744122142475e-01
-1.979874879506519081e-01
1.183237408649363970e-01
2.288781639591449535e-01
2.944512072400271574e-01
-1.855717783020806311e-01
1.111958756823295397e-01
-2.063461382805871214e-01
5.092345886858991033e-01
3.110259684539190550e-01
-9.474006643374051351e-02
3.734421894747890769e-01
2.259629427305390736e-01
4.161036695384056072e-01
-3.365301967199277877e-01
-2.075554391349002104e-01
-4.134671749887303127e-01
-1.929154484478464437e-01
-1.281149086689362115e-01
1.177507724520385629e-01
-4.299281997740626859e-02
2.204906380794157406e-01
-2.400234539848941639e-01
-3.248420031446968559e-01
-1.210494895637856255e-01
-7.612952152068137857e-02
-7.357915869056716462e-02
4.040693495743268859e-01
-2.484220053402219075e-01
-1.480216290026408477e-01
-3.111457020433560094e-01
-1.581666222690776280e-01
-1.226700530520515725e-01
4.619414748469674592e-02
-2.531541787621853778e-01
-2.593384378273285162e-01
1.886256693591241707e-01
3.659435070751899666e-01
-4.021717447558956215e-01
-3.413091637719221083e-01
-4.087036647402820799e-01
1.700674193437057558e-01
-2.904447749250587685e-01
8.494718235660739247e-02
-2.926145265120442263e-01
3.230684194817862176e-01
-1.949889736408438046e-01
1.793691047239988900e-01
-3.401750451954934640e-01
-1.994881709118055124e-01
-1.885434603890671634e-01
1.517850603062635695e-01
1.796001264796043828e-01
3.604490781708598601e-01
-3.003360670865216631e-01
2.641942082026849659e-01
2.226991482267023093e-01
8.025678115311743466e-02
1.571027697892689035e-01
-3.901077611422428815e-01
-3.367005278703142923e-01
-8.906051250884644555e-02
2.198734281792561751e-01
-3.259424231413384221e-01
-1.240661764493161123e-01
-2.811958840969689538e-03
4.284194962168663690e-01
-4.638586387226252827e-01
3.247423608826345287e-01
4.625701360026062692e-01
-2.710110125274073911e-01
3.659329754747285279e-01
-2.307354323986500755e-01
2.580297670121342035e-01
-7.449444086811696231e-02
8.770816025233960089e-02
-2.917085639800379715e-01
1.614233923560479123e-01
-3.623675054614100000e-01
3.610127111052114507e-02
-1.886352996898582254e-02
3.219852143078986706e-01
-4.347542149188270144e-02
2.747528943587396744e-01
-1.190923391608373488e-01
-2.221339903928224169e-01
2.725259868518817852e-01
-1.020001206418190143e-01
-3.070436270376532967e-02
6.706797958636397106e-02
3.045374275426283028e-01
5.590441318400442977e-02
-1.013812411151617937e-01
-3.533806700510345178e-01
1.780861405367755168e-01
3.720698368690458224e-01
-4.050682162241899253e-01
-5.725918359280979253e-02
4.205392637686538038e-01
4.142972459048682721e-02
1.508421764154378904e-02
-4.620778554929187987e-01
2.015116100780647151e-02
1.350155465316505154e-01
-3.707150153825498617e-01
4.415830563508996720e-01
-3.225803481044742238e-01
1.613739884750849396e-01
-2.362139185380024986e-01
-4.060578921818518428e-01
-2.487732817017324072e-01
-1.666691039109781947e-01
-3.343389824734044335e-02
-2.705462393670228227e-01
2.124228982154257039e-01
2.979187085074495589e-01
2.696579581872171061e-01
2.141441160613214989e-01
-2.336199987976587400e-01
-3.002911326382924351e-01
-3.671800584568476467e-01
-8.680848555159315083e-02
-3.950588948252208854e-01
1.739998470204500713e-01
4.553574943239557804e-01
2.689398037829068833e-01
-3.774873303722716678e-01
-4.793537330497707472e-01
-1.608169229066011285e-01
5.050390507343545110e-01
-1.708049315018871084e-01
2.571420071160274157e-01
2.218951507618068808e-01
7.872790702833439014e-02
-1.250592888704747385e-01
-3.014391720653750717e-01
4.790775596068240771e-01
-4.399386470531946869e-01
-2.736384710995918845e-01
-1.944244922002003606e-01
4.031732347898138169e-01
2.047065932192515536e-01
-2.428826164595572490e-01
-3.371047608788023120e-01
3.837847765099391406e-01
2.856733935727059914e-01
-4.560838438279650742e-01
3.904984284441629372e-01
7.455884643530051592e-02
-3.897293952873528977e-02
1.780915141198198270e-01
-4.707082327024257884e-01
-1.629150872566481612e-01
-4.106590428511193158e-01
1.807645605008834921e-01
-8.826071479892202976e-02
-8.787191409437816736e-03
-1.912245642311331539e-01
3.263765235059675751e-01
-4.335859595601722627e-01
-1.908822513526644837e-01
1.375692312958073926e-01
3.073916873024553631e-01
1.262893812956925044e-01
2.694832070079331010e-01
-4.575877934762309085e-01
-2.179760101033277886e-01
-4.165827052743848458e-01
2.442896483934371005e-02
5.215018525177600450e-01
-4.389237733841943045e-01
-3.604137288791800509e-02
-4.637045765341926140e-01
1.622844362979330157e-01
-3.014995442633048861e-01
2.398650196592826134e-01
-2.999949627526469209e-01
3.443830119942803414e-01
-2.662028937999996181e-01
-1.100587159491745320e-01
-2.478658190796255989e-01
3.386060509775489780e-01
3.238715516485885654e-02
4.022828403987367962e-01
-3.325458628386978588e-01
4.406124718770596665e-02
3.116380318340668532e-01
5.230548606671926448e-01
2.164930643575608826e-01
-3.045815987726862573e-01
2.809473880293362202e-01
-4.053242041936566120e-01
2.680476235987746536e-01
3.406999433595788163e-01
7.259139709196894830e-02
-3.815370273506044096e-04
4.469290011782335870e-01
-4.908694075217946984e-01
-4.870100434631596809e-01
-2.405151247465293074e-01
1.212265636378515032e-02
2.927394288341643100e-02
-1.455968349728542222e-01
-2.255924416556301659e-01
-3.085500054188031194e-01
2.832725015905367405e-01
-1.964325543988633682e-01
-1.053758196778746201e-02
3.023232488363921111e-01
1.086104346719009989e-01
-9.615526842751682957e-02
-3.364269786512306681e-01
-1.088336447001814894e-01
-8.164120767554570654e-03
4.861398192863558010e-01
-2.105806606740975584e-01
-3.291136971011573986e-01
-2.843225495570180228e-01
-2.787993447028847549e-01
-4.375518617584686631e-01
-1.520364789797531979e-01
-2.111484325779075244e-01
3.561865334227178881e-01
2.510791882184663093e-01
-3.983125556759187225e-01
3.192584161509510743e-01
-4.221094872004331755e-01
2.072383856238934063e-01
3.408769034157663191e-02
-4.634246895939696520e-01
3.755756038911065575e-01
3.462593933168490734e-01
2.990412531483746528e-01
-1.470068900211000118e-01
-2.797797425242599112e-01
4.826184354937472776e-01
3.253642565422557587e-01
-4.541183540747124048e-01
-1.396245500949451490e-01
3.163970288024141042e-01
3.523784703400503066e-02
-2.626012754164060992e-01
3.033203713475421948e-01
-2.236460780957372496e-01
-5.032566020244342297e-01
-2.492351473874531986e-01
5.057100258151460137e-01
1.550333503707438387e-01
-2.710989463685066214e-01
2.049606635878546967e-01
1.901819496802976128e-01
1.548427341983678873e-01
-4.189905414084889590e-01
-2.656867475010173951e-01
3.755770006843845432e-01
2.245674454260052078e-01
-3.568511197186626238e-01
-2.149745728227217823e-01
4.630354105558816963e-02
2.996517326834579609e-01
-3.127102039463420247e-01
-4.191927656440302963e-01
-1.525183753399776132e-01
3.897625328730197070e-01
-2.512393549810871263e-01
-4.234653040944602598e-01
-4.701674963925979722e-01
-1.384824129620014499e-01
-4.755173712560763488e-01
7.514152582527820756e-02
1.826763728204268411e-01
-4.634529371269229675e-02
2.458569093250614346e-01
-4.802603262909565553e-03
1.849649769553863843e-01
-2.749054927771210632e-01
2.261299397288618618e-01
-2.536270721431073752e-02
1.913068769986190076e-01
-6.821332678527351756e-02
-1.058250562219313108e-02
-4.597838218947444267e-01
-1.373000874278693280e-02
-3.690275055494421363e-01
-3.562827591327043519e-01
-6.612534942163873775e-02
7.060733523623519137e-02
-1.543147344996794734e-01
-3.476748409900967673e-01
2.241362636148157561e-01
4.464503782172262736e-01
2.149798727064327064e-01
-4.492154510238196563e-01
3.103661437654837707e-01
-4.545296548721652896e-01
-8.478976411452809892e-02
4.048514177967151295e-01
-2.586460405463733569e-01
-3.978437877785461763e-01
2.383469917414864359e-01
4.085375111076329224e-01
-1.960438757045235292e-01
-2.919298076059853586e-01
-3.288760585544501791e-01
4.602173759672859576e-01
6.083384672272118543e-02
3.431885355328778697e-01
-2.027115971451299015e-01
-4.661395140125106917e-01
-5.103036264163395008e-02
-2.996134011456075275e-01
7.161792165472710345e-03
5.382308917342517457e-02
-1.932931954165997834e-01
-1.845528033689530223e-01
-4.591353802970464804e-01
-7.593846616691861395e-02
-1.709199362128081823e-01
1.132841016064955880e-01
3.431022136631425856e-01
-2.049945467440872013e-02
-4.228395891007618035e-01
4.285125986893550953e-01
3.060641633231548919e-01
-1.260506647893434584e-01
-1.587838204437289902e-01
4.437773689558237589e-01
-1.233304183092723827e-01
1.484573211800313541e-01
4.929807730697224333e-01
-4.637081142067647210e-01
-1.806311109837221707e-01
-2.660926703243716163e-01
4.304399805879087770e-01
5.994424810332145415e-02
-4.375303410875521215e-01
2.660220129091417363e-01
1.848049071844779512e-01
1.670508516899264218e-01
4.649303416178953707e-01
3.647983570557218336e-01
2.481992921764826221e-01
-2.788618807178078196e-01
-3.742612894554812053e-01
-2.797298570884423352e-01
-2.932137404910519218e-01
6.878386808667417973e-02
1.780041255563526159e-01
4.254480773332190019e-02
-4.198239993662303271e-01
-9.761033673379269915e-02
4.778980543989827523e-01
2.140255209655676782e-01
-9.712364225814046348e-02
1.896830233313796243e-01
-2.076628140886925267e-01
-3.823033507702684464e-01
4.352085060822227097e-02
-1.865283474061970870e-01
2.157767370010590241e-02
4.162065207972774905e-01
1.736949355700542208e-01
2.609743374390721682e-01
-3.922406783956760012e-01
-2.633627277434684639e-04
-5.747639699887314990e-02
1.431104607603408962e-01
-1.957263471028090063e-01
-8.290331070133762081e-02
4.867182593539923219e-01
-3.639720559202464512e-01
-2.649692648112920712e-01
-2.545757364869000172e-01
2.159918538572065116e-01
2.475208043866950758e-01
3.051037627120756213e-01
-8.438606731278472384e-02
3.965725263187439564e-01
2.267034667942991466e-01
2.549690582722040633e-01
3.648352447565711421e-01
1.506848113884750595e-01
-4.517122005964190057e-02
-4.418041088055830179e-01
1.080375561538727547e-01
8.475063887425202114e-02
1.187451429235183431e-01
-1.721814243090562802e-01
6.928401173158911519e-02
-3.148029660960580123e-01
1.559414166219568465e-01
-4.165422476746842850e-01
3.852797834961490531e-01
-2.792789986813424274e-01
-2.048930745369608175e-01
3.804189510431897903e-01
3.735417317692117933e-01
3.242090314434129539e-01
-1.851185072089506223e-01
3.903630725660121592e-01
2.547340495886198375e-01
1.548107012474611022e-01
3.917712857828560824e-01
2.672536826615913297e-01
-6.881436687251288320e-02
-1.780869144241947755e-01
-1.149071024469406066e-01
-4.266961287842301886e-01
-1.330312582973300906e-01
-1.500823481031430262e-01
3.779479014968302741e-01
3.794375677375882994e-01
4.510240420957023488e-01
-1.619455548482458540e-01
1.693110458005947783e-01
1.094970101695470627e-01
-2.569717354856570490e-01
3.389941644411834099e-01
-3.192407885161008818e-01
2.375768293345782434e-01
-3.970058733967595788e-01
-4.437823396578839952e-01
1.909784293750875772e-01
-8.346318329435034947e-03
-1.055402075714930998e-01
2.578215124799840829e-01
-1.533568721661554835e-01
3.325341534283831058e-01
4.642234655282497791e-01
4.805907650218577687e-01
-2.297095621946649846e-01
-7.749448809226409940e-02
2.351454163796306562e-01
3.908053110889463388e-01
2.255045224989030983e-01
2.737099703736945444e-01
3.810994904352089652e-01
-1.136186857587484222e-01
5.680249955858054922e-02
3.077349629491189786e-02
1.531747639338871259e-01
4.080823622060693601e-01
9.442209121098983637e-02
4.705009104906395789e-01
2.408178495552081577e-01
-9.548743604682864705e-02
8.273092453194831608e-02
4.134364233756777085e-01
9.352043293925660361e-02
1.976600365712641305e-01
1.441938529519353474e-01
-1.936775969331745451e-01
-3.170197043336318576e-01
-1.087827100595031155e-01
-3.796247915659793359e-01
3.039806877332040802e-01
2.104685439997791563e-01
-1.200431702204201728e-01
-3.430674572304311942e-01
3.958896376265706452e-01
1.366843426567102282e-01
4.975892191265655629e-01
-3.692178208232414494e-01
-2.427109723266761554e-01
-3.962582289694668303e-01
2.536367092551572444e-01
-3.420565939711070480e-01
3.847308462655602557e-01
-1.810940469612064285e-02
8.307360093187667396e-03
-4.680024900146021460e-01
1.038089820712383565e-01
-2.844700020383377770e-01
-2.927699845912165588e-01
3.930644818687751840e-01
3.780759071631301649e-01
-5.063026226577574951e-01
3.285358949761199576e-01
3.939494123517210955e-01
-1.257309965321998626e-03
1.364249999321911766e-01
2.420515491262556773e-01
1.550119355997911785e-01
-7.092153800767227179e-02
4.413379138334613816e-02
3.859496342035480254e-02
3.090572401573491446e-01
-2.861763015412763789e-01
2.312096172299969998e-01
2.882902466899860405e-01
2.695330858693499310e-01
2.811034208859556349e-01
3.073672839890336794e-01
-1.060347471232596928e-01
8.431152626460672317e-02
2.315841976869177643e-01
2.551250526561732457e-01
4.310819317347611146e-01
4.442204337790225943e-01
4.426040400570752792e-02
-6.668199705815180955e-02
3.168861848960282113e-01
-2.954844746609908701e-01
2.409393957585991286e-01
-3.020686766243824706e-01
9.513009630903117297e-02
1.027635150566552774e-01
-3.771141014290017163e-02
3.752327714283286708e-01
5.223262052986445136e-02
-8.093002362479508396e-03
-8.691684099114407869e-02
-4.378758132851847118e-01
-1.454840593100417412e-01
-4.102445492784244641e-01
6.384505635041173854e-02
1.518801729877426732e-01
2.821115934835571881e-01
1.395501838081011081e-01
-3.001799462652721129e-01
