-9.861958615010359142e-02
1.633310791740461565e-01
-5.399318796658669761e-01
-2.285918323916136807e-01
-4.364801780090044603e-01
-4.719441312038771263e-01
-3.196567614102041599e-01
-2.181031480382238930e-01
-1.517895296277369244e-01
4.360976843201731790e-02
-1.357026571888952649e-01
1.427211593690439206e-01
-2.828759605277245126e-01
3.330240483924646333e-01
-5.077735711169846233e-01
1.783442865475925454e-01
-1.353189138942328396e-01
9.697426848138894495e-03
-3.298102786881978443e-01
-3.325887873693986752e-01
2.801171111993577267e-01
5.020808319592751090e-01
-2.114775226691545662e-01
1.715509337149399849e-01
3.956080192809708906e-01
3.576733391743308621e-01
-4.446855572812279389e-01
-4.507765767310674687e-01
-3.667442300721676651e-01
3.591747951038123388e-01
-3.940968916987269699e-01
-1.182405046689971456e-01
4.396341146235618336e-01
4.494964206182731903e-02
1.572095106232674067e-01
-2.022208640866489660e-01
2.017501724521245099e-01
2.961600954278892361e-01
-5.085134200799301674e-01
2.617022746298351410e-01
4.485687698650848709e-01
2.173745710668820996e-01
-2.050524333231715790e-01
2.612558052390243080e-01
-4.123915106039195977e-01
-4.081415368597790527e-02
3.801216259111185880e-01
-2.231904761463222031e-01
-2.048220187268998960e-01
-4.116323665252966668e-01
-5.039739259167923535e-01
1.604114470526881442e-01
-3.492107652039821430e-01
-2.848563291894141702e-01
-2.656882701274903072e-02
-4.931705184485783988e-01
2.943297485033643385e-02
-3.710779889839237455e-01
5.617741308949838336e-02
1.596540096844193679e-01
-4.119532959235317482e-01
-1.143953746441837560e-01
1.652570372192797010e-01
-8.847485443263367055e-02
-4.639110998882762793e-01
2.888659772599453182e-02
1.749964701204211048e-01
1.499289910833188043e-02
4.485872483583132064e-01
8.951339900150701023e-02
3.867951256277051275e-01
-3.675450077236510071e-01
-3.397168056964963712e-01
2.836570241998457864e-01
-9.570158193833569471e-02
-3.408798480807631592e-01
3.769886170199748254e-01
-1.646172724231595996e-01
2.377845232727703317e-01
1.736046292770787869e-01
3.692143427771858999e-01
1.153810848512590720e-01
2.062929007241033896e-01
-1.657822544339175863e-01
-2.337887129063326297e-01
3.545196477899997256e-01
-7.915758230983019339e-02
4.657343361929699999e-01
1.295393635484997363e-01
1.136715144503769731e-01
-4.071392100544271586e-01
3.846414503597356815e-01
-9.421050577986092578e-02
2.989699753419447492e-02
-1.687377719092708617e-01
-3.233542347341932244e-01
3.532503334275173268e-01
1.228210197229853869e-02
-5.425147169409829662e-01
7.959447554806840797e-02
-2.179584597338316554e-01
3.575301914101747768e-03
3.569899585944916187e-01
-1.863106331726239184e-01
3.848291277790740206e-01
8.613559989564353869e-02
-5.362076138998518315e-01
3.983362777063684246e-01
1.359046493290557711e-01
4.345733475959832615e-01
-3.647667362703957417e-01
-4.192951084274664786e-01
3.726920970201483829e-01
1.661285223766301999e-01
-4.705753407303592817e-01
2.135643049269981275e-01
2.402186581516685127e-01
4.077911390995266894e-01
1.810346986904937949e-01
-3.807776881738505481e-01
-4.911427730834054817e-01
-4.948214538378383764e-01
-4.613923992627082526e-01
-2.358996245549540571e-01
3.648559742537296757e-01
7.279072020282398303e-02
7.195620377824574199e-02
3.482958405096333587e-01
-3.369951226268853017e-01
-1.953431101172052597e-01
9.898931164813344619e-02
5.215269943159934751e-01
8.417475837197248290e-02
-4.658104723724513230e-01
3.487128062032605058e-01
-2.425546225131922085e-01
3.249107394772340895e-01
-7.746805572217764502e-02
4.014617990307351447e-01
2.788089662986917849e-01
1.006735765291641160e-01
-3.343550729542968947e-01
-4.218658975827514479e-01
-3.398215137431361832e-01
-4.417553187293021821e-01
-3.949515293895686785e-01
-2.491260770871688568e-01
2.150191337314868167e-01
4.774713023691506270e-02
-4.772922380854064395e-01
-4.186940847163805879e-01
4.643684722478120808e-01
7.513318644026763249e-02
-3.108432221599422562e-01
-2.707131049839982539e-01
2.231928257389300951e-01
-3.116987207073524946e-01
6.250007931432169372e-02
4.472039044386366125e-01
3.470043532057991986e-01
-2.802386723705955207e-01
-2.813067067907315880e-02
1.453200112847546910e-01
3.346606737170814139e-01
-3.400724690067001288e-01
-4.544230051332009412e-01
-4.189842105192753685e-01
-8.912984996560797523e-04
1.224377695288236534e-01
6.970250688100952663e-02
-1.739305064884412444e-01
5.196636581678969469e-01
9.125224881599110216e-02
-8.909748245154004709e-02
8.241884862026524483e-02
2.531904457623327942e-01
1.956472438604254516e-01
-2.041392691121615144e-01
-4.267442412023333964e-01
-1.033200288197119732e-01
1.770543509846706498e-01
-2.617788689950419356e-01
3.009940384287571602e-01
-3.777138285911812998e-01
-2.063473434621881375e-01
3.638308483252672976e-01
-2.562362016406802279e-01
1.689554299344981081e-01
6.868764254400407110e-02
4.564474207485144097e-01
-2.179511345061459771e-01
-4.098044529043240458e-01
2.157329844047881084e-01
2.183649647597805943e-01
3.696567078550477836e-01
4.197042385553679256e-01
-5.407083050817360625e-01
-3.052910400428164861e-01
1.293704139543944420e-01
4.149030130162223995e-01
4.312863466241652621e-01
8.592737466539247804e-02
3.903109644142985779e-01
1.318755841311667343e-01
-8.637283081230806570e-02
-4.335274593978159785e-02
8.437412318091548624e-02
5.082634794894563823e-02
3.701842925621250391e-01
3.704472899990482460e-01
-7.962800750682497153e-02
4.280189820664599409e-01
-3.492029665220858226e-01
-3.196150508854834760e-01
-3.682589350811051321e-01
1.098339173098669685e-02
-4.437591495394541674e-01
4.260550753048985562e-01
3.133869154754710951e-01
-4.857007460683125388e-01
-3.766863133833879829e-01
-2.017531940883275365e-01
-3.765822049300113217e-01
2.537798321877828833e-01
-1.823767027097107085e-01
4.376645411092657811e-01
2.882678856432086684e-02
3.556907348606372921e-01
3.521428666690439302e-01
3.618413619088082234e-01
-6.619172000615256013e-02
7.259700511261277245e-02
2.740220791967214464e-01
-2.190693284186364942e-01
1.493347898881546010e-02
8.065285130366552091e-02
-4.845207762540076346e-01
1.073498518894579756e-01
-1.001561823163936299e-01
2.873740261115082517e-01
-1.795422172814875317e-01
3.512126943129154077e-01
5.354728400450655540e-02
-3.238514570414434135e-01
2.394629845747285879e-01
6.756249357729697536e-02
-4.673471918251356216e-01
-1.313147844112762808e-01
1.306090889710100345e-01
3.974702990397968039e-01
-5.350301948682587572e-01
4.387243847911186934e-01
-1.442393323944677064e-01
4.340329313812578693e-01
6.526876523993656309e-02
3.221293068967923112e-01
4.514095039753086153e-02
1.123584606914363876e-01
-2.047123775680973479e-01
7.479562995631146294e-02
2.482109445925802516e-01
3.739522242463591550e-01
2.446503412539463573e-01
2.034583110347273072e-01
3.904626719130169787e-01
-1.853167532819371410e-01
1.935939071186804639e-01
-3.704050633894459543e-02
-1.452111786461573462e-01
-7.248035046117667912e-02
-9.939005092789171547e-02
-2.229132795621168450e-01
1.259237648287322431e-01
-6.481889574089777506e-02
4.397514779083018799e-01
1.747417918061387743e-01
-3.017482922258123978e-01
-1.135013657805302861e-01
-1.695618290674172080e-01
3.022605811906716733e-01
3.499053218112452290e-01
3.863004479045131778e-01
1.546464607927029444e-01
-2.703910698406082891e-01
-2.859436266860544418e-01
3.259393199652266815e-01
-1.927102987527647138e-02
2.527090108465142038e-01
4.637639543825217148e-02
1.949956846577071412e-01
-2.106939284391060735e-02
2.460560270575459507e-01
3.118444970903934757e-02
-6.560777503570944247e-02
-1.837554773544301245e-01
-4.772493799062285103e-01
-1.527730138814497041e-01
-4.485140706633854446e-01
4.413927135804028845e-01
-3.418567991509004478e-01
2.772690149169013130e-01
3.380618061974853261e-01
1.768993574134769542e-01
2.810196381483584527e-02
-3.803363979031660902e-01
-5.516232149123079936e-02
-1.893586169089488125e-01
-3.074693349292293432e-01
7.726759493272145063e-02
-2.073891363251272602e-01
3.939083067364084756e-01
4.091358642628091236e-01
-2.581391360473250240e-01
-4.047424169081177969e-01
-2.944487315241650638e-01
3.908414291278680675e-03
2.276600472920688456e-01
-2.643921501557835452e-01
-2.371893929449782057e-01
3.573390973161798545e-01
-4.654085193530103221e-02
1.367453670193500281e-01
-2.582012412614699826e-01
-3.518972665787645226e-01
4.321445472786709235e-02
-6.710044787750816912e-03
-2.978185689341368292e-01
1.364757726255476644e-01
5.375580771542862873e-02
1.842993843677667165e-01
-3.413792510752844400e-01
2.706083574128706482e-01
-2.506490598827998406e-01
2.205683800007935194e-02
2.804087470830025075e-01
-4.658148423263021587e-01
-1.918635141210609518e-01
3.469451206704735058e-01
3.413792261710421605e-01
2.322967461457423402e-02
3.433261908199440882e-01
4.422886725489507675e-01
3.202179973221555009e-01
3.389108296260358588e-01
-4.049400026099809202e-01
1.237549913877168117e-01
1.706201498268855032e-01
8.269683367523197881e-02
2.895350596805409404e-01
-4.824615021919946845e-01
2.423243472469488180e-01
2.330496431944024116e-01
-2.487941665986391215e-01
-2.600191625017554409e-01
1.347862145692929337e-01
-1.696817987526263727e-01
2.768928953932153769e-01
-3.429338086556312643e-02
2.822754566283477984e-01
4.832816758421163428e-01
-1.732879172860131156e-01
-3.490125312204652719e-01
4.064765581095280411e-01
7.623384357853217608e-02
4.909540157667736104e-01
1.618713718455843942e-01
5.373589292613625279e-01
6.376825337211845801e-02
6.059508429709650756e-02
-3.240384012175772654e-01
-1.313924100196870726e-01
-4.382345083945818343e-01
-3.003790845656376107e-01
2.616585464291358298e-01
-4.296537444128542549e-01
-8.207632126292782604e-02
3.930111717030892460e-01
2.478865789108709028e-01
2.398481109016685486e-01
-2.805289401624312395e-01
-5.232252900408353516e-03
1.147770854451101719e-01
5.113986060017403634e-01
-2.551498088390103391e-01
-2.821866762595303113e-01
-3.018496518764048897e-01
1.970094104770448440e-01
-5.086976687662052993e-02
-4.819474241224234179e-01
-3.144227822612390144e-02
-2.670715924459562962e-01
2.783284373082958729e-01
-2.191874700601389447e-01
-4.221300172452653876e-01
9.556801269887049699e-02
3.594535840850986985e-01
-6.828939308367996952e-02
2.507988848258624337e-01
2.032228577500686667e-02
7.946507353347409541e-02
4.439884725429573686e-01
2.974370663957363048e-01
-4.305445738927734523e-01
1.946191063966408730e-01
-3.976067253675311108e-02
5.086719617324798604e-01
-2.703596043872846799e-01
-2.123532040505988761e-01
-3.753732670878140443e-01
-8.001718391664647267e-02
-3.884841031100540465e-01
1.530378622970323399e-01
2.689402109407853514e-01
1.758387537751003871e-01
2.659628276277885006e-01
-2.075020181996523327e-01
3.157371396158011323e-01
-7.319140697014968333e-02
2.730055446322903201e-01
1.037612329265682615e-01
-3.511259348611705522e-01
-4.608223163391934607e-01
-5.003022879562079028e-01
-3.980509210329500336e-01
-5.277883490777814796e-02
-3.790027147794407525e-01
-4.344171516774523734e-01
2.481988149142178579e-01
-9.392857248660198277e-02
2.726551914403194110e-01
-7.241994103045612530e-02
-6.542111705019168499e-02
-4.673707208656736022e-03
-5.829897155988790491e-02
2.813230631076910071e-01
-8.753766366945421595e-02
3.769716771735061034e-01
-4.909345149312901446e-01
2.802795145814763189e-01
-3.990247027503827093e-01
8.754153050474190734e-02
-4.857806283279061943e-01
2.314277792487880181e-02
-5.119779276227450771e-01
4.440093273964070830e-01
3.705657448265209375e-01
2.638492844068081045e-01
4.164055949309613536e-01
-3.919400641306520217e-01
-3.680896664337030555e-01
-3.046240094742587168e-01
9.767605750277373600e-02
3.929450744723049227e-01
5.073044325450868364e-01
2.053337782108370924e-01
2.396277471068248566e-01
4.479858217170937795e-01
-8.401878606915701153e-02
-2.087645068203279330e-01
-3.040030430302943509e-01
-3.878754201201033425e-01
3.504268016448373602e-01
-3.414787213840841940e-01
-2.613549610099106801e-01
3.393039281461390777e-01
-1.826093254728807791e-01
4.500065765413741592e-01
-2.349485944884013022e-01
3.965081617166580502e-02
-2.214683196839843105e-01
3.988341625311104255e-01
-1.218617974813882981e-01
-8.427164791096677932e-02
-2.110387653925257286e-03
4.443722575515137163e-01
-4.938406324885570298e-01
1.909035755158501602e-01
3.841429103808686740e-01
-5.001737102739531871e-01
-1.561634243357333356e-02
-1.846860558183124057e-01
3.371899671060178405e-01
1.601283527629163844e-02
1.656229734507136120e-01
-8.524040286461506688e-02
7.620207696474971815e-02
-2.453057248057925188e-01
-5.419767511272343130e-01
2.207966069855884020e-02
-2.106953245247723538e-01
-2.044429821858828600e-02
3.939846936344375550e-01
-9.862266746259551464e-02
-2.852438617200268034e-01
-1.375770076284591470e-01
4.079796204489699041e-01
4.128401440362263752e-01
3.372258091057500629e-01
4.019375792488946719e-01
-2.859300418777099839e-01
-4.060913461056795404e-01
-2.961781728178023987e-01
-2.073943047531443262e-01
-3.229248954169984254e-01
1.017542823191670276e-01
-9.396392386570656674e-02
3.363043925832105430e-01
-3.042195443478564187e-01
2.097843510679279766e-01
-2.317268497104205127e-01
7.441170144684859655e-02
-1.516711336236658825e-01
-4.193734111603489301e-01
-2.637177324446526305e-01
1.675503583548551279e-01
3.169783550451706067e-02
3.417548226697184749e-02
-3.189352974714128042e-01
1.065782041278332953e-01
5.110767922536540997e-01
3.239813307517693808e-01
1.197021131866600197e-01
5.003766973661019080e-01
4.213435432085759214e-01
1.191289501346648738e-01
-4.646100529709978333e-01
-4.157999644718612942e-01
-4.360857624352161843e-01
-7.491318015041147083e-02
-1.610563290992776397e-01
4.554060784461448907e-01
-3.462598089495820264e-01
4.490500595357775349e-01
2.499225406379744219e-01
3.171082332783365931e-01
1.203547102040558453e-01
1.636576009053108960e-01
-3.172909263924515028e-02
-5.022211955169062492e-01
-1.639126813738406296e-01
-1.995193719091774981e-02
2.105935590471405550e-01
-6.205956612342837520e-02
-5.379492701957904605e-02
-3.792677210124467124e-01
-5.226298833621985107e-01
2.496897184616871657e-01
-2.032346231333172770e-01
4.471806570522435798e-01
-2.861295765229710519e-01
-1.899569837537168904e-01
-1.474566665692433887e-02
2.717199773732209556e-01
-4.209984526026329388e-02
-3.888907138803244790e-01
-1.566384826966420729e-01
1.477602093396726893e-02
1.796770611093654602e-01
2.958453354810855473e-01
-3.635200218362165669e-01
-4.652290643882306953e-01
5.756582008201275441e-02
3.297212061389865334e-01
-4.491147168108845511e-01
2.148712985840898482e-01
2.094356945937629333e-01
-2.706067217946009264e-03
4.652527478620694934e-01
1.755626897245548823e-01
-4.432634113749931437e-01
3.847986153874117382e-02
3.951197468835933035e-01
3.775785608870869670e-01
2.017248941809268725e-01
2.110560165383130460e-01
1.302809354855883617e-01
-2.216276991210922864e-01
2.426715702139977185e-02
1.449999401884409511e-01
-1.592680461930412739e-01
3.115172207236407975e-01
-3.527096941006815367e-01
2.504249399113145369e-01
-2.501162887179431138e-01
2.291032405685751450e-01
-3.051853062533823463e-02
3.013854335870336798e-01
-1.473743159289544191e-01
-2.342993517471634868e-01
2.664662918585578022e-01
-1.846159189059924377e-01
2.832772275513610327e-01
2.397125800246655281e-01
-2.780214625584655486e-01
-2.299488070134175499e-01
-2.928672381000915759e-01
-3.457161633451623639e-01
-5.136729582267744038e-02
-4.507352828066094608e-01
-3.619655903497561722e-01
2.278298543421083677e-01
3.029694189229648615e-01
-4.110042139883315904e-01
-2.431757184610641720e-01
-3.176623358413130371e-01
4.020229337399474079e-01
2.121957550259528091e-01
3.579082556819648906e-03
-2.329569147093797921e-01
3.184216969147142806e-01
-1.318396786039034707e-01
3.758279174856357097e-01
1.996883396113852682e-01
-7.594900072357418930e-02
-4.023942576360328705e-01
4.941133073297717671e-01
-3.706476058306182320e-01
-3.050047524421631295e-01
-2.983552522519230393e-02
-1.089813536435468161e-01
-3.432969812330216031e-01
2.607719350514646761e-01
-3.324412986005025883e-01
1.341688683355838352e-01
2.716237458985163444e-01
-3.222701720865165376e-01
7.151778955084552025e-02
2.673112029590685723e-01
1.193522337417148166e-01
7.511773921515665919e-02
-1.706279788915381623e-01
2.246598082540815222e-01
4.362202513470611609e-01
-4.992322693883487900e-02
2.752090002013942160e-01
-4.479414644113777211e-01
3.425440490438229624e-01
-3.346377465850454702e-01
-1.199276908561789784e-01
-1.893224310516468667e-01
-4.495189550908155751e-01
3.901050435959076412e-01
-1.147030057177580581e-01
1.181786454508187457e-02
-9.107133228037748301e-03
-3.382697051854645642e-01
-2.881800078692554057e-01
-4.015230333931691376e-01
6.315797864409440632e-02
-2.072001228130755379e-01
-7.951669443221265343e-02
-3.615855090377322889e-01
2.940446786701301773e-01
-3.499428823102028741e-01
5.051759580957799756e-01
-3.240075693382683530e-01
9.637440395241375635e-02
-4.483187609687769859e-01
2.710422694121259468e-01
-3.093431383783190047e-01
3.326533782418670399e-02
2.120570400837667180e-01
-3.633550585827373114e-01
6.201951520642994681e-02
-3.035184481720057392e-01
2.412523051301873889e-01
2.267119282807121827e-01
-3.554685157918884841e-01
3.254861019263796673e-01
-4.851394967578165907e-01
3.201922045945614359e-01
7.713980566156575236e-03
-1.121476328741295853e-01
2.225014073195526187e-01
1.579313560333495958e-01
4.600022887770726099e-01
-2.664831421307914949e-01
-5.525557313931505066e-01
4.015366095709524408e-01
3.071746449212928720e-01
1.844471199905154124e-01
3.290365932109587822e-03
1.751264530001637731e-01
2.723230651970078298e-01
-1.515734662726955784e-01
2.436106961329151666e-01
2.448350383935378183e-01
9.204886555386995739e-02
-1.156658740812091662e-01
2.040662508458237212e-01
-5.061254832647110735e-01
2.695289903733991133e-01
4.156191833795568336e-01
-2.776643900152968025e-01
-4.019951735763692691e-01
-2.745642496414364420e-01
-1.943203020495891109e-01
3.776690479786906640e-01
6.388705102996983243e-02
-2.020874450853051008e-01
-3.549197899684440327e-01
-1.808448939802746736e-01
1.179628900639263789e-01
-1.800976919367653917e-01
-2.166707826548327706e-02
-5.480661535176096361e-02
3.199902132340801120e-01
-4.719924959730238678e-02
-1.509802094126760086e-01
1.689445730170934246e-01
-2.501250080090887118e-01
-4.958551062978531349e-02
-2.041718006495203408e-01
1.394499317792624871e-01
3.628564899664226129e-01
-7.085309361417195528e-02
2.903725806525570552e-01
-5.059702942297849421e-02
1.372368243370868102e-01
-3.671724394342753550e-01
-7.946378848081298019e-02
3.828879549876368915e-01
9.185333537092452150e-02
2.577043847736407156e-01
-1.915219599303702794e-02
-2.140321808863851830e-02
3.394390711084634971e-01
-4.524459942088355224e-01
5.492605403304692824e-02
4.228308870276329401e-01
-1.848218964863928074e-02
-3.446847777681570912e-01
3.227086041770296787e-01
-2.840776364363628570e-01
1.633325751656792280e-01
2.776190721075291745e-02
4.278182218298882122e-01
9.916541339489429174e-02
3.482775926719052784e-01
-4.953575959443633492e-01
4.736887285917270596e-01
-4.180819828088860879e-01
-1.947061029974968271e-01
4.156514639358278029e-01
-4.808524451221591889e-01
3.098784803924126696e-01
3.323912836107761337e-01
-5.221296876250923480e-02
-2.486921980947534860e-01
2.834195808494237578e-01
-1.443781758219267464e-02
-3.718156346752659047e-01
4.228575652663399964e-01
4.196001135114419966e-01
6.387773219878320648e-03
3.836931780587398699e-01
-4.078811032378459878e-02
2.151230286486434384e-01
-5.180994239949951452e-02
4.554575945890778493e-02
-2.809807958868402733e-01
5.162885310590147325e-01
-1.564793411742078921e-01
-3.625169432360449973e-01
-3.101433396614664550e-01
-4.412772287390162584e-01
2.480732204095165427e-01
1.126179185599800875e-01
3.030343722291890529e-01
-2.640678818591846166e-02
2.699142800458871894e-01
1.884173294129899978e-01
2.278991986512210743e-01
-1.342695983322843012e-01
1.431332754016019781e-01
-3.723559926673360998e-01
-2.266970614787713889e-01
-3.022593200627443633e-01
-1.174389592866469101e-01
-2.765550483581423746e-01
-5.099462948670913098e-02
4.630610673434530922e-01
-1.797126245113585541e-01
5.181208700304154036e-01
1.217109404994097810e-01
-1.281698855972719653e-01
4.022085560263095605e-01
1.166119744528395091e-01
-2.430179215011828708e-01
3.500526702847870930e-01
-5.377236880347138065e-02
-1.179942063795325902e-01
-1.183381722038470280e-01
1.999125803530990841e-01
-2.157319496209158249e-01
3.310088960297567495e-01
-2.284292120296176065e-01
3.212519180620072856e-02
-2.235455612346117643e-02
3.006939157816272412e-01
3.471375965008389741e-01
-3.388903618852040500e-01
1.309700074308869054e-02
3.518215122177078547e-01
-6.810744512713036436e-02
3.577047460835934278e-01
-2.558172735538709608e-01
1.153436840475495773e-01
1.445767337333327129e-01
-2.884657069618337677e-01
-4.712692687327632024e-01
-1.119591815678700197e-01
4.299102930978929149e-01
-1.523807167082975866e-01
2.346961576034351793e-01
-3.647494717689306887e-01
-1.537076161370849736e-01
-3.967114473676892072e-01
1.748696515546395713e-01
2.211465215739770729e-01
1.733707304827513673e-01
-2.603016296216292824e-01
2.319179196895722050e-01
-2.739234553780469650e-01
-7.323694865341001670e-02
-1.016871154432018726e-01
-1.509199454337732671e-01
-4.429835409400635915e-01
1.457327996750992505e-01
1.893883433383485582e-01
1.036007423493820884e-01
1.672593202145863378e-01
-3.494771950975049668e-01
-3.558820108231375845e-01
4.033574688218841131e-02
3.687756456525462245e-01
-3.002216706620588482e-01
3.322708666116636414e-03
-5.452578183167058890e-02
3.523855944011334423e-02
-2.831493440833884323e-01
-1.264667499050598498e-01
-1.765251318746955678e-01
3.896142608240591998e-01
3.216257474341454592e-01
-3.120045571266959195e-02
1.363597323701720154e-01
-3.401542289253673967e-01
3.386651439509407585e-02
-2.005412212539539885e-01
3.474546156775218386e-01
1.628489103409874461e-01
1.383886156088824371e-01
-4.054486697478414392e-01
-6.338296514010333116e-02
4.979534516899974950e-01
4.184987810022704480e-01
1.119975433849018931e-01
-3.487743949228448437e-01
9.708550956633732465e-02
1.512821065562628894e-02
-4.425406381574836789e-02
-1.212257610668692615e-01
3.303913099988867175e-02
3.230249814995577173e-01
2.034157178068849992e-01
8.826685421950298399e-03
4.005773756994083223e-01
-4.744516128338558958e-01
4.427504700795023562e-01
-4.632774945644476117e-01
-3.378266056119388350e-01
-1.017515162005944995e-01
-4.080545338260118671e-01
9.451288342226668582e-02
-4.661836286111370464e-01
-2.356426649632226977e-01
-4.591595060423787622e-01
2.095916806059285875e-01
1.572395614379586970e-01
-1.285123350830786881e-01
-2.849658960993477486e-01
2.447872786795700084e-01
-1.585941642419652353e-01
3.214296267436360655e-01
-1.653694264812710299e-02
1.539872244259602070e-02
-4.595109354701869542e-01
1.476766352871344556e-01
-1.495653890177740808e-01
-2.477110928835033199e-01
-5.904259003326352284e-02
-1.139298171471010285e-01
-4.908912947692866541e-03
4.797757010634419172e-01
-1.457122762889209167e-01
2.856611628050149676e-01
4.919779461330981568e-02
3.710156478515008738e-01
-1.221997584906596157e-01
-2.588611796180805280e-01
3.939550143491165612e-01
-4.297887436651127713e-01
4.260275806185806480e-01
2.931575433265257852e-02
-1.115403223994962389e-01
4.784991891449674184e-01
-4.611916847046866885e-01
2.370675865869664029e-02
-4.794694300304350731e-01
5.077330707905255980e-02
-3.095954075420073726e-01
1.070674168209938548e-01
4.441269640844756617e-01
3.669459880520793416e-01
-6.127415269176337415e-02
1.783818458984813282e-01
2.599676978655017789e-01
-9.524168541470361127e-03
1.912260622620511616e-03
-3.702500395638655406e-01
-1.337421837234311905e-01
-3.869882890235354922e-01
1.991001994294629429e-01
-4.158949721712140724e-02
-8.987477904056362377e-02
3.475229416051441311e-01
1.326131334116619973e-02
-1.197775524155766380e-01
-2.646913766218716990e-01
-4.256908145793110720e-01
-9.388758703048014076e-02
-5.016733173152339020e-01
-2.041644413790530410e-01
-9.012559746375927924e-03
4.357511883172480172e-01
-3.948668649689025534e-01
1.514608375557670028e-01
-4.016258653169870602e-02
2.874250502064812363e-01
-3.615048857416136574e-01
-4.325068086321254279e-01
-8.900506146697353960e-02
2.923139276154929078e-01
-3.119673932154815588e-01
2.883165582348993228e-01
-2.034765063661929663e-01
-2.667928864993167060e-01
-4.332885441525938242e-01
-5.901964276115291563e-02
-5.914320277136572018e-02
2.163464121782805172e-01
-3.772317868101854876e-01
-2.731958593488011955e-01
-4.240968127711191027e-01
-3.404091743176878571e-01
2.098997787171416052e-01
-5.749052047258254583e-02
-1.542372140595272834e-01
1.043809068307940263e-01
4.930564541169784598e-01
2.900227239946285285e-01
1.621214604292146311e-01
4.268576265620349641e-01
-5.014525670938723145e-01
-4.664880326700358015e-01
-7.119202632680921147e-04
-1.838226879088632748e-01
4.149883772847468011e-01
1.972814362612243869e-02
6.860919459601198291e-03
3.805743694102222685e-01
-2.291803681013673474e-02
3.542469352681182904e-01
-2.507146673863862030e-01
-2.035965912012418777e-01
-1.973265101456494475e-01
4.468623339917424803e-02
-2.552428582371629173e-01
1.550959040649022569e-01
-3.560991730461569582e-01
-3.553799959649533435e-01
3.853637969618799453e-01
-2.295287827759124044e-01
-7.659230940242929553e-02
7.418483017463330109e-02
5.100106706302722642e-02
-4.163212086513723431e-01
3.410255290388787275e-01
4.426790164898825597e-01
2.996431420629501186e-01
-2.717176131602240252e-01
-3.737894270594317855e-04
-1.788493913447192218e-01
-1.052597687146447115e-02
4.420101540217459268e-01
-2.015777230531773101e-01
1.028060435648940757e-01
-2.106865469164090898e-01
2.691390302128764400e-01
-2.249662557434403409e-01
3.554454231553756394e-01
2.383386076380440977e-01
2.096502103701663733e-01
-7.167895403441962299e-02
-3.091311395210368240e-01
-5.220379024065051610e-01
-2.297145366506792852e-01
-4.685818577676760244e-01
1.444256244967620229e-01
1.278491986230406996e-01
-5.434419808874959429e-02
2.437839254993870441e-01
2.101419094333138379e-02
-4.334117192883304437e-01
-3.792255588733369764e-01
-3.084776802130864137e-01
-1.409705350345884789e-01
-4.643459205147077995e-01
9.534567531075346936e-02
3.303115238395204489e-02
1.009035142553934283e-01
-7.955518980409573282e-02
3.799755479121770807e-01
-5.435684131084476262e-02
-4.788544399068720980e-01
4.077420338401831490e-01
1.616558269437240736e-01
3.536038144917039716e-01
4.914598641721737993e-01
-4.295482599686069602e-01
-2.285081465653026889e-01
-3.877999809005145404e-01
-5.532925734530866335e-02
4.042393977703419572e-01
-3.817337276608424590e-01
-1.462891775079654295e-02
-3.448032451246679231e-01
2.993503468193582373e-01
3.502096729264195796e-01
-4.361530794524413057e-01
-1.872039602382427267e-02
-2.858162260541211031e-01
4.308065052763347391e-01
4.442340437936538877e-01
7.911150957172929932e-02
4.315466811492800758e-01
-1.677646517889240241e-01
3.526746963942686275e-01
-1.198676480311151871e-01
-2.762554665895894379e-01
3.855743744363134828e-01
1.221133490674982808e-01
-4.457528015459812920e-01
3.236021675133888276e-01
1.444293944536712004e-01
9.699515219543065891e-02
2.064696550901804206e-01
-2.887497231448595270e-01
9.327741129254542296e-02
2.879936258833654672e-01
-4.710933470818330360e-01
-3.839914749935298133e-01
3.031533569426342334e-01
9.654101998642301841e-02
1.951377806873157150e-02
-2.687732382774654649e-01
-2.072192533763385913e-01
3.691404995452629012e-01
-7.411364057808769723e-02
-4.075695522213976241e-01
3.813252216641941361e-01
-2.998346310183815921e-01
3.577782546976615019e-01
3.772073175210481910e-01
-9.651434993970867821e-03
1.348226192019266190e-01
2.180172545747590188e-02
1.170399073311947091e-01
3.723969882053039804e-01
-2.251274958749882316e-01
3.821288445764317032e-01
9.033129617422176738e-02
-3.903748093251954154e-01
-2.792576072458840541e-01
1.124849913780430338e-01
-2.713223313311854956e-01
-3.857129921657094784e-01
-3.328324219591412558e-01
3.378430238576858868e-01
8.046797926036589055e-02
4.757891530195955121e-01
-1.609143105252528461e-01
7.455439551845868817e-02
1.165574355135342161e-01
1.003604664204943292e-01
-4.629466288844494848e-01
2.622026018596901320e-01
4.292924805777510455e-01
1.138352791809181704e-02
-3.086743606665906525e-01
2.268712106314336174e-01
-5.274035441226990750e-01
-1.851338565284572357e-01
3.884006110434642944e-01
4.724529428806358705e-02
3.418368668766174068e-01
9.406438936279917784e-02
2.978870596914813262e-01
3.699527312538774537e-01
-1.842660766354638491e-01
-3.980279776435149408e-01
2.116646717856849325e-01
-6.767868430105843103e-02
-3.941619294191670009e-01
7.925646766452325298e-02
-4.886400547434580077e-01
-3.383756497501660965e-01
2.575576701891217346e-01
-5.012866406863749624e-01
-2.228285220868399530e-01
-5.019150818477375875e-01
5.051780791925660763e-01
7.447409848563636692e-02
-2.191661368286935141e-01
4.551155778207616187e-01
1.294385494183945655e-02
-4.930465094623714267e-02
9.220979622247203744e-02
-2.520655304849342970e-01
-2.185410986054020788e-01
-1.139680030229920094e-01
-2.615891091323866435e-01
7.394319930230881799e-02
2.136157069024421096e-01
-4.230829853242922822e-01
4.792435392020630291e-01
2.861770167053378500e-01
3.240675787542932618e-01
2.841401500767595234e-01
-3.687242783175797012e-01
2.187046871802756157e-02
1.311530275299985920e-02
2.315593899284209556e-01
8.146623744949431541e-04
2.873802898091130653e-01
2.466690591476368433e-01
2.503839214737572094e-01
1.928016352741757644e-01
-2.932624516383553481e-01
3.031186396809181227e-01
3.490750326593405894e-01
4.018433747841034243e-01
-3.086985917930544221e-01
-3.564234219427310779e-01
-1.042853935583363395e-01
-2.190913871519909462e-01
2.811344001135844817e-01
1.389877201798253026e-01
2.280495827060620984e-01
-9.251138791282949303e-02
-3.789443976060981045e-01
-4.189395404992144467e-01
-1.395935887076804882e-01
-2.903955997002294898e-01
2.887893691442834365e-01
1.005830984202613354e-01
2.003738988608704807e-01
-3.785046419111844085e-02
-4.062311203466625886e-01
-2.473341023316103227e-01
-5.577421211774504645e-02
-2.934296548685121353e-01
-4.382978384044269315e-01
2.339379477178276934e-01
2.580714961307498112e-01
-1.446903506301908948e-01
3.433146183025437281e-01
-3.905502259425180228e-02
3.629629554719414619e-01
1.205077075707634698e-01
7.170411424665136535e-02
-3.061700431015892954e-01
-1.858024881399685663e-02
3.821152030702551494e-01
-2.114945252939498532e-01
3.105161722083599196e-01
3.875713277945092572e-01
-1.728886943601572745e-01
1.283496720157183135e-01
3.766203754961083283e-01
-4.216759615136480011e-01
3.321977451924090774e-01
-3.339051663281873972e-01
3.511224411769064413e-01
1.232079170984971273e-01
-1.816802798077121472e-01
-3.511223612579475462e-01
8.411695012305329955e-02
3.119741720715200617e-01
3.181131672607671046e-01
7.888389349920064963e-02
4.156787177493089791e-01
9.167128614441891199e-02
-3.416725518617175217e-01
-1.015977506242635026e-01
-1.527159078399014103e-01
4.662403028167791397e-01
-1.364397327144170335e-01
5.223598223551301212e-01
-2.771945118318450575e-03
-3.462288628809749857e-01
-4.021194141552674739e-01
-1.558439306372716993e-01
-4.019024059657220205e-01
1.556554551921898732e-01
-1.057375573601452706e-01
4.865354215083458889e-01
4.442432917019122351e-01
-3.599073995229599143e-01
-9.327267436385432153e-02
-2.634460010598683663e-02
5.942385764457640274e-02
2.831916502408611258e-01
2.105335586935070183e-02
-6.546568029461334592e-02
-2.164762846351071524e-01
4.520940915637686186e-01
-4.592366224237719452e-01
3.531720042224111844e-01
-2.860956940546349192e-01
1.922903629142614645e-01
-1.267802138100850018e-01
4.763558317317702628e-01
-4.004589775369205573e-01
-3.317948406108651715e-01
3.773577014247519457e-01
4.137709319021208587e-02
-2.420458393859332979e-01
-5.367679463422211361e-01
-3.366765478437246939e-01
-4.352038422166515930e-01
-3.217708395962521895e-01
3.289186273576452102e-01
2.923115775875625988e-01
2.096496103017461143e-01
-6.438801678413222374e-02
2.866781596022469625e-01
1.876262553527165144e-02
-1.470948872821634945e-01
-2.378062886582348878e-01
4.498045753615018127e-01
-1.235409181163382580e-01
-2.416413331636936730e-03
-2.327594970070451519e-01
3.623840119512093394e-01
-1.128334078922610673e-01
-2.081665624053411490e-01
2.106450753432919099e-01
-2.975428090647018742e-01
-3.873547831764709848e-01
3.479145455911378249e-01
2.756340561806145395e-01
8.207136061865887011e-02
-2.521511231658448704e-01
1.545778294578091239e-01
1.584073221269263199e-01
-1.459314706934555228e-01
-3.783172204433461472e-01
3.948323534521224754e-01
-2.248147137893713801e-02
3.095863613568909378e-01
-2.377144370801480278e-01
1.091579123408079610e-01
-2.607142791585214531e-02
-1.236252331431634682e-01
-3.749712245532942911e-01
-2.291477189669708925e-01
-4.325044468843110557e-01
-2.142086526746421471e-01
2.561284072127500422e-01
1.091914982849327836e-01
1.543361148478752665e-01
-4.788395969525152118e-01
1.768481768206812688e-01
-1.309922636644004178e-02
-2.500648303490063395e-01
-3.433044417135744375e-01
-3.459371537251276774e-01
3.435753370773769189e-01
4.558153204635937983e-01
3.761945357833624271e-01
-1.725922242528983852e-01
2.398017722907573313e-01
-3.089144446286726589e-03
2.825537077538512465e-01
-4.723881245128136452e-02
4.621729817532709700e-02
2.612063904772385925e-01
-4.111044713465016320e-01
7.459783780871960188e-03
-1.544249506512055392e-01
9.364096985945431773e-02
4.277215622629971237e-01
-1.330630165999086012e-01
-1.048608608941817427e-01
2.806329164477283644e-01
1.413331012858800029e-01
-1.253539412461446012e-01
1.532934326682811876e-01
-1.241706493350994006e-01
-3.872840257078740134e-01
-8.506543703525647204e-02
-1.985404484619844867e-01
-2.855721699951236925e-01
4.149987345051237009e-01
1.744602461922493686e-01
1.271573772521560619e-01
2.586039839568883836e-01
4.494253786732659017e-02
2.310792257619503076e-01
4.376667024604600220e-01
3.582004043913240010e-01
-2.944940486028216897e-01
-2.247162288141502373e-01
-4.275803977953072654e-01
5.045542233667168475e-01
-2.610307808451503009e-01
1.669155658103133877e-01
-3.873788943790089645e-01
-2.822279341262687868e-01
1.852928622911547557e-02
-3.642849991897125772e-01
-8.792987371814506292e-02
7.674713607975398866e-02
-1.117055577824795781e-01
1.006863129215573582e-01
1.040760671373166246e-01
-4.607571618119368773e-02
2.436239748317248766e-01
2.465288770547210684e-01
2.475008580128505442e-01
1.091848510486041757e-01
-7.780976136591236103e-02
9.437494081912728427e-02
3.851651280784593179e-01
6.045937547028632647e-02
4.591988348299975153e-01
-1.127404320522148728e-01
1.912859946247858212e-01
-4.659224610902749086e-01
2.149633163217524734e-01
-2.256496078650052292e-02
-4.852656944963091856e-01
-2.595434716473826731e-01
1.936432105528979042e-02
2.904715704608433757e-01
-4.700992028279273316e-01
6.390928907206235021e-02
3.131301776080077093e-01
1.241533488180686512e-01
4.452899775738106136e-01
-4.196703847059529702e-01
-2.490424313447397175e-01
4.273729794083241940e-01
2.814912333792649601e-01
8.358298173459553781e-02
3.506541371669261720e-01
4.209366847425405900e-01
4.616658870159606187e-01
5.201311367270028407e-01
-3.517641319862336302e-01
-4.603651644760604067e-01
-4.289555010161199555e-01
-4.813043821777550080e-01
4.340114998877038222e-01
-4.095504552837661572e-01
3.366954213587864397e-01
1.346185336460047344e-01
-1.937696975570734476e-02
-1.498147117187191846e-01
-1.931882489494485544e-01
-2.518336781117755940e-01
4.503649233146370667e-01
2.093033433801931020e-01
-4.617692576929456338e-01
2.074684219500858712e-02
-2.133845081930301757e-01
-4.437537904839007341e-01
4.359616513617552980e-01
2.634650545488620432e-01
-1.618165516403681781e-01
3.225116395501662625e-01
-2.045208979932145454e-01
-2.119538230404267865e-01
4.286192547827519794e-01
4.319511731763045481e-01
-1.410574698070965124e-02
4.650801898717885074e-01
3.643334771089934421e-01
5.470707364332150387e-03
-8.877982665780981275e-02
2.025656909189611221e-01
-4.272990122638573030e-02
1.356240175299980866e-01
4.695160113108593491e-01
2.560129665575071600e-01
-1.607977088740678573e-01
-4.446201681405639872e-01
-3.318006072378733018e-01
9.176560602870954819e-03
-1.217383412135491783e-01
2.741992635564321490e-01
4.353573240995374238e-01
-3.312813354076447059e-01
3.470925201946804539e-01
4.866189817626607184e-01
4.797635434399211141e-01
-4.454676224861150446e-01
-4.112387904313711817e-01
-4.810626226655421722e-01
-1.669585728800480617e-01
-4.253181868213846140e-01
-2.042169437343046567e-01
-1.364129242876789549e-01
4.604291082987907457e-01
-3.795439576443113139e-02
-2.400966517959160496e-01
-2.131054064141172256e-03
1.161419688929561517e-01
-4.356126508119785301e-01
2.283268776041943171e-01
2.972280498474714205e-01
2.684418495675662264e-01
3.683153060707696214e-01
-1.847234099164334342e-01
-1.397396804230301715e-01
-3.780849190413031469e-01
-3.044785028653951842e-01
4.257366194231408940e-01
-1.768770235266130531e-01
3.996574874978090497e-01
3.705386093608435405e-01
4.543269625455282346e-01
-3.532751550211374880e-01
3.744274797639991492e-01
1.393720881942914214e-01
-3.203521800293251398e-01
-1.694934661719791902e-01
-3.480722743979286493e-01
-7.178770661307488921e-02
-4.131813632985742446e-01
-3.411792951038195576e-01
-3.018197505295698857e-01
2.162762953335079785e-01
6.150837432350225037e-02
3.646033321458360676e-01
-2.346977156877191051e-01
1.486372312050071864e-01
-4.435992816315189047e-01
6.035705723684678392e-02
3.865475416453746926e-01
5.093480797043787867e-01
-4.375663345601751852e-01
-2.228912475902928847e-01
-2.512434082862433082e-01
-3.935049660552078499e-01
-4.779569602333471057e-01
4.617599621700238174e-03
-4.098281558148569315e-01
-2.337084133000189023e-01
1.258875262025451192e-01
-1.914650867635435960e-01
-2.427322628112444092e-01
7.092698649646590747e-02
-1.131822777647297357e-01
2.012049202245851653e-01
-1.809934789226790366e-02
1.442708641200646791e-01
-1.583529575410655976e-01
-2.350360349618249856e-01
-3.675460060278699648e-01
4.167768300138319226e-01
2.746722033340496250e-01
4.190719849787986062e-01
-3.533935679850727651e-01
3.960708093109582273e-01
4.025535584228531749e-01
-2.464001936654329206e-01
-2.537734373064417515e-01
3.194526200766580060e-02
-3.403706398815197209e-01
-9.643659089897126113e-02
-3.537409164893290381e-01
4.189169874490439871e-01
-5.288800327278180002e-02
4.140219278849702200e-01
1.346322689891438218e-01
-3.936727739789517427e-02
4.404333872825800245e-01
-3.662521656137046056e-01
1.030830781105919608e-01
1.330796599419306059e-01
-9.569363105447110940e-02
-4.876496655629012356e-01
-5.790844188394372177e-02
-5.220409837336503073e-02
2.721823562309066413e-01
-2.891819620923036793e-01
-1.068811365354342957e-01
-2.745132393735704723e-01
1.577791734713959448e-01
5.055961496591230286e-01
-3.287204208553912710e-01
2.976453509322075086e-01
-2.490345212213653792e-01
-4.418872415051132707e-01
-3.706160827555487480e-01
4.417740777339339009e-01
3.715911981886015902e-01
-2.213202192559521331e-01
4.514161023655332561e-01
3.377909701742589643e-01
-7.288922852287604837e-02
-3.466939926721107623e-02
1.205904150111086620e-01
-3.396594321842544284e-01
-4.564491614472437342e-01
-2.117273789376060145e-01
-4.413532653850436027e-01
2.218668772165646175e-01
8.674277038818276053e-02
-1.233325047812287856e-01
3.194921830634843696e-01
-3.240917057323633443e-01
-2.082491838179651444e-01
-2.472755838346471502e-01
-3.665706238974819065e-01
-4.448495062176215376e-01
3.256536915993894499e-01
-4.833822568688421750e-01
1.290631805705806101e-01
-3.949352470821877459e-01
-5.441152810126977935e-01
2.401116933499414935e-02
4.063250635922399656e-01
3.173857459627167366e-01
-1.694382987316196965e-01
-4.597194804286276471e-01
2.679859140308628040e-01
3.088108710042509752e-01
3.846698219783179495e-01
1.420414293334433253e-01
3.104646532149987204e-01
4.056378993335874039e-01
-7.055992216356837821e-02
6.511594029443172615e-02
2.185012067153791621e-02
1.748229902614486519e-01
1.992741908588304411e-01
6.431087662521071946e-02
3.308101012064890156e-01
3.012449774196770264e-02
3.527621130760509316e-01
-2.347716819162494195e-01
-3.154230943618820393e-01
4.869520839815200675e-01
2.151393419613372715e-01
-2.388895010905607852e-01
8.575243845621836891e-02
4.231684277891041845e-01
-4.109319410646257720e-01
-3.961444851219078633e-01
9.471881965886370935e-02
-2.541029705169166042e-01
3.211249117765554995e-01
6.918379308879053780e-02
2.014391341591081075e-01
-3.128757517147477407e-01
-3.942439289031218763e-01
1.832613984872012991e-01
-1.107746510076840045e-02
-3.929332477282461156e-01
-8.065203064556734913e-02
2.324404597937028971e-01
-3.108900763507267406e-01
4.168071916755813344e-01
4.790704993796512379e-01
4.418565820655748211e-01
2.249311344356161035e-01
-6.676607342410448287e-02
2.333670956843823252e-01
-1.971126216031705292e-01
-1.492501262126491035e-01
1.055648142774360115e-01
1.230085964410513738e-01
3.904081396614029198e-01
-2.626086897419065980e-01
2.586280683174689288e-01
4.427133570545047081e-01
-5.218000226558899834e-01
-3.371293133272494635e-02
1.394825850898735731e-01
3.125305174948960207e-01
-3.407702846563999133e-01
3.552507967873788086e-01
-1.396251654744158355e-01
3.793432183312586137e-01
-4.471606506518803759e-01
-3.922530368277604707e-01
4.911585636400839783e-01
1.299148890297004699e-01
-7.694032511497374272e-02
-3.158122753597501498e-01
1.663596915888529426e-01
-4.701355207987025775e-01
-1.921213288015453380e-01
-1.640235942423168558e-01
9.360218033298672857e-02
1.240097308768564749e-01
3.421179689137300861e-01
4.018270119731399692e-01
1.066127129762197145e-01
6.848011448927213141e-02
-1.338479885326441243e-01
4.087408563326199173e-01
-3.515784239577723902e-01
3.557935603840508554e-01
-2.397698433709824217e-01
7.146755317173816846e-02
1.653043842023737275e-01
-2.882271778289965947e-01
-2.810126354918227598e-01
1.721478091052120254e-02
2.924400797674786001e-01
2.259245380321871499e-01
-3.806161067103691620e-01
4.087531798937665828e-01
-3.300358169614038550e-02
4.033517921910572124e-01
2.499362186480856562e-02
-4.321546736648821940e-01
-3.227816213367562526e-01
3.424274606518185049e-01
2.006194067924998437e-01
3.918757106339341711e-01
-1.558932148232311798e-01
2.597438898246821545e-02
1.576480718857003471e-01
1.307367162259638060e-01
-2.620034548964778609e-01
-5.509199720718658405e-02
-2.085101414232927164e-01
3.589326024108855928e-01
5.144924657502448762e-01
-3.729300626629918347e-01
2.293579428372925499e-01
-1.435853535568730466e-01
1.889716405678289746e-01
-2.376811395628370682e-01
1.631995224411052769e-01
-7.898708692299641343e-02
-2.273130644489687324e-01
3.996122865709247352e-01
4.584122988804050780e-01
1.018128277406876031e-01
-2.887289383209221127e-01
4.621063434065413311e-01
2.521693689169222652e-01
2.547625898952815549e-01
-2.607790408841078600e-01
3.338270123456969496e-01
-2.566307913362231297e-01
1.572786081346395359e-01
1.982978876961704051e-01
2.296674054736143333e-01
-1.042088790591690212e-01
2.392437677862541134e-01
3.961725436881011198e-01
8.831679549606984148e-02
-4.354649452959866163e-01
-3.869295777117524593e-01
-4.029473875627446189e-01
-3.536873229108197791e-01
-4.000615107670258408e-01
2.442378066251436886e-01
-4.824298720880271230e-01
-2.898016683006156002e-01
3.361663215437471486e-01
4.605677175467931539e-01
8.146624404953166365e-02
4.414870005162308542e-01
-4.680533714244535237e-01
4.245932616176083529e-01
-2.151949889414228323e-01
2.676757108596702350e-01
2.692870047773528452e-01
3.199353966992886100e-01
-6.389838549237548959e-02
3.913540932506477943e-01
-2.845882278761640571e-01
4.259905668673987789e-01
9.033405717572073890e-02
4.511185219699531124e-01
-4.574043926258506421e-01
2.121571074987625982e-01
4.434766628876490868e-02
2.912664537598416443e-03
-2.418140400415019764e-01
-1.795088205053220476e-01
-2.469110645538559745e-01
-2.916538077701452680e-01
3.011387486893292165e-01
-7.637279741992624750e-03
-4.396364001148834189e-01
2.742162788512237381e-01
3.285529017931562018e-02
2.266157139627420214e-01
3.091649255369178714e-02
-8.434707286303209928e-02
4.916513812837108865e-01
-4.339013613713929574e-01
4.689868906185434838e-01
4.512739167257529549e-01
-5.889156271364670570e-02
-2.564254381382353176e-01
1.367765565534761751e-01
-2.786193103077563293e-01
2.656526175249674382e-01
-3.046687495089062114e-01
-2.281893970697883578e-01
3.681041060377736596e-01
3.315451726253543785e-01
-2.192803216660460519e-03
3.388085087772108039e-01
-2.076591207504811520e-01
4.779730870072597670e-01
-8.311262771467980981e-02
-2.622703200193709505e-01
-4.702839396936782101e-01
4.884366306821677495e-01
-8.131703416488886282e-02
2.256159897009642756e-01
1.525854949848712838e-01
1.880257676755936469e-01
-4.454797315920411283e-01
4.174848635059654200e-01
3.893529800776462380e-01
5.523988342805205565e-02
4.700073861092207705e-01
-2.490110106349026353e-01
1.044489431343007813e-01
-7.113707629957534417e-02
1.196204424471501576e-01
-1.796471516088160303e-01
3.553026667796991833e-01
-4.366233069146860934e-01
-4.374514912754638996e-01
-4.205610675298549483e-01
-3.649662463303479654e-01
-8.901765057132317305e-02
4.793714626386168520e-01
-4.059835095767901914e-01
1.721518935294305830e-01
5.058176697368998997e-02
-1.664126880084353943e-01
-2.789625926243537446e-01
-2.299640482409829600e-01
-4.577814992581070164e-01
2.446643979369293176e-01
2.286715689588883771e-01
-4.110481772074945500e-02
2.749297394911522363e-01
-3.045402017986640342e-01
4.682444280501324441e-01
4.151600871215196942e-01
2.047507152349203607e-01
-1.323573933968862915e-01
-5.914280467190825841e-02
-6.156093273611111267e-05
4.096534444356285665e-01
3.609877358838718964e-01
-8.520795090982122288e-03
4.147265083075082903e-02
3.862597085190930812e-01
4.714132058726432928e-01
1.357796884496536849e-01
2.773797682557272437e-01
-1.385602545786060458e-01
4.094493257854966428e-01
3.522204324400963760e-01
6.122554210828520110e-02
3.584476968035922306e-01
3.616863192790956139e-01
3.037571737957101004e-01
-3.820397846943643372e-01
3.346724603847284207e-02
3.917814555131521326e-01
2.657796460960538676e-01
-9.524007504181208894e-02
4.730607262403481728e-01
-2.517831715401377402e-01
-1.855435150583356341e-01
4.761038341305506849e-01
3.197491235532263221e-01
4.135837161921131488e-01
-4.598355860290715968e-01
-1.098247715780393263e-01
-2.561910791005903576e-01
-1.647340177499218572e-01
2.522010599451924295e-01
2.162488891383173018e-01
-7.166135776028771318e-03
-1.323105015236060999e-01
5.113119373064173995e-02
7.233582700795117282e-02
6.206007934347296251e-02
9.749057484482637204e-02
-6.268191408386622476e-02
2.894322401216548046e-01
-2.486653679017309937e-01
2.135577229266916732e-01
4.896315374688365862e-01
-4.811608580124134837e-01
2.844319512750435042e-01
-3.574683651554674824e-01
6.719913048995442006e-02
1.668520305763436795e-01
-2.342617022139523997e-01
4.432841819517724935e-01
1.289706660557359552e-01
-2.765144732331268340e-01
2.797765643050018070e-01
-4.036446658634641471e-01
3.911826816282521629e-02
-4.054352737209759860e-01
8.692858476879149199e-02
-2.405007343652446616e-01
1.740520696563937209e-01
2.280321680234096982e-01
4.916008920691310180e-02
2.088330383885974861e-01
3.330717991338357220e-01
3.546242482803965701e-01
1.874898103398792981e-01
-2.581152658635103153e-02
-4.567136689001597555e-02
4.525450351519086922e-01
2.219448459340032653e-01
-2.763709694900907121e-01
1.431948403707042072e-01
4.303033354826616974e-01
-3.176694682085732246e-01
4.159115770971154036e-01
3.098769720695869756e-01
1.140605086844176646e-03
-4.245755679174323394e-01
-3.584444368192433727e-01
4.293749887082152772e-01
-4.176077298707019936e-01
-1.155033279602968171e-01
1.344839101103703360e-01
-2.572110959972744304e-01
5.033030579153652262e-01
-3.156307679923641141e-01
9.237228455059566523e-02
1.280263425391969523e-01
-2.492691156870437685e-01
-2.051784829217169178e-04
-2.656625460821594731e-02
2.657672897848306626e-01
1.379433500898719911e-01
-6.451611733867654297e-02
1.482850985369738861e-01
-6.853810310232635872e-02
1.756596719641497287e-02
1.497439536115285352e-01
-3.483297524951342039e-01
2.787015731657367379e-01
8.518703908443048256e-02
4.387005660578428556e-01
-2.972593463602962172e-01
-6.289320190488049966e-02
3.446767981126929170e-01
8.730824008280857473e-02
2.026853723388293838e-01
-1.231390048839276358e-01
1.482988693599345820e-01
4.045224675641012069e-01
-3.437486825120248390e-01
2.706065592878852955e-01
4.258896334999661692e-01
-5.386504321806265816e-01
-3.046781578702960069e-01
-4.144170315878728528e-01
2.200035000135626972e-01
-4.276854871429797145e-01
4.759283584636083697e-01
-1.440632111289022188e-01
4.113723492365254364e-01
-3.220991975829558540e-01
-7.005183502576931009e-02
3.536245804574270624e-01
8.375781592674845510e-02
-3.799763200644273170e-02
8.436144603219846924e-03
4.446138346658026069e-02
-5.925637713735474460e-02
-2.988702700770147769e-01
-4.018501340756099327e-01
-3.315404074189805539e-01
-4.362992199492580214e-01
5.540418580680588068e-02
3.772431359637092863e-01
-1.058312542645969828e-01
-4.124007162974854812e-01
-3.483251606507564019e-02
1.393933506618498797e-01
-5.961709062356045780e-02
3.567616114909040737e-01
4.055862146700539572e-01
3.169797603666518748e-01
1.865798697049235177e-01
-7.421038285540017265e-02
1.110396432403047279e-01
-5.174787940640910300e-01
4.573655262448407810e-01
-3.907061785352881067e-01
3.951561054506340653e-01
2.967994462011248058e-01
2.513836556207269535e-01
-2.279715051805631110e-01
-2.864258892719150906e-01
-1.197439946062888033e-01
3.427191123791697436e-01
-6.517011339331338360e-02
3.732201426134135747e-01
-1.649198831471744842e-01
7.928159228015374538e-02
4.065093602629670788e-01
1.181736735810589578e-01
-4.845459245152594630e-01
-9.695872544116192204e-02
-1.874214334227054246e-01
3.850174570727626921e-02
-2.445211860642447221e-01
-3.739992122490077842e-01
1.883834090648689730e-01
1.590202370346736893e-01
3.773165510301598746e-01
-3.463315413357960226e-01
2.706900874461437567e-01
3.331535383460056399e-01
1.728964374849343288e-01
-3.144348031387807496e-01
-2.156513111383467907e-01
-6.156765474309726371e-02
1.058651942590351988e-02
-6.927003156049215370e-03
-2.342042097389858066e-02
3.002075018718329824e-01
3.683589017871994331e-01
3.463652473979887403e-01
3.652293686642169024e-01
9.298075593572066588e-02
5.052323631277382265e-01
1.094671264946725092e-01
1.374858838734272781e-01
-1.599456465576311881e-01
1.663854877532417731e-01
-4.346013447824395581e-01
-3.582667878981596887e-01
-3.916099017886087164e-01
1.553541022426571938e-01
-3.149315502225589758e-01
-1.665771955751114697e-01
-4.369226556223097524e-01
-2.495119338123695796e-01
4.598831725834445772e-01
3.566108981348399543e-02
-3.396257278408367775e-01
1.739991603612527776e-02
4.682303556703711345e-01
3.688687185409175728e-01
-1.156447098845011651e-01
-1.979833904192332961e-01
2.535252963404964754e-01
-2.695884804028820247e-01
-2.407483891050420099e-01
-4.331140773355769968e-01
3.526214479407864810e-01
-6.779534891171241917e-02
4.862661953504967410e-02
2.210389023682266807e-01
2.674689078199457559e-01
-3.418119352585700238e-02
-3.161779812884068508e-01
3.265718989934628946e-01
-4.294746734347694161e-01
4.726479476103384592e-01
9.640169996405373309e-02
4.416904624229956444e-01
1.523448161437364612e-01
-2.311779978085770348e-01
-1.357766271995088647e-01
7.268269130521817778e-02
4.741809361844183113e-01
-2.704050513015502366e-01
2.909411630936980034e-02
-1.573259412754128284e-01
3.178171534448779867e-01
3.232845308367504056e-01
-7.617830659675971228e-02
-2.392624673352570508e-01
-4.079226785126970345e-01
-2.866616291357386159e-01
-1.714385114400278909e-01
1.342639200186396820e-01
4.108990421924076375e-01
-3.287305727776306252e-01
4.855628426054264257e-01
2.115079583214134196e-01
2.508968231581209518e-01
4.869221829784451949e-01
-7.068099861953866525e-02
4.040220616293101197e-02
1.943527002666196324e-01
5.067990416437695433e-02
-1.945589296864320694e-01
-3.750499823573438807e-01
-1.653824416856625734e-01
2.694356802611104218e-01
1.616229355964492187e-01
3.532718378726911745e-01
4.210605757454075754e-02
-2.158082366528248641e-01
2.138837731521320285e-01
-1.803285135817548623e-01
-4.380344351267457803e-01
4.791248116711117611e-01
-7.204882644183055462e-02
-4.962872613729026744e-02
3.031940459509407382e-01
4.611457796427457789e-01
-4.003994060523510812e-01
-2.704602153204240245e-01
-1.938396968536500731e-01
-2.518156137138302664e-01
2.442573702633280691e-02
3.059189810047761582e-01
3.430551683273710961e-01
1.219865119593464553e-01
-2.480258909371080289e-01
-3.049550806949311577e-01
2.857073186411787091e-01
-2.438304342886014331e-01
6.156745773754858375e-02
2.944907145958581274e-01
-2.554395580862244275e-01
-3.022107314693144864e-01
-4.252818043696673933e-01
-3.588435569628656285e-01
3.551251444588782169e-01
-3.836254712234327680e-01
-2.903296921292652377e-01
-4.612416921610149600e-01
1.654415331165558223e-01
-2.743723514458430435e-01
-9.360227650750552186e-02
-3.963830284129619685e-01
-1.448020149109221222e-01
-1.083472527856051831e-01
-9.131675303061458082e-02
-1.018404657395930724e-01
-4.317688409051075316e-01
2.075809920904429229e-01
-3.732490633203952024e-01
-1.012186076024237102e-01
-2.736702252916262679e-01
-2.267706542879539267e-01
1.345174443339641202e-01
-3.517191088382806696e-02
-3.364438342207297650e-01
-7.079686641972510186e-02
-2.154922147377882902e-01
2.009606512313540372e-01
-2.931686811646420643e-01
3.054515187593906389e-01
1.933173661933928686e-02
-2.091987466318139671e-02
-2.818762234820837431e-01
-3.190430439717594768e-01
-5.252018807496774272e-02
4.558589518201204838e-01
-3.732012816287987866e-01
-2.472740583359902267e-01
2.867822732792929541e-01
1.491701615988517693e-01
-2.676512973327431211e-01
-1.943462415007493338e-01
-8.026860949193162509e-02
7.314025760470665993e-02
2.189371700548342625e-01
3.696162783580070887e-01
1.727899909900290631e-01
-2.425713086342060343e-01
4.581265731361122140e-01
2.858111862678119897e-01
-1.615160564790319442e-01
-1.572598061769290012e-01
3.922829818055165729e-01
-3.282789212589969918e-01
1.128318308033816331e-01
-2.515810393229939157e-01
3.226711999130839614e-01
-1.589994359855362860e-01
1.929540886081922701e-01
-3.152575980296440927e-01
-3.424312042804945888e-02
2.572367847257025497e-01
-1.026472974393076859e-01
-3.495346914824050688e-01
1.013457292544836658e-01
2.538480560103912320e-01
-2.324233375276956726e-01
-1.047593264277239256e-01
3.824519752687561835e-01
3.534546147583831899e-01
1.409368623920668473e-01
6.150733102303023586e-02
2.818076628963769870e-01
3.330747484288034688e-01
-5.326722126044901584e-01
-1.371647953330126513e-01
3.209798133746184085e-03
2.054358032767045483e-01
-4.076310804440675395e-01
-1.213801664901535127e-01
-2.132987461369034998e-01
-6.280079147264151784e-02
-2.498941241921856515e-02
1.641190009193842503e-01
1.901050599684786253e-03
8.725929357402215092e-02
7.838648985632679089e-02
-7.566059899961774526e-02
-5.329082745832497414e-01
-2.987464346469798637e-01
-1.756257179812876490e-01
-3.784453086557242329e-01
1.209951020156325996e-01
1.094188442852539328e-01
-3.158665682039075301e-02
-1.693213375620084282e-01
1.613547917770733198e-01
-3.279840149651066517e-01
-4.710223659725200074e-01
2.429782183618623415e-01
-7.596074591068981141e-02
2.204058077448851072e-01
-3.212365242137314447e-01
-4.670275394755037390e-01
-1.348419958272530361e-01
1.936409182127525053e-01
-4.231869542203529067e-01
-3.263945599523525032e-01
-3.053653202757108595e-02
1.189919825291565203e-01
2.615099868527234750e-01
-3.604604734160276602e-01
1.358105407480008353e-01
-7.807919456564721417e-02
1.985003193794304122e-01
-2.855075275915610611e-01
6.267813634910100740e-02
-3.189306672282459787e-01
-4.880043567428674622e-01
4.087655600859841851e-03
-3.278932848572368997e-01
1.236025962315046300e-01
3.770812142097299674e-02
2.636297283137742364e-01
-1.146843496502688020e-01
4.890318765250821209e-01
1.923164280904910567e-02
-2.092399753878453408e-02
2.417418099096954598e-01
1.103787421228784454e-01
-1.150944771947056966e-01
2.352176509546769888e-03
-2.480174919854347404e-01
-5.631303145741438365e-02
-4.324456354855404916e-01
5.334031607074064124e-02
-1.582684231628733174e-01
6.174218963806812899e-02
-3.979392541424736640e-01
9.701268016760956903e-02
-1.917296377025632381e-01
1.159169890618174242e-01
2.444722693615745124e-01
-6.658718431635375634e-02
2.080142892477490901e-01
-2.432798427422882548e-01
4.992141139468866951e-01
-2.052404822768366666e-01
4.680003074114280626e-01
-2.604976600399901421e-01
4.490720995320103548e-02
3.523593052604913067e-01
2.577847931765009371e-01
2.423289477258578350e-01
-4.038243902868414448e-02
2.807419323542058587e-01
4.295002141005554996e-01
-4.239617952552521274e-02
5.462200977307959254e-02
-4.283061637131185262e-01
-7.520405313170337724e-02
1.500522603593681427e-02
3.869814914062252864e-01
-3.614857537303695634e-01
2.851686691428245712e-01
3.058925074644574735e-02
1.231059875359835770e-01
-4.238132457461540881e-01
-3.651996377556417928e-01
-1.984259268192482550e-01
-4.458258331547443887e-01
1.694725064563784578e-01
3.827256298971619675e-01
1.003676306839171445e-01
3.407802874599342308e-02
1.197459759691490572e-01
-1.587951138445437005e-01
-1.510134441674614858e-01
7.193470016807125555e-02
3.361839121338486835e-01
-3.449350756812246677e-01
-1.996318050181509762e-01
2.390501607389353966e-01
-1.992775921170603648e-01
-4.799831415291574976e-01
-3.499694814003181942e-01
-3.136622684105490055e-01
-5.391993000223900198e-03
1.552165279724707636e-01
3.776689033956887598e-01
4.100048132888213792e-01
-1.692454115195498043e-01
2.452958231819367119e-01
-2.192625880518640213e-01
-1.252508066293789579e-01
-2.229794803470598885e-01
-1.010837483903231221e-01
-2.920396938333852388e-01
-1.988272680752933841e-01
-3.919782075395732979e-01
4.411112617315582352e-01
-8.587709289841287050e-03
3.966319610040108801e-01
1.973102163761173422e-01
-5.306369936182651903e-02
2.243366053628693402e-01
7.153156007809431671e-02
-2.039298226758513022e-01
-8.143085860487147892e-04
1.604633937997921311e-01
-1.947661887453785989e-01
-5.034736436953008987e-01
-2.712605514886013980e-01
2.917486329892187702e-01
4.125618971211690300e-01
8.315779708394191450e-02
-3.771716633036808486e-01
2.272583029670100230e-01
-2.132456820884440912e-02
2.426195076333824696e-01
3.250010494518647541e-01
3.973090021910023473e-01
1.518662241689407721e-01
3.321523360097557442e-01
2.121673140355442300e-01
2.250138414882818239e-01
3.371047978109101284e-01
3.977001112207692590e-01
4.007293868964820760e-01
-1.272363794502286150e-01
-4.238225688522050394e-01
3.189378997066461552e-01
-2.680370724174733696e-03
4.429251956678267876e-02
3.318318615033379326e-01
-4.960204395359817942e-01
3.846890742210818392e-01
-4.421487659681565541e-01
1.843913573261758698e-01
1.118529487700785641e-01
1.773612960455023813e-01
-1.268272389398973077e-01
-1.907470064879044358e-01
5.038819380955798094e-02
3.899381251249795510e-01
1.100646392106705979e-01
1.459351499041511013e-01
-8.691714874952459480e-02
4.629475001156720948e-01
2.219332681303200772e-01
-1.842133025452069028e-01
1.402829950448663543e-01
2.084416981610219197e-02
3.346528360337462926e-01
-2.305907239462769709e-01
-4.196787005160415585e-01
-3.656425329227587229e-01
-1.212099565607254598e-01
3.313633122046297230e-01
-2.877136008058031047e-01
1.175707275661060924e-01
1.120668370722468776e-01
-1.494707463321898744e-01
-4.668084671950874509e-01
2.298425931945831946e-01
-2.618145918226648661e-01
-1.299272216773381117e-01
-1.432532716551738194e-01
1.166587173202614791e-01
-4.355360875981831859e-01
5.058615251160784171e-02
-5.016728430129183680e-01
4.951702658249925171e-01
8.689873826848582006e-02
-1.415208916303581921e-01
-3.498510024434424159e-01
1.794816653847858545e-01
3.713033430493252740e-01
-1.784719502043496109e-01
2.629514837490984358e-01
-2.354293700734171602e-01
4.799727338383529274e-01
2.095242030472952710e-01
1.152165356290335563e-01
4.577183984430032715e-01
-2.178229596719138961e-01
4.175083566619908759e-01
2.032310261405817498e-01
2.841512431180853726e-01
6.053720739130462325e-02
3.576936278078969855e-01
2.088014977510441184e-01
-3.665316555463646875e-01
1.296840124695474439e-01
-2.382265918788045445e-01
3.823799863851610192e-01
-3.136763821440275435e-01
-2.258138878339486511e-01
-4.825869511128180189e-01
-8.134642742008273142e-02
7.043643442811445277e-02
7.385014622210604729e-02
4.140890986303413790e-01
-1.133444901008465733e-01
-2.499064931130392381e-02
4.028849866457481776e-01
1.105260967070721134e-01
1.741576205056147020e-01
-1.798587516302313505e-01
1.655317191471535748e-02
1.299519846796781952e-01
-3.309814417468024961e-01
-4.500256860179420171e-01
-3.837272414843881929e-01
4.282408558133029945e-03
-4.555167155797598677e-01
1.405347226079178002e-01
-3.770726958749307522e-01
-2.253288203227921116e-01
-6.469973213277789570e-02
-3.717074101410672848e-01
-1.662044487592628239e-01
-4.346135988321322419e-01
5.223990918057612731e-01
2.025939137563119441e-01
-4.636684473462492767e-02
-4.150680510699661374e-01
3.867176639709756468e-03
3.839918959053782721e-02
4.942363901525758663e-01
-1.558654252003417173e-01
1.533673148322956259e-01
1.831519630988045766e-01
-2.741621238976852393e-01
1.398125881397518921e-02
2.856116770033991781e-01
-3.446477633601577883e-01
1.375467458489251782e-01
-4.383697079110725481e-01
-4.440479206211825902e-01
-4.090435961209031301e-01
2.669043117445809091e-02
4.819997499028117471e-01
-4.993290813640038905e-02
-3.703061167232981621e-01
4.148087509324094868e-01
5.740968772735270675e-02
-1.340343923246766211e-01
4.962869170168023869e-01
4.846304391623796337e-01
-1.843809234992093982e-01
-2.731421939202516302e-01
1.461490288236652613e-01
4.060119698225132523e-01
-1.617501118423333994e-01
1.257220279876704594e-01
-2.807753546901763930e-01
-3.118838171879377841e-01
2.796917553004601986e-01
-3.016184082344243733e-01
-2.470807823891916777e-01
2.041737440292998029e-01
-4.409738057704417069e-01
-4.798236142682476002e-01
-2.057622196061474895e-01
-1.203079951249930307e-01
-1.516380785293016120e-01
3.072384281910722215e-01
-4.233960471033133555e-01
-1.620388783874734673e-01
1.317653452972919192e-01
-3.311118903225441779e-01
3.072355460714070174e-01
1.200410337041683817e-01
-3.911021632168957818e-01
-3.362766330832050454e-01
2.200189387507750227e-01
-1.114999440612489678e-01
-3.751719913409067020e-02
3.810533475793815295e-01
-3.572945947751334228e-01
4.445458217071819873e-01
-4.613094837189453679e-01
-4.007755496753968583e-01
-2.811744307556872657e-01
3.077025162183293916e-01
-3.615019331390321305e-02
1.320294356618961773e-01
-3.535891126534806972e-01
-3.539859051806214518e-01
4.903803448321571688e-03
2.095849582703332714e-01
-7.252443080320385149e-02
3.673078734670694456e-01
1.364185313989066117e-01
-2.986597539651534294e-01
-2.608520451442144505e-01
-1.393369929720404687e-01
2.075045372739829641e-01
4.425076273470237020e-01
3.496924722277185427e-01
-2.846279800489402434e-01
-8.270226956770153348e-02
9.827002232202615428e-02
1.070575959989376706e-02
-1.125085635536085954e-01
-4.201119994711122740e-01
1.678903477516219822e-01
-4.200705998199757429e-01
3.316589496847562324e-01
3.007067223599522166e-01
1.853122275070482883e-01
-6.949598531918935174e-02
1.278557515758783070e-01
-1.193972518513075898e-01
2.537320107347477149e-01
2.412683534145694531e-01
-3.356619059361077295e-01
-2.006331520203882557e-01
-1.765130632871691474e-01
-1.126337250535377754e-01
6.318239503261252610e-02
-4.470463291924808291e-01
1.651403889026716587e-01
-3.229476231130188890e-01
-6.861608170957837760e-02
-5.126668045397094614e-02
-1.831937231707184699e-01
-1.137554014410421255e-01
-3.068418144835756145e-01
-4.524298292512342612e-01
6.145850259916023350e-02
1.245209937629707109e-01
-3.608841155728892969e-01
-2.494405893173658184e-01
-1.919189004306713353e-01
3.254309950511119487e-01
-3.173716602287244837e-01
3.801858656123376784e-02
4.839393857014527567e-02
-1.574971071771761322e-01
-1.538244204608195387e-01
4.386918471486829785e-01
5.230799980672225930e-02
1.439815479948281518e-01
-4.475389613466233124e-02
1.415691473759577435e-01
8.240020712503835776e-02
-4.141394156625181622e-01
-1.817921058384492916e-01
-5.890264521299154454e-02
-4.330480256954502560e-01
-1.515486708111539460e-01
-2.955053532623594381e-01
2.817838343123357792e-01
-1.918019435098961001e-01
-2.935583344015684770e-01
-1.500855368140149859e-01
1.457653027936778589e-01
-4.372729731166606904e-01
-3.584364092574475746e-01
1.764034726468251546e-01
2.721632224881905260e-01
1.009764444105757386e-01
3.844864767922093196e-01
-3.347307292096975417e-01
1.677233066807839179e-01
4.138170848004055768e-01
-3.481838234630781903e-01
-2.827755330647320209e-01
5.642383957213413515e-02
-1.348772871507758486e-01
1.929458551287016044e-01
-4.053092621793422667e-01
-3.235413759332667616e-01
2.212516686005092659e-01
5.066831801636993982e-01
4.372959654433031251e-01
3.987247169556242810e-01
-3.456141176092513700e-01
-3.488192842555032924e-01
-4.368760956006355611e-01
5.855457987220274996e-02
3.879841795765548440e-01
2.477570244660257451e-02
2.928413663129975086e-01
-3.286762168851206645e-01
3.363350098607761907e-01
-3.170013069850672327e-01
-4.665022536255655772e-01
-1.062256495946433260e-01
3.424859497079585369e-02
4.560416205292809333e-01
-4.281316059863858881e-01
-2.461416483222641782e-01
-3.968657988821155946e-01
-1.194422805170703566e-01
-2.083300218738408371e-01
2.768736046418915700e-02
-1.513958157307362662e-01
4.411652777064162811e-01
3.259942420870631241e-01
3.861535112270189640e-01
-3.303447451968560267e-01
1.181419781146334363e-01
-2.413385331414372448e-01
4.124318291652784296e-01
-4.433772436226515179e-01
-3.528379179472753147e-01
-9.032399002618909933e-02
-6.963170114578318137e-02
-2.040398543756574701e-01
-3.811499021776363350e-01
-3.418606901942879972e-01
-1.549705353239058392e-01
4.723585904364370758e-01
-2.177720048050581503e-01
3.050943256018097127e-01
-2.004495336943361572e-01
-3.787746112696754319e-01
-4.190077210540357200e-01
-2.941171127741178948e-01
1.382355660372754438e-02
2.965604945824161232e-01
2.679138286077525910e-01
-1.035062969156596985e-01
3.843415170140597990e-03
3.480434770587785276e-01
3.798558814943343021e-01
-1.601239753758978424e-01
-4.574960684364337005e-01
-4.279471991974977407e-01
2.448130052523660449e-01
-2.009400245686356890e-01
3.610252852673401930e-02
-2.748395758127736843e-01
3.965430797576933730e-01
5.162156834795819660e-02
5.557769743000386814e-02
-1.667419227291470074e-01
3.463617213146613638e-02
-4.695780258590421252e-01
-1.829494906672345100e-01
-1.526078046161648272e-01
-1.976910788854714940e-01
-3.864929661065485411e-01
6.909094054295206525e-03
3.053333699939538848e-01
4.696967928451337704e-01
1.177510433331319415e-04
1.205905865269183974e-01
-1.529799228747270312e-01
-3.462779813755915148e-01
-3.333695233917858269e-01
3.011490481817032383e-01
2.356797075619372350e-01
-2.887971333301755372e-01
-2.511531251141198642e-02
9.285771918123057744e-02
-3.484581245926787751e-01
3.447639472166746932e-01
1.098497431844200761e-01
1.242062497821205258e-01
2.399371461991731125e-01
4.635812678835087297e-01
6.563500399764209126e-02
3.881939790358024944e-01
-1.211345977788054890e-01
1.374636677597420586e-01
4.229125221593454942e-01
1.292515356347526956e-01
-2.206064975445948539e-01
1.092648725783182256e-01
-1.610946384179580693e-01
-1.845561438628252615e-01
1.159780860990364676e-01
-3.367077186070688288e-01
-1.198962370670157880e-02
4.590889509645300626e-01
-1.374144793026889910e-01
-3.305058280390711922e-01
-4.804178483419001278e-02
3.193500761228302842e-01
3.141957887145225836e-01
2.907745868916453147e-01
-4.982067080239742651e-01
-2.541236787723891166e-01
4.520300726693779469e-01
-3.636810234255063445e-01
-7.460495541153442517e-04
2.604316302255409443e-01
-3.597348058757004474e-01
1.671499840135159398e-01
-4.439194347162193910e-02
-2.871716733200889715e-01
3.788544849595280040e-01
-3.409233335441958501e-01
1.550653583537865421e-01
2.350313043010514302e-01
4.132972011484854075e-02
1.288999942112089292e-01
-4.020282290190295704e-01
-2.320186625390816548e-01
7.671471675032184856e-02
-1.376578681455356556e-01
1.141520726116105472e-01
3.195361108492976165e-01
-3.647242783112871756e-01
3.470565546479964514e-01
-1.156096893038450063e-01
4.230566322639738863e-01
1.000757965217060480e-01
3.113888643120601984e-01
2.007249225785952013e-03
4.234002303147849783e-02
-1.679972123520134808e-01
-3.997974690054503233e-01
-1.079536297902806002e-01
-2.839188624546731265e-01
-4.920607968966968504e-01
-2.262077721931140262e-01
-3.082645496629044524e-01
3.514661921076887574e-01
-4.133307271810301997e-01
-2.837720988130360555e-01
2.035862035000448045e-01
4.385765336032086403e-01
-2.235005980094632305e-01
-4.794515697679824773e-01
4.787824527293373933e-01
1.635992187140851428e-01
-2.171596990238240377e-01
-3.430315167500253004e-02
8.559250426402545409e-02
-1.568522657375475970e-01
3.678129187290493096e-01
2.278511239939877975e-01
4.267282440203817306e-01
-1.570808696862599496e-01
4.413024925596649717e-01
-5.438165775506234589e-02
1.352760363445279779e-01
2.305847254617855446e-01
2.578514881621037924e-01
-1.170706806778372411e-01
-6.341170681690534716e-02
2.622816870718877591e-01
1.843076082312017638e-01
4.447681003805670774e-01
4.424616980233026520e-01
-3.461056424571275492e-01
-2.337135036155401913e-01
2.135059115471158175e-01
2.615560006391962067e-01
1.525794630834767518e-01
3.828156383443266364e-01
-2.218669201620209752e-01
-1.487157207206399323e-01
-3.257683859927904685e-02
-1.794631479935806795e-01
5.295465928228225427e-02
1.501201162635776298e-01
-2.734765110010871636e-01
4.303494052614493214e-03
4.925701504769093853e-01
-1.458346743519386424e-01
-4.459823169226976303e-01
3.293429149390879052e-01
4.598432363611776319e-02
-4.345271156749016539e-01
3.970768751632077764e-01
-6.406688051671945161e-02
4.339107560061951641e-01
-1.056587821286713164e-01
-4.046363904066456740e-01
-2.371860112980513635e-01
-1.539940463789312708e-01
2.741695812865609372e-01
-2.977583013633052222e-01
-6.710508590094627079e-02
4.039297376651131422e-01
4.595169788768359992e-02
-3.931007124433745781e-01
-4.541122996441095405e-01
2.035049043206759167e-01
4.731186579953491345e-01
2.873769702637697376e-01
2.580624349475675872e-01
1.544539184723812408e-01
2.915872330432127679e-01
-4.533092441798602934e-01
-2.432979001570743371e-01
2.036306425853328939e-01
4.039475532025955107e-01
2.038395195408162497e-01
-2.818054210708971219e-01
4.742886336161561411e-01
4.462052579368257499e-01
-3.715416525102193113e-01
-2.898912762070090521e-01
-2.083538352753722955e-01
2.486337976667907512e-01
3.686000828764198767e-01
7.464595230632763145e-02
-3.046445298049033079e-01
-5.594943774740274156e-02
-3.419787212017963429e-01
4.281002634705084464e-01
3.272071677395813061e-01
6.483155485664209017e-02
1.766399355093488778e-03
-3.401313223388042761e-01
-1.305300833159519502e-01
-3.285101966840856536e-01
3.189985616409203306e-01
7.658075659976412708e-02
-2.344357482125872805e-01
-2.677055284935400126e-01
-2.446928994817712810e-01
-1.859213835533322090e-01
-1.052655666317327959e-01
-2.143259266880077896e-01
1.833850602345001579e-01
-4.571795843344484411e-01
-1.892588902840192100e-01
2.486757423196901962e-01
4.797624968949691926e-01
3.018848164862356076e-01
-2.325280348213307202e-01
-2.561823446953236938e-01
-3.305675335388374436e-01
3.963335807577169634e-01
-2.645608751298425543e-01
2.517049618169711622e-01
-2.299410720167970046e-01
-4.686203369144147368e-01
2.323093397456527931e-01
2.310790581072364180e-01
-4.139632917116972677e-01
-1.672102663074787054e-01
4.557712576312255015e-01
-3.121336720468121384e-01
-3.748288096288873161e-01
1.472455130832939774e-01
4.477355960173378668e-01
-3.193989367537452551e-01
7.630490516330631912e-02
1.851741795903625309e-01
-2.908379825403965002e-01
-4.416179314448581694e-01
4.000069027275884870e-01
-4.190113575428691117e-01
-1.869599262940464524e-01
1.551755007785536045e-01
-1.898267423624622474e-01
-4.437401056248675424e-01
6.522715676847085087e-02
-1.857875140267066516e-01
-3.127120513985428563e-01
4.597993372545152169e-01
-3.286483644850805574e-01
2.548212111979301087e-01
3.855612459412536830e-01
3.579320358589255235e-01
-3.018225294367678502e-01
-2.535470901103704655e-01
-4.693796596128809173e-01
4.571094544822802419e-01
3.964343482815388953e-01
1.052078948332759167e-01
-3.714189454421125691e-01
-3.439082145961913639e-01
7.131981883026178304e-02
-2.517804042767916028e-01
-2.147083837737520373e-01
-3.451153896052270853e-01
-3.216794982288582183e-01
-3.135919361815030226e-02
3.318207714365413279e-03
-6.861838768664947977e-03
5.123922969700708263e-01
-3.594388689809644988e-01
2.414845458930859334e-01
3.069269999006247196e-01
9.294360486557291801e-02
-6.005521075161747435e-02
4.110507627917253104e-01
3.323362311826835169e-01
-4.612131910270791391e-01
4.756956019441950789e-01
-4.978527550221518716e-01
6.608461498789774957e-02
7.732703585472811003e-02
3.185378579348087102e-01
-1.369598030355155815e-01
-4.161460380389508940e-01
5.555487438046439325e-02
-5.112181681077995199e-01
-1.666538154206798628e-01
4.434838540086100678e-01
3.297980051337938145e-01
-3.646268304781362102e-01
2.664882444001043238e-01
2.898192621546091252e-01
4.351768069977642317e-01
-2.993928258411754917e-01
7.663274314467799324e-03
3.198621095897017930e-01
1.249624709847723947e-01
9.505404484249893593e-02
1.536507050051940659e-01
-2.896559859852234076e-01
-4.744634657397625577e-01
2.531121567905639802e-01
-1.939708551961306926e-01
-1.130071019224358070e-01
1.511197733341680949e-01
1.653874755999490687e-01
-2.715401398308097125e-01
3.769557217041124564e-01
-9.709927677376931077e-02
1.684561085936417124e-01
4.486388147965953421e-01
3.207169990284013811e-02
-1.404957793933758747e-01
1.104013302277161157e-01
-2.719186692678860623e-02
-3.342974100708719781e-02
2.316738195444305870e-01
3.932531950827808931e-01
-2.104041435150972791e-02
-3.954573244565416923e-01
5.464369167145469858e-02
-2.284744348192666308e-01
-4.393223924766546662e-01
2.736057460549875531e-01
-1.973569900181380288e-01
2.918059776662864091e-01
-3.282814236710028533e-02
-1.823204076159412046e-01
-1.719000787733742652e-01
-4.757303050830346547e-01
2.666073373012015080e-02
3.311996845581485216e-01
-4.355077651538345473e-01
-3.937960809079988356e-01
4.687541499552363988e-02
1.509099835659766520e-01
2.095581261386446348e-01
-1.805117700273441983e-01
-4.708531427565440519e-01
-6.648584564230186622e-02
-2.683354053874528189e-01
-5.097659017105624635e-01
2.062283558336315548e-01
4.610429517013174272e-01
-1.036254332651915938e-01
-1.739349784814757383e-01
6.416086951290433937e-02
3.601498664851889298e-01
3.207980997042289562e-01
1.919496303458839426e-01
-6.135612658659259089e-02
2.130239860871115665e-01
-2.837555572758037048e-01
-2.194324178351035048e-01
2.997462022545059890e-01
4.446047075499794388e-01
-3.091425318830957059e-01
-1.805632121441438920e-01
-4.770489299572984732e-01
-6.152166260790780522e-02
-2.673609822815021797e-01
1.565349310442754327e-01
2.243308636673798095e-01
-3.543492457327360734e-01
-4.081550709784966813e-01
4.217743069309574655e-01
-8.240915363033943231e-02
1.849296880228991358e-02
4.419887868763383576e-01
2.506724649185396170e-01
-1.855323288898101108e-01
-4.303816163541485662e-01
3.635578638670076967e-02
-1.556179968854299323e-01
-4.715218022550374810e-01
3.012256058755113930e-01
-1.064360726454259831e-01
8.811597793532363609e-02
2.851036060086068469e-01
4.299030620610162501e-01
1.068956272298559468e-01
-1.881642918881453463e-01
-3.786570296109897371e-01
-4.294325381655464402e-01
-1.841391215575408080e-01
2.033156455261713735e-01
2.346947701388753804e-01
-2.548709435612058760e-01
-3.895311964524565962e-01
-1.690072051406289466e-01
7.976264189506730717e-02
2.704603556297109357e-01
3.368295431170641174e-02
-1.971535867398163666e-01
1.326309740645899571e-01
-2.319146552706735642e-01
1.681681342739271834e-01
3.295142821419356216e-01
1.139261317040639598e-01
5.540239272674732374e-02
-1.988897338278002858e-01
3.531648412182827879e-01
4.882570886406287225e-01
2.800283224240970870e-01
5.098762868673272636e-02
-3.515998794589176302e-01
-1.677171029256254997e-01
-1.510623508159849859e-01
-1.827717139702266513e-01
-5.764956909036916821e-02
7.643405469508879335e-02
-2.735641557396069068e-01
-2.671912687352027693e-01
-4.118323620199130786e-01
-1.799448432013705246e-01
-1.610601108775704809e-02
-2.571573858558881889e-02
5.060531776259764580e-01
4.715073254622432763e-01
-7.060520947913249967e-02
4.756514358977010914e-01
-2.627849748031683141e-01
8.067474531751123168e-02
-7.735409619498348618e-04
4.977629174878125951e-01
4.048934765070536512e-01
-2.131054512579378668e-01
-3.157550264775460525e-02
-2.727894344134887961e-01
9.571607552508686056e-02
3.288933524542566045e-01
-4.003742064649766230e-01
-2.339583889717514742e-01
5.046338633675210295e-01
5.088906218659235980e-01
1.190299593757197794e-01
1.655712972391404081e-01
-1.963110615927735059e-01
5.039358550264931846e-01
1.863095716532992829e-01
1.943879101691604883e-01
-4.446903580464009464e-01
3.664649201590425287e-01
3.043919695987258867e-01
2.193012834548777878e-01
2.452984324387117998e-01
-3.269716604260104464e-01
2.445581272049993371e-01
-3.929746214144148597e-01
2.319298313403807266e-01
-4.633900475722185774e-01
2.738969153653824651e-01
1.179717013858010317e-02
-2.670062134021370936e-01
2.396909614248625697e-01
-1.644577717574089715e-01
4.243720552331120555e-01
-3.031195872412849046e-01
4.539261123963458933e-01
4.892411827124117929e-01
-1.901820241765151132e-01
3.727544150692339575e-01
3.384132938408648816e-01
-7.198572184993801137e-02
-1.307733951184925913e-01
-2.320090961455351652e-01
5.054522272120020032e-01
-2.423422662610048850e-01
4.217434848351365728e-01
-7.335989943372243915e-02
4.129131465633610332e-01
3.312426286166766931e-01
-3.341873067240063722e-01
5.968061648832257565e-02
1.683864483130589895e-01
-9.744576817282100956e-02
-5.195341979637227992e-01
-1.907857088916483645e-01
3.124621154565574432e-01
-4.766492751366670499e-01
-4.213721203331855514e-01
1.790123577597855509e-01
-2.263472369968139858e-02
-1.170060413977828083e-02
-1.396052431776671487e-01
6.667808583192931515e-02
3.625834197255307090e-01
-2.402736074794617760e-01
3.036307707787842536e-01
-7.085870999954166360e-02
1.572858711234927792e-02
2.198589261373306847e-01
-2.163050441169055982e-01
4.448156086935011189e-01
1.975128391148714413e-01
1.468482833485557915e-01
-1.802499218710960360e-01
2.134370755809348874e-01
-2.023359364187277409e-01
3.804102942670726240e-01
-4.596875112515757533e-01
-2.923125724753355414e-01
5.489184322562818547e-02
1.911375241070795983e-01
2.004777751247371290e-03
3.838807820074799926e-01
4.598766515873985994e-01
-8.772882779639846682e-03
2.783691413483407873e-01
-3.006215470794372166e-02
1.731459998347197604e-01
-2.504391364575576651e-01
-3.977793007401094205e-01
5.129343384581167564e-01
3.503811963183393052e-01
-2.091988762803779212e-01
1.305302340855303833e-01
-9.431052176529687581e-02
-3.274714175233511826e-01
-6.923953397773913165e-02
-1.966621989341983678e-01
-5.030555600884412115e-01
-1.248562500236863604e-01
4.060776684212016319e-01
2.927555027726614356e-01
4.689629126970974032e-02
-1.986319513222670752e-01
-2.956427202687800238e-01
4.468898587789857380e-01
4.258299864296303389e-02
-3.052221993896477303e-01
-2.490824873754186874e-01
4.534587286004571616e-01
-2.716249328662243556e-01
-3.798910562262634572e-01
-3.324969499207209855e-01
2.553310571455430500e-01
2.155989915407343083e-01
-8.598084442291778484e-02
2.677099938674979973e-01
9.815615202426131169e-03
-1.081946949746282055e-01
-4.023803299141172074e-01
3.773749311257066363e-01
-2.451825986863504780e-01
9.431105256045294039e-02
4.816878933749373926e-01
-3.183736310767253386e-01
4.477198436552617955e-01
1.556200081878076069e-01
-3.743171583760030452e-01
2.620725979626531421e-01
4.598029334431750770e-01
7.235126351067031059e-02
1.954357620920907090e-01
-4.556898544143940799e-01
4.965385172257280044e-01
-1.700171755624270975e-01
-4.577827252841785155e-01
2.950105774163118699e-01
4.585571938652672763e-01
2.165355876986125028e-01
-5.148249677936662660e-01
-4.529685139704608954e-01
6.408374701938006346e-02
-1.715022347026775029e-01
3.873653817938083055e-01
3.946685408156003771e-01
4.940954997724946174e-01
2.344411175093090161e-01
4.137894773480353394e-01
-1.860832811737684889e-01
-3.864109425003665610e-01
3.783039293427509775e-01
-1.796196036240442495e-01
-6.794301986459115594e-02
1.628776492384824970e-01
1.466521093443862722e-01
-3.272116841027211676e-02
-6.903828451812614453e-02
-3.583288159576478726e-01
4.669002878912390658e-02
-2.570001911576979547e-01
2.461799544609412638e-01
1.630980136473412778e-01
-4.468166906523349802e-01
4.787093105009022631e-01
2.726295323884485033e-01
-2.799383830687342534e-01
-4.911473024056621783e-01
-5.445391322436125142e-02
-1.623976288021434788e-01
4.205998003667392460e-02
1.379420712444244523e-01
3.055530984654434290e-01
-4.863836431830805829e-01
1.793716822334628647e-01
-2.028360306555410941e-01
4.972110268322373350e-01
3.249446479959108292e-01
8.438065429566987685e-02
9.192300279548662467e-02
-3.381529226848845049e-01
-2.565198003660038584e-01
-3.648484641881273305e-01
-1.493589892707469502e-01
-3.669895409440366296e-01
-8.245535974414705191e-03
1.236471932266131890e-01
-3.530842554354073348e-01
-1.663157810576383622e-01
-4.242916558140943928e-01
4.545419842602201055e-02
1.752504495126000761e-01
1.615798505055567602e-01
3.634474711420254134e-01
-2.137060314566487096e-01
1.946333300126818489e-01
-1.185316450345053202e-01
-3.497180439903410654e-01
-1.152803518415153605e-01
-3.473104659794921112e-01
5.249166602325061604e-01
3.106196038455004138e-01
-3.173992243448790496e-01
3.282718144572241425e-01
-9.023517080673079671e-02
4.693025497118271105e-01
2.088472443200582035e-02
4.092577686047866314e-01
-2.350626521877110242e-01
-1.016723930542959842e-01
-9.071979873887826840e-02
-3.531129991171488292e-01
-1.565617226986270039e-01
1.934993173321688242e-01
8.741858604641404573e-03
3.780509314275579680e-01
-2.150325242306019013e-01
-1.242029422835560504e-01
-1.611536763560817431e-01
9.379452001520445503e-02
-2.675208705830788292e-01
-3.117018906111269638e-01
4.817005817876523488e-01
-7.467649210168235407e-02
1.154514430207844999e-01
-4.120835875353974775e-01
-3.105386325068996145e-01
-3.814261939742006891e-01
3.259341280636878779e-01
-3.807403713756632446e-01
1.375433412599769319e-02
-3.496874763224883664e-01
-2.392183340685279380e-01
3.741406861079387136e-01
1.254050314351892736e-01
4.322486622161962888e-01
9.911514045209110502e-02
-4.925461751459975224e-01
-9.162198321502991460e-02
-4.683855682921801988e-01
-1.987763433657544487e-01
-1.787799357304283368e-02
9.570561546478247028e-02
-2.702727458658353843e-01
6.411191176344398224e-02
-1.116497514254542189e-01
-2.174025234231510492e-02
-3.155625753974807268e-01
-3.799974374435595159e-01
2.050535418175922220e-01
-2.004005053823475491e-01
1.080523277789894321e-01
2.047827391397574401e-02
3.734592314875733177e-01
3.393254429216266410e-01
-1.217705717405928451e-01
-3.189269132884360869e-01
1.051504140931516923e-01
7.866144101244502973e-02
1.881296214930277266e-01
4.191296734079772435e-01
2.645435954751177432e-01
1.512723027668032016e-01
1.214737010842790316e-01
-2.914274054474051412e-01
1.792907560170053094e-01
3.510187742936172750e-01
4.319060915410467549e-01
4.452060649981410267e-01
1.070821570971864228e-01
-2.308090830879551691e-01
-1.472159365752562787e-01
5.207143390966730845e-01
3.012794081149606715e-02
3.409812760971702716e-01
1.247602383883072708e-01
1.140701989719825928e-02
-1.172711095818445293e-01
6.785260715044548474e-02
-4.935612999109480481e-01
3.962061769568945846e-01
9.250775590333748521e-02
-4.726054551733273046e-01
3.438449997403813518e-01
-3.398369531025026702e-01
-4.600996568179397950e-01
-8.532526178164041158e-03
4.564465466538631944e-01
-4.332112940314458149e-01
-4.433082856481558864e-01
3.447297938009102891e-01
2.581036145253245984e-01
2.691831000866516388e-01
-7.590861876119446572e-02
-1.392818918890278701e-01
-1.599004510329521400e-01
4.021928547145821320e-02
1.795141278125404749e-01
2.547866097429817289e-01
1.229962877923976017e-01
2.627738597571074516e-02
-9.368858669870946954e-02
-2.090961163576166293e-01
-2.587461105951096574e-01
-2.204420320571887082e-01
1.404400505065256932e-01
2.188050349853195298e-01
7.965163100803916707e-02
-3.121663581441408430e-01
-3.441085313931344092e-01
2.525709082058195665e-01
4.447991103073669628e-01
-5.196279958824692180e-01
-2.774268804288650414e-01
2.601363257929127926e-01
1.846799593963396047e-01
-2.792245688836317297e-01
1.804303858189360704e-02
4.418513636804866779e-02
1.978897989454496409e-01
-5.240958094411551915e-02
-1.106028160534320570e-01
-1.908775616118997820e-01
-2.795461340739327505e-01
-4.219383846850962572e-01
1.474352095880578917e-01
1.562847056680107816e-01
1.773442164608185767e-01
-4.961060564274580864e-01
-7.149637342792422579e-02
-3.836473836620014621e-01
1.413781602243186809e-02
4.574862267418285389e-01
-2.035656664563857687e-02
-1.614955603471641410e-01
3.037997774600087464e-01
4.653967996102014171e-01
-2.123951037214230064e-01
3.309169479249222112e-01
5.233210607923026725e-01
-3.481583397138221514e-01
3.815219519529559900e-02
3.195698822092505331e-01
-9.835446858161801809e-02
-4.496005739017962244e-02
2.651694826408817485e-01
-3.768237545484605100e-01
-1.149029002018194384e-01
9.940605108306495297e-02
-2.252653987880181008e-01
3.399403584629976383e-01
2.670132388379398702e-01
4.612130351186788380e-01
-1.402045044910678025e-03
-4.156703748355433103e-01
3.991352507438263308e-01
3.003365574802306925e-01
1.950048285180169816e-02
2.963793258303430989e-01
3.433586697254969455e-01
2.318404446246640493e-01
3.881728634914058396e-02
1.066883738803043186e-01
3.070059725838210629e-01
1.107562036391838978e-01
-2.949313049416258936e-01
1.411924999888347354e-01
1.112448677373232588e-02
-2.386412847038462404e-01
-5.345040927829336486e-01
-2.632811041859446366e-01
1.635956717398188986e-01
3.528691862412842162e-01
3.385203114088423670e-01
-4.012157670479027383e-01
-4.361638097784467649e-01
2.958493033698470498e-01
-2.174084992357953328e-01
-2.213995455586263150e-01
-4.507837018403264562e-01
-3.928071804961498770e-01
-3.423596781251291299e-01
-2.986167827124673324e-01
-2.566385204472849957e-02
3.601837633685285311e-01
3.673143634820321135e-01
4.557227706677472456e-01
1.404504135684231858e-03
2.755310979164485863e-01
3.875824584862604116e-02
-3.938421032263429433e-01
-3.521928423979022726e-01
-2.022185694644824949e-01
5.402608102607515672e-01
2.515173438468445433e-01
-1.869292268177793481e-01
2.595639192863126166e-01
2.138559271040479381e-01
-4.168060480053864536e-01
-8.516112250132805428e-02
3.318237074898930383e-01
-3.737112655357293645e-01
4.461267545923507938e-01
4.942770164334179817e-01
3.960322150127338903e-01
-3.174293994972755550e-01
1.297959583724228316e-01
2.218187906664621512e-01
4.168901718178228410e-01
-3.748950542765064897e-01
3.321244211956470016e-01
-1.869752690659131911e-01
1.322713971562692326e-01
2.319394314793616907e-01
3.050394365423224063e-01
-1.768726592116612872e-01
1.126330258510247345e-01
-2.009392680628760697e-01
5.129932695991067382e-01
3.055287704675291316e-01
-9.857550845365606329e-02
3.647894943136199553e-01
2.190146678315350870e-01
4.110028263857347652e-01
-3.473116262637275797e-01
-2.096284192712827565e-01
-4.151157250637799723e-01
-2.095990219123042009e-01
-1.261406523200293839e-01
1.182598878397158743e-01
-5.540452339839937318e-02
2.343820761853785406e-01
-2.324488575990598382e-01
-3.217291116374634830e-01
-1.091353841138114067e-01
-7.632366465527147537e-02
-7.182639380180005917e-02
4.098055486323062269e-01
-2.535890352562280015e-01
-1.479400001862980485e-01
-3.191659886392959611e-01
-1.733817457746824608e-01
-1.301317421290872078e-01
3.484108822399602234e-02
-2.705731085558795712e-01
-2.701692478030094935e-01
1.825753351679686443e-01
3.473507158663559635e-01
-4.077896386160836384e-01
-3.476934056989489652e-01
-4.286790541174269609e-01
1.678305187399986020e-01
-2.880913627317398529e-01
7.552690319409972874e-02
-2.898259697579030347e-01
3.301375348786372288e-01
-1.999815274193622872e-01
1.810850711648431810e-01
-3.308677469070104848e-01
-2.022886110189005548e-01
-1.871254040811023422e-01
1.593791998067211058e-01
1.747887946323302133e-01
3.567717455855325404e-01
-2.827645339039373540e-01
2.842087880079871565e-01
2.416083734867036925e-01
1.019778749490505149e-01
1.779837583285769353e-01
-3.669878400303313026e-01
-3.201817986628037183e-01
-7.534572659428659391e-02
2.371471305838089849e-01
-3.130778708854066728e-01
-1.133092433842502328e-01
1.192938403623741705e-02
4.242334089450556789e-01
-4.636784525648710020e-01
3.321468992286829569e-01
4.459361767815691602e-01
-2.887083181611216909e-01
3.570121495022615110e-01
-2.491868766643647315e-01
2.343974348499881233e-01
-9.518776381693896949e-02
7.879501087580834118e-02
-3.047372902189295907e-01
1.477259671718687828e-01
-3.736170047259598781e-01
2.729333111034138240e-02
-2.015780070775534741e-02
3.047849187419208739e-01
-5.375924080665463872e-02
2.764792311060741414e-01
-1.356202468083432533e-01
-2.364402628116504812e-01
2.691936890981797004e-01
-1.160051830000962264e-01
-3.815287603056913973e-02
7.029313188872893248e-02
2.946998653921760192e-01
5.202643231306395416e-02
-9.449371850740327650e-02
-3.624850273483530283e-01
1.722328283180922792e-01
3.748720881457061060e-01
-4.177541842572339292e-01
-6.723285605911778762e-02
4.205480691850773667e-01
1.824467822638619480e-02
-3.586715792671662986e-03
-4.721127343226773077e-01
1.882316881124249715e-03
1.228127477563810410e-01
-3.788125983788639961e-01
4.284350756151226736e-01
-3.312485989199404623e-01
1.601523088011942153e-01
-2.426272654543619178e-01
-4.072881779824233939e-01
-2.431012689856660580e-01
-1.650056957263514312e-01
-2.166028731729636309e-02
-2.583230628123791006e-01
2.027443338862404687e-01
2.999876911884954422e-01
2.672138731360447217e-01
2.066461681497422098e-01
-2.365234131048810362e-01
-3.053984402617960225e-01
-3.612864705633066498e-01
-7.813165170818740790e-02
-3.847052514819405133e-01
1.744045361224327295e-01
4.520046640653386794e-01
2.735016265909929190e-01
-3.862036174038335767e-01
-4.849856529595025778e-01
-1.632351792412573555e-01
5.067435517125068456e-01
-1.610390304260626848e-01
2.679113724702865129e-01
2.194488837704160200e-01
7.816729289791519986e-02
-1.285085114033947540e-01
-3.159412736967245339e-01
4.672542077871394972e-01
-4.561526859894126096e-01
-2.927500795392201094e-01
-2.133470548488502483e-01
3.816573907859021064e-01
1.826065786281805825e-01
-2.709448892405506015e-01
-3.591654976453719783e-01
3.740861654617863019e-01
2.605847111691016460e-01
-4.700499581440214514e-01
3.860227077068014157e-01
4.680958589806948067e-02
-5.398496517320535565e-02
1.664389413139820140e-01
-4.963863821316547575e-01
-1.762311979593389477e-01
-4.245018256524978328e-01
1.588655234765541102e-01
-9.797242032106584508e-02
-1.761573116739245659e-02
-1.986659495870292669e-01
3.359479877276145832e-01
-4.377237691526384422e-01
-1.912695214490599538e-01
1.536500788065750800e-01
3.048708230209054015e-01
1.281077659875939634e-01
2.813221862104371418e-01
-4.518045488382383401e-01
-2.086100024745773385e-01
-3.982096686480018355e-01
3.196179454812232701e-02
5.339083252807923508e-01
-4.157809695004741068e-01
-2.938457637647063150e-02
-4.545739773668495132e-01
1.870751998683976292e-01
-2.944905273579727645e-01
2.496336726991198740e-01
-2.774767743581809665e-01
3.546258204753478527e-01
-2.529143147914603151e-01
-8.636345531140271481e-02
-2.343932030772969410e-01
3.560871670515363685e-01
5.923953945610455074e-02
4.170979075576854989e-01
-3.110838935417249429e-01
7.075971785325206598e-02
3.342715201857794916e-01
5.505432437297193005e-01
2.437077736321887900e-01
-2.979108477113974196e-01
2.922266175550037315e-01
-3.947623570126378434e-01
2.688817441395971453e-01
3.452910569322111267e-01
7.577276220376709392e-02
1.155346285265361483e-03
4.510245514725765292e-01
-4.918153927896185551e-01
-4.904427096542428033e-01
-2.381396174941606825e-01
1.074958170111762340e-02
1.515309932561062674e-02
-1.568468437876416877e-01
-2.423388892954616847e-01
-3.176752102006658030e-01
2.762395792268592665e-01
-2.080730128519625299e-01
-1.328134915147484267e-02
2.992266315501845297e-01
9.797546341356275224e-02
-9.068891348727441126e-02
-3.353001916857001330e-01
-1.174604848559316350e-01
9.049178673257602182e-03
4.965455996609433043e-01
-2.066320881351668692e-01
-3.125227896845674813e-01
-2.757459958504328013e-01
-2.714099244711709602e-01
-4.345539005444287728e-01
-1.527235756972213643e-01
-2.034564106531892569e-01
3.495719559247436603e-01
2.421651066744935632e-01
-3.956476169790739683e-01
3.107463693043993058e-01
-4.348048288523949645e-01
2.052834361514943029e-01
2.453781936753479664e-02
-4.857734321379151288e-01
3.659182011056533734e-01
3.404302884675274865e-01
2.792451265551002537e-01
-1.504861038089733427e-01
-2.756517006703211869e-01
4.785112727267739618e-01
3.309913184660903673e-01
-4.500915227772639970e-01
-1.458864931597858849e-01
3.149234488911069607e-01
3.897049484219947124e-02
-2.684249328878149932e-01
3.014619715242529696e-01
-2.155044463249830566e-01
-5.058783133542732457e-01
-2.480399242079554811e-01
5.216019797000441827e-01
1.729328518587280594e-01
-2.537194862198871026e-01
2.228927627433520686e-01
2.081725373373072563e-01
1.720526953645714063e-01
-4.110562752126404873e-01
-2.581895328761637520e-01
3.850296720677587325e-01
2.218004913824411783e-01
-3.572020391605830181e-01
-2.131152717186773071e-01
3.561216405020423831e-02
2.940531466526324911e-01
-3.128969013868742599e-01
-4.381594399017583741e-01
-1.714456745584076458e-01
3.786945147923867494e-01
-2.675106578906844557e-01
-4.457336773508009387e-01
-4.882811494297987776e-01
-1.383264370797560316e-01
-4.819950418831762118e-01
7.036582665611329501e-02
1.816766809016676643e-01
-4.839269060279124263e-02
2.514106660452475883e-01
-1.871896857448478516e-02
1.758307942265184831e-01
-2.751889504460598435e-01
2.054465512659943704e-01
-4.249242971616454256e-02
1.830727661455822941e-01
-8.478060026697821494e-02
-1.858826206885014209e-02
-4.583768555138177936e-01
-1.884891199119913610e-02
-3.701167957005754294e-01
-3.493111768283599927e-01
-6.640714656757014389e-02
7.387681113262145605e-02
-1.431178024815097094e-01
-3.535020565450389118e-01
2.195357029425960282e-01
4.471727981530492224e-01
1.983252727739346077e-01
-4.642424724268512382e-01
2.977200085917334205e-01
-4.772603549955566904e-01
-1.008928492609253574e-01
3.910721923097597030e-01
-2.762958670724228183e-01
-4.128184110997595857e-01
2.257111327967769032e-01
3.947811351127322732e-01
-2.036859059435250363e-01
-3.009603828104135403e-01
-3.341432882198761556e-01
4.677647286528998638e-01
6.289680047062543022e-02
3.303380946396608508e-01
-2.043162039534786589e-01
-4.738527315261863992e-01
-6.073826528098241057e-02
-3.052849101870998560e-01
-2.333604729310237609e-03
5.384012639028325220e-02
-1.893068310743218352e-01
-1.821327421649293343e-01
-4.597725279751819771e-01
-8.109050444606452634e-02
-1.728740428053088252e-01
9.947458695433378240e-02
3.245893062906098359e-01
-3.943059077113283267e-02
-4.334163136442233388e-01
4.206747545938014921e-01
2.964042298445162538e-01
-1.279244168030941597e-01
-1.603853888286903839e-01
4.366176234641986342e-01
-1.335232642332819797e-01
1.419797256145252096e-01
4.841488849222402302e-01
-4.772200410491417855e-01
-1.950795854259313178e-01
-2.808922937516576401e-01
4.220460979811832547e-01
4.672284175609216217e-02
-4.498166068930398165e-01
2.606918817192558357e-01
1.650557356138071252e-01
1.509699572469190842e-01
4.580393205541303803e-01
3.374728981799799965e-01
2.239512515453988273e-01
-2.942384384148418741e-01
-4.026537003871054621e-01
-3.004211909262811120e-01
-3.033985323492947028e-01
5.373832835005468156e-02
1.711041229973885580e-01
4.200705871337769015e-02
-4.170108434313787305e-01
-8.274663264453907541e-02
4.670499630212612829e-01
2.076212856746637858e-01
-9.337885078690634499e-02
1.859221340965048486e-01
-2.061630385847778024e-01
-3.734331032352171675e-01
4.469772804761294738e-02
-1.817032655276269448e-01
3.733002349393679115e-02
4.215600656870578944e-01
1.829317719694610878e-01
2.811091661936055419e-01
-3.958903131644265216e-01
3.756675751220750654e-03
-3.889080131724798051e-02
1.378684878443118822e-01
-1.911172441894794516e-01
-6.346471421240494626e-02
4.884364437889872623e-01
-3.554362297326601472e-01
-2.438368812674679142e-01
-2.554852874988552403e-01
2.213778421460585732e-01
2.646798399308493144e-01
3.153560158979642480e-01
-6.758941349747571437e-02
4.209791695490950336e-01
2.432077025864454733e-01
2.772470040946615200e-01
3.879309122430368850e-01
1.601088840666768931e-01
-3.095063955768111857e-02
-4.312602206338641553e-01
1.088336049123629773e-01
8.820919240028939068e-02
1.181526369621777039e-01
-1.736233745355202918e-01
7.254751600093473085e-02
-3.158378713305021734e-01
1.511548235869542289e-01
-4.152205563174415914e-01
3.813384135460118340e-01
-2.803312195522673633e-01
-2.030685692714220281e-01
3.723609271438447776e-01
3.658168694805949972e-01
3.216398546288789517e-01
-1.951673516901467620e-01
3.813826809168407994e-01
2.472151506425818435e-01
1.490520494846768185e-01
3.936656101492444493e-01
2.681988458909223549e-01
-6.149044743328194867e-02
-1.716593302404841870e-01
-1.097768374923065310e-01
-4.153829140706025158e-01
-1.221479614334917280e-01
-1.432148001489145506e-01
3.873340619733188772e-01
3.862286484808631903e-01
4.545014198270344030e-01
-1.499028763086983906e-01
1.720199818733408603e-01
1.079521101373860786e-01
-2.462026904730177379e-01
3.390522320824336244e-01
-3.254345996091597137e-01
2.443880261313327307e-01
-4.036507446793626830e-01
-4.605931792533033420e-01
1.861138047880446789e-01
-1.564522521004543462e-02
-1.247635554740607056e-01
2.523517223761960748e-01
-1.527071961160157698e-01
3.273550501787215739e-01
4.665954295559950338e-01
4.869821567994701006e-01
-2.279330238264669350e-01
-7.349941950786167966e-02
2.460227448973930919e-01
3.946461938938973235e-01
2.324285634910446541e-01
2.876095776243114965e-01
3.841661176417212609e-01
-1.074644456507262147e-01
7.197320289447457775e-02
4.409676623495294850e-02
1.651349655618387646e-01
4.208676730923131548e-01
1.046037714237344068e-01
4.780717030608561124e-01
2.472214605190777015e-01
-9.090924894417232172e-02
8.873526617670200733e-02
4.103849278164434233e-01
9.082377192028946722e-02
1.971804167291670018e-01
1.321475219495892861e-01
-2.032094963237432439e-01
-3.265390111997679146e-01
-1.260301127358015028e-01
-3.974506546825740672e-01
2.879725374736849530e-01
2.009778114367661017e-01
-1.364379238687191409e-01
-3.570359240423155445e-01
4.006212325116258466e-01
1.357908166098072689e-01
4.968595077588381370e-01
-3.600547380889899673e-01
-2.335864278984945142e-01
-3.830842857990454653e-01
2.471215272396468932e-01
-3.432687612329470839e-01
3.855303665570068428e-01
-3.712046494831917204e-02
-6.096324107059738866e-03
-4.771291418504522985e-01
8.684976014193039606e-02
-2.927773346256917208e-01
-2.987529911902733759e-01
3.895344782538849304e-01
3.777435249101025461e-01
-5.090730592273096100e-01
3.258831786253819085e-01
3.954926491328159543e-01
1.845447843943709898e-04
1.227705464867737684e-01
2.304777018642750475e-01
1.442464997105182278e-01
-9.378217898945864772e-02
2.832086809226017077e-02
2.289080402535218633e-02
2.797561215372312837e-01
-3.057427093880141222e-01
2.166320076194820643e-01
2.692193391692592197e-01
2.549495120957780414e-01
2.664908304177835974e-01
2.910050133176169118e-01
-1.167516637775549565e-01
6.633936780500679364e-02
2.130876614617310261e-01
2.483701165277524825e-01
4.180293742045113614e-01
4.187110154809252083e-01
3.065711867450211792e-02
-8.810580278670551713e-02
2.962124865963631226e-01
-3.117136293448731776e-01
2.162426894036710012e-01
-3.069152836987579791e-01
9.073610097294017296e-02
9.206451472260734903e-02
-3.663439832353924258e-02
3.735221410187054558e-01
5.035237620942366321e-02
-1.951506618884740057e-02
-9.837383275218990197e-02
-4.481638137082332718e-01
-1.614759033341222894e-01
-4.227641422373273894e-01
5.001677741195942328e-02
1.484382958474796954e-01
2.768420787890711887e-01
1.267698192625478504e-01
-3.032397569537244042e-01
